-0.250919762305275,0.9014286128198324,0.4639878836228102,0.1973169683940732,-0.687962719115127,-0.6880109593275947,-0.8838327756636011,0.7323522915498704,0.2022300234864176,0.416145155592091,-0.9588310114083952,0.9398197043239886,0.6648852816008435,-0.5753217786434477,-0.6363500655857988,-0.6331909802931324,-0.3915155140809245,0.0495128632644756,-0.1361099627157684,-0.4175417196039162,0.2237057894447589,-0.7210122786959163,-0.4157107029295637,-0.2672763134126166,-0.0878600315659281,0.5703519227860272,-0.6006524356832805,0.0284688768272232,0.1848291377240849,-0.9070991745600046,0.2150897038028767,-0.6589517526254169,-0.869896814029441,0.8977710745066665,0.9312640661491188,0.6165551737899121,-0.3914533201742496,-0.805447724013446,0.36813997751480876,-0.11969527792784578,-0.7559236612219004,-0.009780042994460511,-0.9315523831469642,0.8184269119981619,-0.48300055443840945,0.3249909511114959,-0.376607014831041,0.04001987058713285,0.09328476037968457,-0.6303016855763507,0.9391692344882888,0.5502656467222291,0.8789978831283782,0.7896547008552977,0.1957999576221702,0.8437484700462337,-0.823014995896161,-0.6080342751617096,-0.909545422178924,-0.3493393384734713,-0.22307015571145292,-0.4573464790960708,0.657472215477915,-0.2872479598885,-0.45139177621139737,-0.029386548305883452,-0.8153680614964114,0.5976999605703233,-0.854459842660654,0.9692580294642072,0.5398794137170254,-0.6078889486222805,-1.1703504948466121,0.13302585061650948,0.05166168515037557,0.3424573557508903,0.49814171416370545,-0.8578920231344542,-0.2840116258692002,-0.7682622232472001,0.7262068408236089,0.2465962536551158,-0.3382039502947016,-0.8728832994279527,-0.3780353565686756,-0.3496333559465059,0.4592123566761281,0.2751149427104262,0.77438154703989,-0.055589066135202224,-0.7611569806827382,0.4215990079303761,0.3629992775673635,-0.2649769214923295,0.0030441168665237793,-0.7499988375563794,-0.7496796490983251,-0.2536350932853245,-0.4211295853088278,-0.3888276383742709,-0.9905743393139999,-0.2023824242732514,-0.6206670165768156,0.2562372942212057,0.6411066172193387,-0.8126853893745576,-0.3072808644903687,0.48726563346101226,-0.5427404410233014,-0.846040180342414,-0.4204970941724639,-0.6775574254919912,0.8593953046851461,0.6162407591288339,0.2668075130208469,0.7429057345988609,0.5743331179638909,-0.6552257532387531,0.7759092662374849,0.04601565536216359,0.44047343019370055,0.22120323527143534,-0.9163768983449064,-0.9468603215621062,-0.3025608082343056,0.7229994381947547,0.5689715188179096,0.6958445392376281,-1.0559463614282305,0.21465124461391863,0.13804476759043832,-0.05745866868258803,-0.44039793236728497,-0.296796148984509,0.8652404455035786,-0.1542055292253676,0.1671357081772399,0.4049826850398191,-0.272740795241412,0.9435641654419212,0.9248945898842224,-0.4964354083492717,-0.005503030681040413,-0.3982885713675512,-0.527805396507838,-1.106137180772435,0.10543966750531071,-0.06133944735704215,-1.0338337401922937,-0.9155264132877993,0.14597675957601866,-0.7492613245030771,-0.5042116136366434,0.6004030579044691,1.0321375149872882,-0.3170355671809352,0.0594175006717655,0.03464817628082276,-0.6156504027917173,0.48626502733274857,0.33390823964266797,0.7949927291479782,0.2620757791321083,0.0722353218361735,-0.9097997294751964,0.6489181698856263,-0.35852342585407393,-0.6269630114482473,-0.9184497168904722,0.1817858863764836,0.3535252966964944,-0.97683939671697,-0.18740698906899864,-0.7635972397623098,0.05333176886616313,-0.8150099971449206,-0.14207286268953845,-0.6316940716114234,0.9921577237098389,-0.11138162865888589,0.5111192361970534,-0.1584099444922935,0.4644453214012437,0.4487149009754388,-0.14877508346923093,0.7837076107619834,0.4551854329943136,0.6692961636084201,0.7446122421339524,0.23264518990587052,-0.6154009184566591,0.4871632291513434,0.4181879780696938,-0.03722973720735439,-0.32375325109077213,-0.3015814008475815,0.45161722245028335,0.7930048407034689,0.7428637262254525,0.4802055415473768,0.07665871271721612,-1.1883949806300278,-1.063823785995998,0.2451068612144724,-0.672292501355585,-0.9237539394116427,-0.3083247393801517,0.33493178809529905,-0.5456753674151431,-0.12430452810609383,0.013341867612319319,0.7601746510936699,0.6625717811893501,0.08564906360117754,0.5058789630119854,-0.213920584263827,0.31150392859027853,0.40282092733942043,-0.19371449985050324,0.2801216913188366,-0.15732042692827042,-0.22169807543162404,-0.8309872594888577,-0.26461024164623664,-0.4707905803903482,-0.5137159843220255,0.9266514206683556,-0.3009643797798048,0.5300301713724894,-0.16879764819483192,0.09168185401758516,-0.8606962216849501,-0.5691392892927926,-0.49922262949258106,-0.20312872636254625,0.5339897165496071,-0.3641774823761204,-0.6643848020382732,0.5001747890114316,-0.7359513036386334,0.809885027824364,0.7870293665494138,1.7306589938814128,-0.2667335241656926,-0.8323193636035096,0.5867801882456672,-0.9835909335733218,0.20695798441647484,0.44482503316557553,0.3944699772622844,-0.42233563411638964,-0.23401653657670235,0.7020793389060959,-0.36672740256807196,-0.6637596065538083,0.06034083606309595,0.5949188240325501,-0.026020137001471207,-0.22221288580493273,-1.2255522727160952,-0.24867842792747963,0.6718484606694688,-0.7297393439846809,-0.09673365399170557,0.7696494425875603,0.5922174990463981,0.39245322822446926,-0.11925492058272355,-0.5957089738283106,-0.8408498841279219,1.4398758972479528,1.1157585001550843,0.35106988880011,1.1325502106111975,0.28297106796647115,-0.4277572356927977,0.490521204577356,0.10548994177941681,0.39566332961798883,0.5890557598558837,0.7800106836351326,-0.32402314444075,-0.2513156697651955,-0.8326444676325021,-0.1121935277467109,-1.0375221704531328,-0.1761149129868956,0.07641916501615113,-0.6644057138447743,0.350021407770341,-0.7357393164092689,-0.8947393259575406,0.7899385852411193,-0.5323338779017917,-0.9997144144816285,-0.31500316808397355,0.25478224181833087,-0.22142563631477288,1.2791747754878737,0.3732637152213765,-0.5960669366303873,0.7302715765430914,0.8942726983581001,0.3943344949151746,0.5788297832593953,0.8404686451539102,0.032597219791722164,-0.354087054117508,0.5903723895374073,-0.4583395871453387,-0.12522713586216822,-0.8622437289363689,-1.1569420683150058,0.7398527311952448,0.7964920137490772,0.9202248437141043,-0.178986044777584,-0.3693874491511889,0.04198485622900147,0.5108186945301431,0.20755452121370982,0.037060439680491,-0.1906490511625453,-0.994776924285408,-0.025612862793991255,0.3461831331731807,0.7772557894294196,1.2001422232747596,0.3674322819940833,0.28038281610073956,0.4633500596271542,0.9020958246480885,-0.8989734193877893,-0.7764043370113777,-0.8898337702506995,-0.9185423975855033,0.7109211680220144,0.40731554394856706,-0.053854462200984665,-0.813351661979281,-0.15119260631674578,0.13940773788654157,-0.1539539025069323,0.41906605532400315,-0.21489491572345665,0.28353499880559074,0.8325883411419481,-0.19150505665836984,-0.5781526774323938,-0.9194093448412832,-1.0350999178758082,-0.5019780139016149,-0.707956320015857,-0.8141214311528793,-0.2343583513726676,0.3515315379737532,-1.0368163415190803,0.23746513176177936,1.3574874471115164,0.7290274650658729,-0.07467267215469027,0.268487817666189,-0.06901567711083706,0.09123357100868994,0.8829296175530503,-0.2277950205306194,0.9341390989343322,0.7700270605033951,-0.8323075704637259,-0.37821145084933233,-0.00023085612753804738,-0.524844517580125,-0.5621131058004453,0.5198005770826746,0.1226662759392718,-0.1417289554016633,0.13559805059132557,-1.7097420891337356,-0.40466247397884975,-1.8967754470741685,-1.87881731834777,0.3022516970549753,0.3704146829008337,0.1909379126031754,-0.06864809934164917,0.09506560307364559,-0.17562439041357983,-0.0909948380686576,1.1148844636758322,0.522068012370929,0.9826840961750561,-0.174764646177147,-0.2559638284144336,0.5528257816871248,-0.3183932153698467,0.7853852099146785,0.33482459101513884,0.6149986275538041,1.281131889165143,1.4511033283978831,-0.46507299218679593,1.0102794008265072,1.1489744148449623,1.0654079479357463,-0.46543877203788014,0.27179799107037445,-1.520183005360931,-2.2266910415241448,0.05312584427064189,-0.7650939457386384,-0.5372082179639934,0.8973788415161335,0.24904461549814974,-0.12481469872027333,0.6204476579850855,0.2817374162300224,0.16751419295925019,-0.3978471712183883,0.34503688404754446,0.50474905887536,0.5831580874516971,0.5792362786570522,-0.8175880064862634,-0.20676038217804527,-1.1627484709021563,0.6508193705686278,0.55188776109665,1.636068878468952,0.055011111805597174,-0.09244054344475709,0.14897130114007073,0.7303771391415218,0.4196551250361004,-1.8424500417619432,-2.127582001386118,-0.690668114254202,-1.3299020676841062,0.4903511515694886,0.5173386493964489,-0.9478218373611322,-0.8201849044667182,0.8259390590982869,-0.12046854856418214,0.16057753323112686,1.022804851738102,0.7411055898571233,0.9714998144394079,0.5067563700414865,-0.2474808289381684,-0.8329985666026625,0.5536121850348503,-0.1436077669065428,-0.7973581489098938,1.050526815206566,-0.2911314608058858,0.95835553017994,-0.6319144770719505,0.6059420856758814,-0.3206590013904741,-0.12847555548296594,-1.5277251903265971,-1.2938285115928416,-1.1370836973969285,-0.923309261651093,0.2351740780314412,-0.4419519566577891,-0.20826256462296502,0.8581345338309719,-0.4738294607106994,1.048672797677674,-1.2454616543626076,0.9495408270389741,-0.7432562951623324,0.48169766871590297,0.05540215137074661,0.9859295913650773,-0.8524068705292023,0.1077085688026415,0.9372829494459634,-0.11727997007822769,-0.2923748114568447,0.48284918857302206,0.6471780940910037,0.7945605104690922,0.05603984262952555,1.4069375946332727,0.31920823152709266,0.6773722125935072,0.1012055712647619,-0.817485507235687,-1.511733357750783,-1.1854573758923912,-1.0883131355295543,-0.5066676632053503,-0.02411743420615651,0.03126164993377517,0.05112218080128447,-0.43143500390683825,1.017619561089248,0.4663115553477772,0.2609041203791154,-0.2575391137328146,-0.3809493199782205,0.6275900300062744,0.3694623451077585,-0.6747661213102174,0.8167041581083891,0.3887457899115035,-0.12578817876155038,0.41756323187177746,0.680189636866652,0.5485930301100292,0.6565811470723432,0.9835828766416962,-0.21995072482224787,-0.576233035382033,-1.0459399797741111,-0.7510926021630843,0.046357852392772354,-1.3401400762193019,-0.13801824382043124,-0.5087977905765585,0.3319063392422114,0.34829358319239323,0.8515446830502695,0.4310172162212768,-0.649971936793691,-1.1186450211105163,-1.0337236361496478,0.5747119542207432,0.6258005479711287,0.9994352821915758,0.9932736741478108,0.1108634112052548,0.5106750680237504,0.6245181341623681,-0.04502693006837755,-0.5533219767361585,0.23955279326769124,-0.29260518238280153,1.007308423561342,0.7372780393783726,0.02172873116970166,0.8622780384909401,0.43955018255177936,-0.9477496076503414,-1.4928398896391792,-0.3733874729920971,-0.49572908351319894,0.223904520454628,-0.6936889467902885,0.2523454210192707,0.023485665314123532,-0.1981785993743863,0.08664341071350498,-0.5860972905146297,-0.87390004435156,-0.9620886214483019,0.5102744809095143,0.24061907012121467,0.4081595361984471,-0.5740716769821785,-0.7356166791659775,-1.1062601297984895,-0.6052643309413638,0.029592451803506944,-0.2836504535286168,-0.4477474338692088,0.6563798416592372,0.053965663927982674,1.4734362424113085,1.3573135931395612,0.4549342450933554,0.38747089107390686,-0.2937632765984741,0.3670718607008391,-0.6963037651414339,0.2940551401299835,-0.7567342871103844,-1.230268820367198,-0.6511262479886956,0.3761724525486262,-0.46140115639336027,-0.5580870773777952,0.08582541615940285,-0.5147246914412614,-0.8362218855866421,-0.7422405561787015,-0.7439083220844551,-0.6961946129754113,-0.7238504894038478,0.2792357991394397,-0.6900999591205551,-0.1110384236290683,1.1643559002445807,-0.03997134549164535,0.255312581349004,-0.1975191587352805,0.5837589591056369,0.31407870067936233,-0.28763439565941357,-0.9229101226209722,-0.4053087042953806,-0.22427263001051395,-0.5805635392150852,-0.8705242668423476,-0.8585889025790108,-0.8340561372337779,-0.2855055800339519,0.19828061240394582,-1.0163120754173964,0.3054352626434473,0.13414578700550822,-0.8273853887867211,0.7681622015817143,0.8417448010636264,-0.8778440802902725,-0.4462447037055925,0.6118468087646087,0.5135342994585469,-0.7862043132245478,-0.19153330198193266,0.4564265235199513,-0.3441164123782176,-0.04612540868411895,0.17777115256622192,0.4227278051114967,1.2551025653399193,-0.17426393599199722,0.3679480954635052,0.8192724697820274,0.5049072675126359,-0.39662700123398786,-0.20827066525949478,-1.0568897201440481,0.25734445495179165,0.4734147790436264,-0.38255213587119136,-0.5572915087801081,-0.5405051969624319,-1.1182193839285084,-0.3506831213911969,-0.5652572564468774,-0.3450052956441707,-0.7604757363614976,0.7810545614797899,0.1870609295717873,0.35687633110510264,0.3944381872810058,0.15534248526312844,-0.549341465187604,-0.34060894513570283,-0.3583158131740907,0.7096449523405,0.9834115025934523,0.6217718268335938,0.9579214949114894,0.4181569455077482,0.5333529663617181,0.18676389918270073,-0.47687761301348014,1.1043667634803547,0.6162900165163733,-0.2865299930149837,-0.7942918234807675,-0.673022387307121,-0.45186128642393775,-0.7067016554178208,-0.6475690097253783,-0.42984558139391416,-0.6533956374648411,0.7935308492528503,-0.8395325086767156,0.0490227791405093,-0.1792063460206769,0.9645360010098059,-0.8443354793438695,-0.10475646945466609,0.7800689368304201,0.38857463104617984,0.1791083114989826,-0.700257398134443,-0.6975385304566898,-0.021915477466197323,0.6656756295237649,-0.24993958937851185,0.15960014064283418,-0.3297861520030144,0.3308605437650718,-0.650707071366977,-0.37437953291524734,-0.23376384105526687,-0.07256618095956598,-0.5218890683073452,-0.7668813086368211,0.22123051235626276,-0.4227389134965189,0.1624764428452245,-0.6912745694515954,-0.037719796290365,0.0651788651031717,-0.8963529263551462,-0.3267914436121588,-0.7311733739554164,-0.8733585338590815,0.81363138396907,-0.5563204558115482,0.3947794980271858,-0.677639594244419,0.16273584670861818,-0.22123756440922507,-0.5330855908799682,-0.7197010594754392,-0.5046752966613398,-0.903463638082218,0.44511951772237174,0.40411021357201776,0.7691636259419906,-0.8897786873804615,0.33820036712201956,0.7645404441064293,-0.6828358030954172,-0.8811649718707342,0.4794495253155472,0.13763345546495714,0.6836575535165441,-0.720455246747421,0.5905346237197804,-0.5967453599045109,-0.672688114268591,-0.6714684041380141,0.6291492737675602,0.3303917158679973,-0.11644231979346191,-0.4140292684893339,0.6620558505449434,-0.24957422104587518,0.608508925671734,-0.2827781641698051,-0.48499223225576893,-0.2838410113594104,-0.7309077438683438,0.22727767341819785,-0.05188022046996436,-0.6659249214206941,0.726371400439285,-0.31737103836871017,0.0023114279376127474,0.7486782439590051,0.21507602482241442,-0.7820430289691465,0.8740690302414564,0.2554161061428357,-0.3301887706858277,-0.7214558546732255,0.588050378540592,0.240145511857027,0.066922183952643,0.7877851661019153,0.5771944224490615,-0.6966502405344976,-0.3765565920055411,-0.5030287617068757,0.48756285281818873,-0.9339204568518195,0.13659531269644742,0.5206349272200275,0.7351141949912416,-0.374890988896741,0.6049875654899544,-0.785996354892842,0.6886398233481942,-0.749533639707072,-0.20912093877249827,0.5839272332214822,-0.713640210689839,-0.5499628463973154,0.4408160020058926,0.4372834164685049,0.2822952657705946,0.3878968889342,0.0854488866951923,-0.4964018821860945,-0.3086080129921611
-0.6368045663971487,0.8169011226672567,0.1667835895322409,-0.1982971664727202,-0.0759883927117346,0.8945666792236306,-0.6932971937678396,0.1724596640335944,0.0117773577689319,0.2229084708692956,-0.963779632358319,0.744247817888303,0.8642365649672248,0.1302663671784178,0.3933016477537845,0.8449987623545914,0.4144772686267972,-0.6949219141714773,0.1525767203336263,0.2134300927657118,-0.1517386573952279,0.4728884712494456,0.8687340295380297,0.8511370258135527,-0.0983212571917357,-0.7735239083184895,0.9696823979246691,0.6777961728918682,-0.7506746375934663,0.8416837652347446,0.7397927241242566,0.0376761142521442,0.1825508714898585,-0.2019945922597394,-0.8904767223559373,-0.3296055248078302,0.6057068696413976,-0.9907359913920987,-0.3330027799868047,-0.2036695959819972,0.07474373966793633,0.8395707950684246,-0.307338172220592,-0.30609410589417985,0.4750022331830269,-0.09556418571865642,-0.5507904330235233,-0.09550179918087882,-0.7187581189824356,-0.6475155969216828,-0.0034448509383244444,-0.1621491009909041,0.8296918021362001,-0.2752122017667338,0.1611767005560869,0.2645285758390607,-0.9738110868233328,0.3270747440334212,-0.6439280662604971,0.9221406349389104,-0.7026839233533198,-0.1707527236463035,-0.8293006678925838,0.9937483999269836,0.00435095030295678,0.19024443738552527,-0.8660745856906606,0.49816596120537115,-0.6072687692285136,0.7743649979941825,-0.594597352574409,-0.61945988271859,-0.9316389324160681,-0.06858180498567631,0.1132631164443218,-0.8832176575034015,0.5392069174087337,-0.10196306144345348,0.04594684839131106,-0.11870377290146236,-0.19847423907348677,0.1192806626164357,-0.689519508138575,-0.6361437390094578,0.7235712420270346,0.8922309242672655,-0.2533813674404941,-0.4585106537128924,0.2879981162511762,-0.18253184412846452,-0.9492498838114893,-0.6884420286932271,0.4083835364393468,0.2591252006253016,-1.0233734901078584,-0.6082209149699095,-0.6046981625793293,0.32216628185501206,-0.9521772010399676,-0.7714200098737813,0.5332684454610632,-0.715583909336061,0.28771559286887405,-0.5820017185051687,-0.8368290609040167,-0.5321576273356258,0.43956112028077227,0.7104126099632844,0.6602059711297018,-0.2056329407630903,0.3361702731412923,-0.5900314091683581,-0.4137045394779735,0.7926716370422395,-0.973996152978528,-0.8289829441142796,-0.575056553084774,-0.9470008732127269,-0.6378732516097582,0.1628595125726068,-0.18985211699816912,0.6718338296885289,0.510720634553939,-0.3394707951970272,-0.27469040824225077,0.07927918673429321,0.500594849758539,-0.1448376970224494,0.29298009656254265,-0.25061821871089723,0.1753714567095784,-0.07609420161219449,-0.1954021631187931,1.0762341086127916,0.6453114778762798,-0.7026411993078377,0.7392653649321322,-0.025260365408215666,0.7891044537881828,0.5997105118946304,-0.1495729910615331,-0.9550613833597652,-0.46163072859067095,0.08390995529412462,0.26673161064130074,-0.4859579304202678,-0.7304716234688804,0.6450313310912952,0.8244813424401222,-0.20026527974194683,-0.9795650820233461,-0.5971475573711916,-0.7383712259836922,1.2495803363008908,-0.47245129536613373,0.3179031610646104,-0.323555389532363,-0.022563949024335977,0.22477768161882142,0.8717010402535242,-0.2419654949029148,-0.7774091272781449,-0.6023684762019582,0.7465749719045516,0.6898406473750118,0.15037424919041492,0.1768107815417798,0.33007317270402353,-0.6492574427531008,0.8288238918499196,-0.1622411653771994,-0.23377786553457283,0.03572000166976706,-0.9123988054925528,-0.7295820420311684,0.3121312661245065,-1.1352159716031942,-0.21611580349783832,-1.0077111018111342,-0.5946862309444653,-0.46083949831834065,-0.0021911124880477357,0.6119230796855527,-0.5815286677741522,-0.3428198768993222,-0.47788348792731644,0.19873029114623356,1.0979531587538935,0.6372245724253702,-0.5662977955561015,-1.0520026810796994,-0.6806061218268403,0.02009337255133147,-0.9760460708750301,-0.03140999629953608,0.1789164543903302,-0.33161070597588793,0.5411145918045746,-0.7881410428635096,-0.8583594473792004,0.4389078350838335,-0.058729980995483176,0.19804343118927076,-0.37556961327399563,-0.8840944703527671,0.15528015173334705,-0.06226665471214227,-0.20923758270617834,-0.6444468563920641,0.3507798233559117,-0.21398935001104363,-1.1784433460444965,0.024660636875624177,-1.3509413521268956,0.7809223232781737,0.020704859523337466,-0.7668542717740905,-0.1398553152868646,0.4769841715410765,0.23984086777627964,0.4815342711874733,0.28046586885587294,0.3592399653172781,0.6888244572545487,-0.5010642191640756,-0.022750394892727156,-0.5620827260374521,0.9596804916471595,0.8497450495701603,-1.0402847911484878,0.2184008015576452,0.5702891503738913,-1.0077407365785418,-0.28721512352563133,0.23857501533949138,-1.5100058567388202,0.08015700421863703,-0.4563126387647589,0.7226287511537377,0.5118573934126095,0.24766638755270828,-0.6161284177204284,0.5096636389602306,0.3191010881028325,-0.7152370515728093,0.2846874229376605,-1.2597976773668724,0.0005372367170910551,-0.6434887774990364,-0.7954025776670595,-0.8516947034858389,0.39213923416279356,-0.32031503237671144,0.4466640625169889,-0.8734362711358462,-0.38100178608466667,0.04863291789693978,0.4867034534075875,-0.5243162916199172,0.04450973638231305,0.455082113729406,-0.20904477835546456,-1.1157059155944018,-1.3780934790413373,0.34814712932826725,-0.9449249090746951,1.0466466697095442,0.06758771343490366,0.5140564699422348,0.26628747334147723,0.7672323014099875,-0.7975111430736558,0.0856589480683809,-0.5801399733160194,-0.29753821230603833,0.09930373414081863,0.6401772159992709,0.909142459885308,0.5350894114471413,-0.16473351754595217,-0.1572859954458596,0.4757430374070307,-0.5242536603563231,-0.7883526466844982,-0.31494643720795185,-0.4863853437033334,-0.5236145635354614,-0.7105341430882265,-1.1897726628316063,-1.3947090563828466,0.3851979909765457,-0.7833710827158823,-0.610863970822377,0.5335683705131838,0.3492917089391833,1.3881928581299632,0.632676100993712,-0.9514796922455779,-0.5083303055557354,0.18628455891876433,0.3752028502676433,-0.3924180462787869,0.010514883071412816,-0.7766332908616322,0.9347112890554438,-0.5282995467846263,0.8854345892765626,0.2992932979847369,0.2154735897577182,0.025339352609122578,-0.5420248518302868,-0.6543822890355141,-0.5809697985410215,-0.6876087307048455,0.45387276830724727,-0.4681632321720027,-1.1537527690589358,0.4994882784335891,0.14266569504226143,0.050338032474098765,0.627244491911191,-0.043195327748286834,1.0411222303845566,1.4345832570735404,0.6168648358256557,-0.7891694538218738,0.24682680829356426,-1.0936109865430785,-1.0004866754301556,-0.21847103582323518,-0.007340576827169653,0.08767158516393861,-0.8387924300053455,0.7708697466337872,-0.4689099818621352,-0.7409701601448319,0.7774961597379544,0.9109416312920865,0.7218467246207783,0.6138834956031248,0.2892812332022505,0.03765245284484284,-0.9411282491027694,-0.3694700720542854,-0.5249352571601098,-0.983403338924009,-0.2613754994216855,-0.773725162571032,-1.12484949668445,0.39502941010037323,1.746860226868833,0.2587238925762403,0.8488663797538164,-0.29270453805072694,-0.4920906823307775,-0.3604482851020975,0.23049609961332193,-0.5310124118066735,0.22817972515429474,0.0655861868317182,-0.49537475984870194,0.7502873008474424,0.5947648256484305,0.31690366002396864,0.7011634581884838,0.7338741743338887,0.41583238984703014,0.668750244425459,0.37241458743682865,0.2955208297393204,0.10835477081840952,0.2757819768603655,-1.0348420073327813,0.13245774558284187,0.09067202858325693,-1.4951463620273755,0.46001023716112643,0.23709516111172835,1.1460766346333355,1.5725983443402176,-0.6795131705480302,0.23927957336348832,0.12683708795726018,-0.48147602554058005,-1.3449254408649023,-0.6534277411477618,0.09914100785926183,0.8813529189659104,0.22231985500706186,-0.48783015772091476,0.2679973714082862,0.0799707594317109,0.5596907903022872,-0.786380308219271,0.5213415764215741,0.07679223164330083,0.8996865696189452,-0.38749305772608106,0.11118652383136801,0.5822899702183402,-1.255821173881461,0.16060913575545746,-0.28527840741679417,-1.2528711115257687,-0.5118531015151548,1.4424100427425517,0.5713327250132142,1.102160510886264,-0.510968511504397,-0.30578987919989226,-1.5200676422399462,0.19237509086590246,0.55082251308955,0.6761779548023771,0.36169457744256284,-0.8187627372768084,0.4914393294267281,-0.948299123528195,-0.9530360822174837,-0.3527795617009175,-0.0227136191906685,0.5407978974731682,0.36607131684393396,-0.1131382343341336,-0.47782749007646563,0.9034038429123483,-0.33169623609661414,-0.4317484981910739,-1.2189577118066046,-0.0662937567972831,-0.25836580676323334,-1.0301573795481855,-0.8816401087624283,1.2043291795954298,1.6673144951456609,0.1923547576866374,0.42134987611162655,-1.3414352018838929,-0.8279509814124313,0.3173613984327421,-0.5504792627044224,0.06327204264013281,-0.33283723026130485,-0.5215239047938653,0.9482536569295791,-0.18174739767659845,0.7891076715082722,-0.54009081077333,-0.5737905919498334,-0.9377318342309772,0.30329498081889794,-0.26470276708989926,0.7068974678041279,-0.1505864761346205,0.7378864882176699,-0.9657657842776364,0.27475378678054074,0.02378879691160531,-0.09852119285073023,0.15552898416258085,0.3643907605211347,0.9851903465939568,0.4981532657143073,-0.638921131578216,0.19689731979261016,-0.41849669033248477,-0.020311327276161462,-0.5233456778518337,-1.094133915214601,-0.937587618267619,0.2666281209544725,-0.18245914361633,-0.6163626989547123,-0.023041676621023948,-0.871583030946459,0.1639427624769416,-0.4620131911298046,0.5951182012743763,-0.3792897302423281,-0.09023600194021737,-1.0017336139086614,-0.9744101965366819,-0.45291753790804384,-0.32606898800857287,-0.0762316653409241,-0.747777769466943,-0.038234629677655944,0.2189486143006221,0.44309922739058477,-0.13742070380544405,1.1391241666911236,-0.5912863563339862,-1.2124018016966187,0.3084627717471957,-1.3156769973038205,-0.47357818249869593,-0.11341035756670906,0.19676258473351046,-0.011736192136569406,-1.0561769965250603,-0.40636986143084736,-0.015912028244685923,-0.8240430505853957,-0.29853504423480826,-0.9335937824172668,-0.8428430056899585,-0.206159820692969,-0.7350286358908046,0.10806484319180251,0.17924514582941906,0.2682717257761911,-0.9598476579771245,-0.9567992374067856,-0.9815050101108309,0.1961876875882164,0.23520518872259374,-0.8665630579721558,1.5544913209768947,0.05483839103590344,0.08745459678282537,-0.34221886563190734,-0.03640291324306406,-0.1798585369684325,0.12946396585168174,-0.68089621564512,0.36310501697231784,-1.0501972024683777,0.6548280487397301,-0.005847222321306019,0.552040033716658,-0.09245599903878231,0.293118430437496,0.0528053218722264,0.4631790435106637,-0.8367412833453994,-0.8805943039853512,-0.5338154854536404,-0.8428091136884244,0.35364207719137003,-1.0040501095084269,0.6264428626287049,-0.4274257077056669,-0.551612262190001,0.5179535856213499,0.37454151644077044,0.38683653492178355,0.7956225478704501,0.39094045228731283,-1.186321166655937,0.20926609495946244,0.3865828167134637,-0.14068812182275015,-0.9070573921001701,0.08031681424007651,-1.0363701022238858,-1.0493321015665975,-0.5456844264297893,-0.09064605222388951,0.7365442802919618,0.45807387251864423,0.4854130423999621,-0.1490133311038493,-0.30814588950935023,-0.2603225032801832,0.9484382642711136,-1.0342769756934513,0.42791278584169723,-0.18665729728483452,-0.42154534199196825,0.3398675968136731,-0.08629726363057469,0.5650985625373703,0.6824543798848833,-0.12306978961108457,-0.01591805482699477,0.2767485509413586,0.3971159819604528,-1.2182271668032791,-0.24828351075321503,-0.14994430107263979,0.1476722167188619,-0.8991630353742894,0.3341520820197646,0.7688372287920027,-0.6639010966129044,-0.5296197412064769,0.9427215999796401,-0.6380460945810205,0.7087701867391583,-0.0154442871039304,-0.5055599885983938,0.7395536957582218,-0.12751080603846487,-0.04955447113282207,-0.4208112575488759,0.16590265985497668,-0.7653659533397633,-0.40367047705195824,0.7409591824654174,-0.6949023239021938,-0.06856502611458912,-0.35811284498636486,0.6898296993946094,-0.49450349850092223,0.8782674289715563,-0.32916348263012285,-0.8451576326155311,-1.1160858672725118,-0.8240929327626684,-0.06219896705749384,-0.3627858693740614,0.6394145024043755,-0.147916338395012,-0.5047525247715999,0.23593547533882633,0.4135544337708916,-0.6659161841981003,-0.6647615674233647,-0.9266747647271585,0.47225086838641744,0.3167037010559399,-0.07779184009892821,0.7639546476247788,0.8267476128200836,0.34744618228337304,0.6232407461473546,-0.8339858294542386,-1.08578112506245,-0.9479453414131831,-0.9334218420497793,0.2252343277208086,1.0879741304852102,-0.644038524730008,-0.6293179967692221,-0.1262226173248236,0.7792036039443722,-0.45466411759414205,-0.04846528660222278,-0.9481960689761609,-0.7129595317819352,0.970732682717428,0.9304318847299806,-0.9901842813259935,0.903623570846478,0.2782398756310007,0.7358365890400442,-0.09052582842224288,0.031012812527091264,-0.021024239428983512,0.3440711825462487,-0.5841837581043163,-0.5772255971480569,-0.04709754107977777,0.5412981812719277,-0.7312893047004307,-0.2670694245787008,0.34088229014658483,-0.907912846214568,0.38056369372060056,0.12162458347138587,1.1029664706184836,-0.49055149460905834,0.3809058582229453,0.5682189934988949,0.7905068312553847,0.3092898867823404,-0.02534237809496289,0.23305021174013876,0.7375671165646848,0.14121884796060238,-0.9392260535619857,0.8618973910139556,0.3790535020631222,0.353026771554493,-0.5686496952045657,0.31724004922981053,-0.21475741594865763,0.2961009384303643,-0.7719606291227876,0.433271974344974,1.0152440311654614,-0.891357041390451,0.852909159225386,-0.6752467573456948,0.23754511320672536,0.07648437775067508,-0.27838330431415803,0.1625170439808594,0.6657502945217812,-0.28055950748717695,-0.3888109094190102,0.26734890316730703,0.551380744574209,0.4797155118497614,0.5730946197672725,-0.1302244895148217,0.6356578561566163,-0.7595818892587831,0.088978195921699,-0.9884826790037567,-0.3508283401994594,-0.2670769302572042,-0.2076546167814892,0.39093440596700096,-0.22312258292429035,-0.1054839599234886,-0.5321399992032231,-0.30301793749932004,-0.6270589583751591,-0.9552319674648341,0.033732528075848846,0.02031985298989753,-0.0615942685282153,-0.3122278714348331,-0.43700452398844547,0.5011729315295868,-0.055762618575337874,-0.0954515648129447,-0.9715120569194836,-0.33962363727146666,-0.262889275420982,-0.21568699673973105,0.15518205902051932,0.06618865049223917,0.215805196997994,0.5297665230842565,0.625971477432187,0.4362461524529888,0.9110473919098694,-0.9635348346472768,-0.6084440286329078,-0.9848742535938665,0.2946674196021608,0.7936185553222267,-0.5174939575166277,0.8484010482784456,-0.8891891449172403,0.8537435313855539,-0.3346038057172904,-0.9158026512942388,-0.1482241753107952,-0.526093787185436,-0.47316327233643357,-0.4799431785116681,0.5267051622955031,0.05152273717061561,-0.3911555094264675,0.20845441399490314,0.42246476672601463,-0.4582335990490439,-0.17405716626603085,-0.7567680410765515,-0.6377013009306394,0.3622357079299656,-0.6371233046087461,0.0503267673341203,0.4180925234448653,-0.7862461538105123,0.1346244392578071,-0.4868744325972725,0.9258537504751596,-0.032945511371408095,0.6119362526525819,0.10033061531472016,-0.9135354170962758,0.26502551190111373,0.9011477232522231,0.20076507524621767,0.6340390445976526,0.7646121055564135,-0.5458670637456128,-0.5799954192230453,0.21787047720429503,-0.18009843750092708,0.6781258983998819,0.7984471611046626,-0.2942124400085663,-0.526296493527224,0.5610510076251248,-0.4503879289037278,0.6452286370273568,-0.1525234927024743,0.3350997985829409,-0.8089293723306636
0.247718649353146,-0.0964646425255417,0.1732169263509482,-0.6639715845102732,0.4737474898883642,0.7255941550864571,-0.5665203998184487,-0.8085708889596765,-0.9527228279073272,0.283943000886532,0.2141880721775615,0.09339482542814,-0.5361058077680492,-0.2181880081889706,0.1889526703723461,-0.0064662822816612,0.9755710404297746,-0.7271204948865337,0.3902891080951876,-0.1913624637914157,-0.1436007701487704,0.4351955313163524,0.3848723026487393,0.9825119874043766,-0.7432114210917495,-0.7917807012316673,0.4486776342574823,0.1567738340128182,-0.4516786668803882,-0.8411612620220268,-0.8286835008071389,0.7883817493282366,-0.6162653505625142,-0.3532568757689585,-0.546687195546024,-0.34226374328710185,-1.0076875251074149,-0.1299552476362105,-0.9327198789072441,0.6007065360776066,-0.5326421872362836,0.07824146994430821,0.7562246307267023,0.5099871181437069,0.47263059100732563,-0.33289749028375404,-0.3341386675183057,0.33868944571332565,0.9876946447715588,0.3235619318041967,0.11556587966305032,0.4613010204784922,-0.0695887754325637,-0.8797153147984296,0.1245936317558196,0.9152505690107604,-0.6493941152846807,0.3800097816413315,-0.598132622681887,0.0716553689461625,-0.8066473851293761,-0.10115757835121744,0.5035202492749061,-0.34427655414517017,0.15268951795703822,0.4263095518305227,0.6960674366935261,-0.602661136272933,0.3592299438767746,-0.5344021583629478,0.11251030775845117,-0.0742270247406428,-0.21043090298800085,0.5187775717645857,-0.4088100648069225,0.0034946687688394533,-0.8618709947422871,0.4765918262309859,-0.7634465383202448,0.6540170163768307,0.5660772842328206,0.4174893954859529,-0.9276792389504758,-0.3937432881093428,-0.4737748601783142,-0.2797271850569618,-0.8247145064723229,0.8739156460621256,0.1076044520017021,-0.42038358349412613,-0.25186682863385684,-0.08442336334645117,0.28095853877734234,0.32617466643585913,1.353805232202183,1.2894525068249705,1.9494297322553509,0.8668770750518198,-1.1381680783984411,-0.7741684210409072,-1.89966673739379,-0.20552980186848507,-0.834495150745961,-0.4270715924264691,-0.35244915638216606,0.45285661980722647,0.5807137973630563,-0.42742608504301505,-0.8375272017536888,-0.1940396424696771,-0.6529509700269827,0.3899021778049234,-0.3078005469244289,0.9512204017198298,0.281944154690664,0.6377444442339194,-0.7814495673365727,0.6428101254467231,0.8348683786889706,0.04543184412432847,0.5075624528945094,1.577892809118741,0.15262390237571977,0.7550626549633287,0.9560864466439565,0.3817830834922393,0.40933758406133897,-0.7981320931974788,-0.1820357045684009,-0.8958867460500431,0.18164051373891174,-1.1075328838248633,-0.4675756871836988,-0.5591450280975879,-0.4745516852438821,-0.0332042099019166,-0.11088689691914111,-0.7793638550847962,0.2816526293804124,-0.5679236349808008,0.2391759097956591,0.3004021847963067,-0.6959572040241606,-0.9149270192620569,0.66320487711127,0.09164526490535349,-0.6349837376641194,0.7740681841129151,0.15000299862116104,0.9522582642137967,1.0594220955912816,0.10637947336331179,0.17493534617489417,0.7143522582047628,1.646148324334573,0.8226539892497731,1.8744748336681463,0.6554560800417905,0.17749456239491576,-0.4342635501559569,-0.2591717716588043,-0.2519476295823745,-0.3232807108845639,-0.024031725657196898,0.04523257616954823,-0.1085996834183798,-0.7389753831207873,0.7732084290516323,-0.1004307023573549,-0.6107549763584699,-0.2579859088579334,-0.46877573276791346,0.6928690123185048,0.6078500191206376,0.24515560829093735,-1.061548886834971,-0.24482370556116184,-0.5259037743133735,-0.4745771081699734,0.043361770529171235,0.5130792296139505,-0.5223301807223818,0.40246803603783277,0.4734550041623919,-0.29496500771621503,-0.07933629711344833,1.4198452180508838,-0.30496529285512636,0.42436260698118267,-0.3570174564636254,-1.5567552996732625,-0.42073615850430995,-0.1425329960902885,0.6774391584640098,-0.8059873088711988,-0.02493810532329537,-0.6999026743497907,-0.35635515541480767,0.5950257269054829,-0.2539765052140776,-0.25976303114322663,0.3567042415257266,-0.3192494439646169,0.4710916057543828,0.6765653232630967,-0.08683151555640194,0.9186577281369571,0.36231272007798765,0.17439904946477564,-0.8188043936137717,-0.2931436069099127,0.6414736187279777,-0.673579821953729,-0.026325711291514876,-0.6104968856035712,-0.2642887158549854,0.23836482416771668,0.9797626801499459,-0.17796012194499655,-0.29075806187072284,-1.2767561810451473,-0.22432553864683438,-0.7016235055067871,0.4739461322538552,0.02444382643594153,0.3604555234254453,-0.8507866255141404,-1.1642133680383484,0.5467350168909861,0.39313552930112106,0.6094782084564828,-0.6361629246989028,1.1132188700073207,0.33635798463497574,0.4043955464775377,0.16787640013044822,0.41613175791397816,0.7517506636639822,-0.11411148411507673,0.26824965830173575,-0.7547168796974479,-0.5031795356705172,0.781330135842085,0.38760399190372224,-0.2707661511463944,-0.8581410432695791,-0.9577926921020042,0.435112026679428,-1.082675615327105,0.18984057085906728,0.2490019797043588,-0.2361368867115203,-0.5886254780742297,-0.7683053917481792,0.06745833927659063,0.2238150299647508,0.16697602921822405,0.7256027949110714,-0.7668206403741725,0.6579389573683679,0.8036522258350314,-0.22072577632755133,0.5422442150800257,0.9812974588322957,1.0921909886205141,0.1851897336873929,-0.5140069457274522,0.5701211297280845,-2.725529430081685,-0.12616257695078453,1.792209653803326,-0.13199571040497435,0.3141757743132508,-0.5027688859887738,-0.35660034794801876,0.01693998381396187,0.8435355407396051,-0.5331808831919541,-0.7570258672080517,-0.6050592079441927,0.773849800418539,0.27342716414278156,-0.5702118346189512,0.30875262387730745,0.5236314192285901,1.0850077149142738,-0.5404777174578025,-1.462885973509753,-0.11824800378817683,-0.7738789476794525,-0.4021971320285281,-0.06396704913414522,-0.03951908798654088,-1.882173393641602,-1.3770711827829487,0.04315043642022465,0.1564445514881544,0.39202851006548267,-1.4609706413242276,-0.24651970489848452,-0.24368229671962482,0.13494344340681327,0.15206739125258284,-0.5331449031540328,0.47731489595117427,0.7693571530223364,0.4655772579824533,0.0844744109836965,0.1806953809175457,0.016575791393999863,-0.4072902101738508,0.0414847842971063,0.5718981893866477,0.7705103978555319,-1.0369205733756983,-1.174478651667865,-2.723470478851616,-1.6459606369326012,-2.3253026954098925,-3.089343062569322,-1.523360154223507,-1.7005308419444962,-2.2665595232410176,-0.002721951180080833,0.7167017160076152,-0.9279321678032956,-0.2882153483802744,0.3731399245294867,-0.27450541119463906,-0.8658029369068643,-0.9451367364664511,0.15872064360138843,0.2549897304150898,-0.8203474195472417,0.5219813097494885,-0.9293773018415823,0.4914675654624643,-0.5963155316428951,0.9132606143495448,-0.4009253231789527,-0.42662837839146384,-1.6701507051769817,-2.535167687311657,-1.6283298299227338,-1.3282075029216671,-1.720527093994366,-1.826660243833421,-1.6619509811647126,-0.8337565234632366,-2.0853117166123183,-1.046418597980093,-0.3650178229369506,-0.0010005836141967856,-1.5247189540384296,0.07781862437916286,-0.4891496252185441,0.09474651595688749,-0.7864718714427698,-0.6518032631224617,-0.3790340520323787,0.3106744234385549,-0.7272597401114238,0.16362645842535675,0.12296913572917792,0.1213201888323418,0.204482140888951,0.3502980317372562,0.5170820136871687,-0.9328346685360911,-0.7502388998007069,-1.9306860411643636,-2.6459361301958437,-2.4555587891881636,-1.3788073499587123,-0.6664414652631994,-0.6962087527186972,-0.08563094969047502,-0.6784719752798973,-0.6903517038857829,-2.3274852023224337,-1.2701722377208151,-0.15370631612660604,-0.5521593153404571,-0.11092178040161381,0.7350209740015312,0.15238352437727676,0.6306358191872314,0.8693072088942039,0.13897646791815615,-0.16408956432076433,0.27438451841127415,0.571303236160464,-0.7633276181532254,-0.1813814974446599,0.6771136975381586,-0.2796552873881409,-0.10707797153733144,-1.0571380360181275,-1.6921408305451957,-0.5552448791993158,-0.22147889877187918,-0.4425983300871936,-0.9917465103599465,0.05781673787405807,0.45985789764197615,0.9194156425746474,-0.10425250397465678,0.6623965971312582,-1.315235276171494,0.47299290814097406,-0.34377708329601636,0.2732730805930779,-1.3848782983187358,-0.35026006958742,-0.7654801384630318,-0.9350545420784934,-1.2207192966000173,-0.8999964099339253,0.4560288962621757,-0.0070776952894004,-0.1262985947696409,0.45895738572608763,0.52921426956857,-0.6913717283834784,0.09955840124373933,-0.8957708177624192,0.6968577979213846,1.504654824050108,2.62400484276359,0.7607199298512546,0.6949764131700102,1.3796787614979709,-0.07213627001065422,0.12351184047500503,0.8040737830057494,-0.2821802827798324,-0.3886877557313719,-0.25686027885127904,-1.5695076277042668,0.4737954574860004,-0.9151327462408045,-0.05791914830634891,-1.1836396380878071,-1.7630177943354848,0.15615260682882373,-0.5668124358797837,0.08233321008319792,-0.1778091306017657,-0.3053133474823146,0.7996666913745449,-0.9812625463166121,0.3454120408829815,0.6834339649238779,0.6730932235274275,1.0522048841288516,-0.30639626865569025,0.4985427062660641,-0.2553129950539085,1.2180379453067398,1.1043829968327794,1.193031479380871,0.637210617598934,-0.30863993543594415,0.6509475368439551,-0.3378269804048459,-0.215019247026972,0.07242212709335057,0.5483359398581039,0.0664449721485421,-0.49950566343064,-0.839690995814125,-0.8180303561533222,0.31548498340299774,0.46873585459190403,0.06821715155523411,-0.770462871900726,0.7202793866988699,0.4456286064169674,-0.8908987325598045,0.4529694886763531,-0.38514638254565164,-0.3006613759626424,0.641764779462269,0.012256345719284965,-0.8764145380684585,0.8197711800015794,-1.039792814115756,0.022108891388655256,0.8930514877982558,1.0125741330592863,1.1642865576065706,0.3209453448752953,-0.2506853641935922,0.6928983002412199,0.46150524542942034,-0.7272925802163479,-0.7385219077101857,0.4808218720487847,-0.08007129197555586,1.37576516320544,0.03051449703041028,0.7448062208646182,0.7492836223655648,0.0943299617776348,-0.5902374516985749,0.7556601563040817,0.7575223507351345,0.4747628892051212,-1.151593634562827,0.09937074418816007,1.630005324150037,0.7636666222838615,0.06705868893787484,-0.28951767865839456,-0.13310955743209985,0.7763584346459413,1.5679750970308175,1.0764539972017737,-0.4723618557800004,1.0837081106437412,1.1171391873927325,0.1895891917728697,-0.2155977378078032,0.17274718989672674,-0.045934446556804634,1.010098710536961,1.0580737044177049,1.3004990894524977,1.1655885744999315,1.5021326168212603,0.76724584560256,-0.185358427353168,0.8301801368140864,0.0660577344922799,-0.588652397334509,0.2120665750730652,0.46433706762406324,-0.2186987629066367,0.7854668627989027,0.5880239410464178,0.8655091905053762,2.5552133761617193,-0.11831912872513967,1.2281297565400227,0.47732956148170375,1.0211840452980827,0.5805246180847983,-0.40639434028103105,0.34600340396094714,-0.042060716517751964,-0.7877125520974689,0.255104978855749,0.1743643007033212,0.2646219958699751,0.6623105973921912,-0.31736427954040186,1.6197510209048458,0.8747515057915292,0.2980914665224128,-0.6680905287540705,0.763855516609288,-0.1450206241587697,-0.386525514544216,-0.9177251568962032,0.17938767174371714,0.18845134094456065,0.9445436981203398,-0.045720406709644675,-0.026515904911949467,0.6866436273660013,-0.4141464011260156,1.3677342093389218,0.8635831818475315,0.8854893826101068,0.09549770726755963,-0.08430074803115947,0.44569423903445343,0.3475159863594956,0.08909044783986285,0.8960221612731275,-0.07659358638677924,0.5432852100120608,-0.06670313725598687,0.0510614844418889,1.1368299520218026,0.8117572082999773,-0.7355067166611436,-0.5202517744881106,-0.7160560204780122,-0.3041171768356667,0.09598953004161101,0.5258095279473547,0.10289250193410475,0.26696712884671947,-0.687797984510365,0.4344733637006933,-0.7874083685404055,1.5295861398470565,0.5246149778643032,0.13070018054210192,1.1983023445109198,-0.2380154009405366,-0.1629481406340079,-0.9000614389125876,-0.6343598947370207,0.11386537663113463,0.2832928166787421,1.2202569162172248,-0.5272360559795901,0.8770502420395515,0.6906813588681401,0.7722089721059252,-0.28678544474282974,-0.5097878419603697,-0.9190930201230411,-0.3921071975185524,0.306325581062566,0.8766096368969654,0.7332935290789515,0.14097786600299164,0.6914184067806645,-0.03840285703106745,-0.4972229961742996,0.6053804525370067,-0.32814916671969724,0.4033671446400745,0.46273192812881325,0.8848345854774592,-0.19200857107145705,0.34540749587293734,-0.08721715872737776,-0.6510664017450235,0.6238798900623503,-0.6973033364720607,0.6801259099267681,-0.8458187111243368,0.12518475283061023,0.6373350825875608,-0.09471220018176117,1.119846836751818,-0.45920020608424034,0.8432990026453314,0.5116803946179279,0.6098135536828773,-0.963986888799091,0.925620714148052,0.45333565636582573,-0.6682413316026307,0.614380168779945,-0.5575053449791657,1.1987525698983117,0.1314791047941938,-0.8739607491638386,-1.4028297347129286,-1.6746349398311229,-0.9723260946552993,-1.1739177787655148,-0.14170341016802876,0.07862404529364687,0.33540555144114853,-0.5889858704164882,-0.08499209987420646,1.4711839381006133,-1.0058275548653333,0.4569013362647912,0.6508989768444372,1.0867091432640843,0.6950518979352415,0.7565236023604186,-0.6271165453423111,-0.8341943675509816,-0.5209796601809238,0.5891565574003805,-0.9306594665470334,0.1656136701669792,0.7833541121645913,0.4136132391577624,-0.8802868550519872,-1.5287086841481423,0.9025966355792515,0.45199950686397145,-0.46222120983783976,-0.6090756404839126,1.1614816883724532,-0.06833148739717883,0.0987886784948592,0.5954319668099404,-0.15086015118967053,-0.5118948416406909,0.13204199418321552,-0.20936333958480488,-0.09770124243365685,0.44413927005986564,0.10734290599640027,1.220026595207743,-0.16442087152661167,0.18025504562921454,0.2626151061839774,0.183394324612651,0.4052675461710326,-0.5251330632503874,0.0247275550915813,-0.7915503943833047,-0.23097734783558393,-0.02540449670949023,-0.37138186974227394,0.009147201825586539,-0.7841431214545084,-0.3523103057061473,-0.5008288765349123,-0.21995258877010074,-1.2269689030686575,-0.7327218147747431,-0.5457827875992116,-0.4441881820125267,-1.4136224120311283,-1.3503593240586524,-0.7892232706432205,0.8734853727822698,-0.40082294761902376,-0.14090620714108654,-0.7434673430896821,0.11556671509349489,-0.5020468156332488,-0.5987861161980716,0.0331452568919581,-0.9889884016791584,-0.9846719347015492,-0.5618623817962844,-0.9265572749983576,-0.7839484917386172,-0.322278913571201,0.6051596375097384,0.14371646218135922,-0.01584348993066642,-0.5786049904217619,0.7284588570371695,-0.22518897929825366,-0.829845255649655,0.232272288453376,-0.7747019542710979,-0.31239216562836847,0.01127642217798675,0.6296769157017444,-0.37950310944509574,0.4011503903444357,0.9784538109007205,-0.7456346993688707,-0.45957684726030623,-0.2203997622552027,-0.1615808616864439,-0.1801194864168183,0.8152220051131098,0.4280652889337129,0.2158104281814075,-0.3812545642744358,0.6475807684425894,0.910121022969978,0.6423965651004531,-0.9968697896170542,0.272802740366814,-0.897729251171,-0.4847858122174828,-0.8809521550154393,0.20758855879987184,0.37317866217540857,-0.7711303662887671,-0.23248576794599726,-0.08761802706826763,-0.26199677217853995,-0.758854669327163,-0.163261074177449,0.5015706605571822,-0.8583641371306189,-0.8398378136954765,-0.2904986414229101,0.8834500747350985,0.3370779502990287,0.35727271769071606,-0.27616001832427,0.1873215824170768,-0.9797376319445132,0.2721920928190844,0.8265738951524735
0.2251469366896383,0.7473971869326901,0.4479461109321876,-0.7588831671926195,0.8049066145716834,-0.8671123112884502,0.0679349450955275,-0.7157257524130847,-0.976586778538192,-0.155931479744722,-0.4099185846916875,-0.0279990124047939,0.1543997734691016,-0.9125218553821052,-0.7539934097525087,0.1172847929008507,-0.3136652936546835,0.458346975098896,0.3045832971838793,0.6912087259798136,0.3849856533384506,-0.1401378452197037,0.3459332447888648,-0.4492376514891629,-0.3873730024435746,0.5779703198415866,-0.1071609671968356,0.596760681036705,0.6448447473365568,0.7151246753225675,0.8332704716824146,-0.1380295589734075,-0.3622663633577223,0.1643974931882277,-0.2576551531247448,0.2021483251907037,0.41117169689669714,0.37680999866366066,-0.2508942559177042,-0.6662796449715419,-0.13894135943771466,-0.7148117620989273,0.7801939750573647,-0.3082461491918724,-0.691083702229704,-0.9491046705715369,0.29164465120995064,0.27288278989207587,-0.3198621539258232,-0.8566421278486537,-0.18074225869157112,-0.3775650098732128,0.3542412794700187,0.2115584989053807,-0.27081254360492,-0.5642148914900198,0.9760719323111836,-0.0919967576077702,0.3765484715604741,-0.7188940648432784,-0.029154545449896836,-0.944961107896569,0.0109102282869742,0.9280338388551325,-0.23169255456968396,-0.9220109983633346,-0.9380916180218319,-0.22403059881231738,-0.6801457915078444,-0.9547181796612382,0.5087308862843478,-0.09267834949484759,-0.44587950899739753,0.7655603214332349,-0.8047208414842493,0.8839012000948719,-0.3878583378511372,0.7678764207130931,0.20321387039342595,0.6525434799060158,0.9677429479800028,-0.4231891243625085,0.922270970815186,-0.2210362101951593,-0.2289761905261553,-0.3192257914909886,0.0828152146951703,-0.6917099136430258,0.10738842470546468,0.083454499445046,0.524362424627848,0.6495188960901513,-0.14289914092834152,-0.4640802175832681,-0.4907740683066508,-0.5912274840674909,-0.8964020162131161,-0.33558052897654106,-0.6409254872125715,0.7062548484372773,0.15837915887716045,-0.02670883144213684,0.2409301261637283,-0.7158466559498831,-0.1699718230750696,0.16084797477595167,-0.0540429439655575,-0.20032295870055558,0.9864453233851791,0.760629524297854,0.2468119163188802,0.1387547223645655,0.2413209596491681,-0.5973757843551335,-0.2097245134713627,-0.9200537271467611,-0.016990604116613815,0.13901208320217254,-0.5251122942554695,0.9493034555190755,0.7974356704889978,0.11049914238247967,-0.08313935374874638,0.8201386232040283,-0.030196915112493932,1.1634056147629592,-0.41940862439892646,0.5600682664873257,-0.23581938870879818,0.8253023354381847,1.0176995007862957,-0.7405505597833665,-0.5269236924785645,0.31703267284130315,-0.4242327679389694,0.5851108708229403,0.12801577581956408,-0.25298598331151334,-0.4284328889482596,-0.5935538178278255,0.5235963827553944,-0.2269189863539442,0.022550858284721555,-0.006194181069964821,0.05696256937593727,0.6707527658692192,0.8209384098769005,-0.33653259239432687,-0.0032081184838002527,-0.19856840678022536,-0.08200119471300149,1.3470128949775955,0.11292554372368314,-0.11035283730411227,0.23663318738422764,-0.21190873698062782,0.65528925049949,0.22461575766085282,-1.147427103893987,-0.19039405508634322,-1.2876372464045291,-1.0249433435658977,-0.4595323366589727,0.5885056607544425,-1.181858302093708,-0.06274481098182051,0.37516130725025865,0.44541372963623943,0.3850648630742159,-0.7311297411837563,-0.4012155857730649,-0.2573342038980473,0.3789727111743117,-0.4788527977492248,-0.5588744307569221,0.9155390614059126,-1.1319421590821952,0.9571004878014856,0.9379880316105307,1.5763471406184129,0.1685352795292251,-0.9525597823138854,0.2867826317171555,0.6863327127654099,0.7838020160230007,-0.4473246690178039,0.35864469396017706,0.22614019597742938,-0.2160391517387677,-0.3559971461578763,-0.1844957830875231,-0.33064366586158517,-1.3314180842372005,-0.14900697602150742,-0.8463316603650568,-0.18584646771620184,-0.18579477110548184,-0.8399638711821373,-0.3023770354119893,-0.6585866847897893,0.4978707620376706,0.832994090053175,-0.6551261705185943,1.0397050666147858,0.21254220760854878,-0.29456738967144325,-0.6192519139162302,-0.0031457156303463726,0.3805237190803837,0.16399344809612848,0.3519441597711083,0.02226764005246338,0.4987950972212855,0.6283142543732169,0.5623509504174232,-0.1576219781476072,0.8535186897019217,0.19347849994720775,-0.4267814462521069,0.10097044387019354,-1.0342184451789984,-0.4010161253278138,-0.5505459029040699,0.2803483462243128,0.9579307382828578,0.20694373461260962,-0.2844275587279488,0.5247655880095671,-0.49167537451983145,0.8684968125073556,-0.05197587208042521,0.004605411092054784,-0.4072010965367359,0.23934858364547115,-0.1534736795886771,0.4977862354388384,-0.1149374172600389,0.4836307960227569,0.5670837878674716,0.6894217489146671,0.4038252500671957,0.3881578615910668,-0.4452900441141636,0.8130223899982993,0.06024722991718667,0.011334384686805837,-0.5190800850987972,-0.9418529276775283,-0.21267034204441654,-1.1128313810540602,0.4957761046896062,-0.3648264396964249,-0.9997357252689081,0.022240910448757645,-0.8928817916260388,-0.12923807143032265,0.7114919431028234,-0.6339875346351256,0.8895948582203703,-1.0919981351806325,-0.8257387618878781,0.48058744728699465,-0.23833745131997652,-1.3965831528227968,-0.4236054429891003,-0.554812794461202,0.29835386001666353,-0.5444859404239172,0.6966694134677227,0.537501338617761,-0.2141179271199806,1.067652203200844,0.10844713821343452,1.4235883581325948,-0.3425064501652991,0.22333827172193832,-0.32589734364004663,-0.3245298605156785,0.2653876010700164,0.4077141768165918,-0.9912734606993818,-0.6661073314057174,0.4357545703543211,0.5048480522933625,1.162004510984079,0.5818709665934836,1.2745554789229774,0.07599277657141865,-1.1956893721798607,-1.3473580029211831,-0.9981561727282628,-1.5913959711557886,-1.7248698109251381,-0.8654028410951228,0.9882482144488466,0.8488110689288816,0.6742314089731224,0.4122142036716053,0.027047549063686206,0.37397369650172213,0.2527850773831821,-0.3265687090406535,0.8571561468035457,-0.21543024861137383,0.511002218661922,0.6868728720822405,-0.5761277747062232,0.3147069643402571,-0.0554363916740365,0.7599150318752701,-0.5753261955705273,0.3414741803186149,0.08065516897705587,-0.6952606440329719,-1.0774092531517627,-0.4466889614640399,-0.9295261353295361,-1.2011672259642818,-1.0578775811535073,-1.3083049728269247,0.1819711760404959,-0.6465414066289479,2.1016866068969664,0.5688035326574397,0.47608467996178633,-0.13492194982785466,-0.09317460500434416,1.045563463976865,0.0742223128701843,0.5529725113150231,-0.9703939629204643,-0.2595785165153015,-0.3481875946056108,-0.9617289549152511,-0.7512714968508792,-0.1727146539777251,-0.0142708311051067,-0.1953004871063213,0.05259932638327328,0.18448170893848084,-1.1159480307063847,-0.4333730645074832,0.25481483512649855,-0.9272325711706528,-0.7583437697750376,-0.8947168990279282,0.14769684235340266,0.5411258533609776,0.7498637422985733,1.7604349107719826,0.4414578942039051,0.0715490194807383,0.9813138770145053,1.1446113662966217,-0.1786283280476818,-0.22514220463784407,-1.2319883163865792,-0.9476174809072961,0.26303376852143007,-0.10696909615926756,-0.3294081473847172,-0.25655709104974606,-0.9972993726792896,-0.4003989579495527,0.292917483275861,0.9407198942436059,0.6841836022949207,-0.9564380941221389,0.7536438878346831,0.16579134227522427,-0.1500513470257724,-0.6527549994883561,-0.598430438866633,-0.7107172090124866,-0.7018688350358682,0.2273484526785218,0.3341984206388945,-0.019756243457610317,1.0264797224334505,0.9970852964186129,-0.2824296665612706,0.6231253499428963,0.6956968008510748,-0.2775349463649499,0.6821783258656791,-0.4519960303914764,0.36554036687488506,-1.0596732227091128,-0.32190572115407035,-0.5501765829472546,-0.6083346043724746,-0.7183941022146478,0.2448272831319933,0.5589759332629147,0.14857175166809639,-0.7144695725698738,0.5845587752673194,-0.03573028753221928,-0.7774758711123944,-0.1502694315636812,-0.46748824602532535,0.038872504499391086,0.6808211037565768,0.07086692546951075,0.30134789796860667,0.9633330671440925,0.7558935410933338,-0.2964009861933509,-0.3690165123180821,-0.8007342019491939,-0.03299557795465539,-0.782403562998363,-0.8714627466188928,0.47140177527091237,-0.4656902014186832,-0.7172026560362533,-0.08618371192828166,0.3570134383079338,-0.8479590954728393,-0.450592369904216,0.6139309817679872,-0.08085213249542364,0.08757683617510696,-0.23706773432260841,-1.1380713179772486,-1.0524225665137965,-0.8676601689632254,-1.2216286867269246,-1.344698540406873,0.1226193015742697,0.22874911827633804,0.3025348415139669,0.4391754036258542,-0.4135217139973086,0.6201774557129673,-0.5038328411699639,0.6691308081272475,1.3750105835752424,0.20924476420037147,0.5976153237581223,0.04262030998558769,-0.4458853506423567,-0.18495652538526003,0.02594117595740118,-0.9099208606596368,0.24267095030938815,0.9747805348588319,-0.6197847049913016,0.5851902325767666,0.8157975875592387,1.037129249990708,0.9270618379035418,-0.10030651685534822,0.8705608242164347,-0.03542046042661017,-1.2641643125922146,-0.8904753649965481,-0.662997017709187,-1.4816840119544568,-0.5474661070030034,0.021237301657261336,-0.9514438880841655,-0.38307031896252086,-0.028646068214447845,-0.014866320478970511,-0.015250756397140706,-0.6569293218250601,-0.12763262212804832,0.8200365250846164,-0.47743126980493145,0.35333223627480276,-0.5134676665526838,-0.39727911962410123,0.6921700588479314,0.4577226170418955,-0.8092014537314289,-0.1425959580271327,-0.9416604727094712,0.19184772753651602,0.5403516564033553,-0.5863495480721812,-0.07553442295756546,-0.4228370061497012,-0.06308691192128177,0.150177844251385,-2.0051314950813954,-1.361186814113472,-1.897361546504682,-1.3328254561147879,-0.4406836511880532,-0.5043644591564644,0.5013431909494028,0.36512706396595906,-0.021537323921357876,0.7656040103868522,0.3165092986492477,0.4098707695655089,-0.11086130920836466,0.448518864923066,-0.5997596936568449,-0.6657487844412169,0.8322766681406721,-0.7968688915598199,0.011915792739357747,-0.5582944340739822,-0.9221400733486652,-0.8450713957285062,-0.10964756156090791,1.8047054779576315,0.05860083471939505,0.32048201131439,-0.6032765711881996,-0.7029353964530388,-0.8924913167903021,-1.4595451786803537,-0.8656497231119816,-1.5788314250627828,-1.4224014087594676,-0.8962188584749557,0.1228814760459981,1.2190315720159055,-0.01129843666925872,0.544512838183675,0.298633156743915,0.2767205169565095,-0.2791893200401549,0.208810146730908,-0.8909209992756942,-0.46295739849520046,0.7027446084226294,-0.5860022490742968,-0.8588671458002033,-0.8619848147743674,0.8815690410062158,-0.2483648449520263,-0.06942970307806419,2.0922065098548472,2.111730225669874,-0.4769542745542406,0.2041299635085019,0.6002695832513838,-0.2994340475191656,-1.4051521129319076,-0.16441588757257003,-0.30554560645869316,-1.440504089247522,-1.4567615809748518,-1.0373701779234756,-0.36879266960500623,0.4521483034476317,-0.8686431855280468,-0.48617492620870306,0.467462971937265,-0.5220560940583941,0.7805207637118368,-0.7799737259820628,-0.5102907875560073,-0.40892202297298963,-0.540083665142306,-0.9975596990816853,0.4586895881759927,0.9336909995985708,-0.6905906290147285,0.517613319691741,1.2682087812331642,1.9654267566293109,0.3052659313920053,-0.2022278491511472,0.2715200046809282,0.25716770299427155,0.09906899630908751,-0.9308218056171772,-0.6255551526658713,-0.014610005815737542,-0.45500426181389875,0.5805262217689725,-0.026427999278634984,-0.1350001519627368,0.8613836114484967,0.3732082045676754,-0.1627246029799801,0.4816478053874572,0.06711903070217716,-1.0557936352675683,0.3481994020865278,0.13770477895063737,0.8994412583163782,-0.9151554035862166,-0.469347724889066,0.2031077585996481,-0.3379418602224841,0.6518045238378186,0.9503070536210558,-0.3639312693570774,0.592498649817698,0.2912946805795864,-0.5191782328609336,0.36085262011860325,0.007666165284342878,-0.44997316703479295,-0.001588688445812822,-0.21027145349435405,0.27793344830684324,-0.47540829693608333,0.07181429180101566,0.5892144649633732,-0.2829822230803809,0.9462040563533255,-0.2506207316294334,0.007899458651114659,-0.4604894253236162,0.7067882840820583,0.4004059267074031,0.38467611403687063,0.4517744283445214,0.1241455888051421,0.8941813342170382,-0.0074824942352769,-0.21296034374882847,-0.5348639285932829,0.9099676954255076,0.7013230338253491,0.09713566538980181,-0.8931123677558911,0.6323224969192147,-1.1537109811483048,0.01543741402689077,0.5716064584905747,0.18481299738776708,-0.05001316118777431,0.21673683470963423,0.12950706645016857,-0.24351220952053299,0.7419829673797214,-0.8911193869471709,-0.006416946255856008,0.8637834693207025,0.8588556011622928,-0.7602902609093594,0.5040259634969234,0.04937182456850035,-0.21685495106011132,-0.7380864194738752,0.7305915178178248,-0.6854535836405693,-0.3804242815818015,-0.40789955710833203,0.9180115543307327,0.6920486828573811,0.7837866124520407,0.011660013042689897,0.698984979655625,-0.07542895860318073,0.6382704841415014,1.0799895434390359,-0.5129927257897594,1.0514334705750246,-0.24661926446982776,0.12460820830502717,-0.38893405078061244,0.269735068637817,0.0027430105700791893,0.05430357009345929,-0.3114416576260183,0.3004964623515637,-0.46909458632964357,-1.1400819448339419,0.375871482965298,-0.42909486316519213,-0.1347411634834578,0.37088775694593135,-0.3350876857025759,-0.8868286877065688,-0.2521579059743728,0.8888971653886069,0.4449380784203128,0.6926476915378867,0.5295064304580431,0.02624261758838431,0.9358084941581536,1.6694993824850077,-0.22895176471382592,-0.08594780271105905,-0.10312482561609662,0.09372884409049885,1.0906259461425505,-0.8204795716870517,0.23614656802629888,-0.5907486423321636,0.6365972646189919,-1.0087188934562175,-0.5573720494481189,0.1654671136946076,0.2989382227310359,-0.21700694949850352,-0.3090504848225899,-0.20477543668899068,-0.4714474736827214,-0.5893341225864004,-0.03392060488222,-0.4629324878647853,-0.4250766702054998,0.3135121269491141,0.9448271434431933,0.26326688896241274,-0.7747750558090618,-0.7189125051321584,1.35390680464601,0.0793523685440814,-0.37770363441444393,0.5322333339538827,0.29571975899441333,0.6982929009482692,0.056329496105450474,-0.6379178859441527,1.0929456927638697,-0.7200067145920912,0.05010308964589381,0.34476262830060567,0.014720094015178644,-0.575196198432073,-0.5349623295762265,0.19388669170274386,0.7321910775143567,0.8933781723249558,-0.7881883911924847,-0.6903427748045603,0.8894725175661593,0.4730704566695851,0.7659876496595461,-0.5947347317293137,0.17517173920130077,0.40227915532469716,0.3602066189674711,-0.1842992336888743,-0.9700543769773909,0.16524390618700632,-0.49409150711265754,-0.14974988996308855,0.7857105120494988,-0.2987575984404738,0.5468373972606995,-0.7393002853408819,0.21810510436255057,0.8130558949068993,-0.9161723933475058,-1.0371563160191815,-0.13223421056104723,-0.8141696291400307,0.4968965099825266,0.8290970297221588,-0.13195812940212487,-0.4825767156891181,-0.1311933619867804,0.446895635700002,-0.981891676839258,0.1789079789693943,0.2265833697747581,0.275376493791871,-0.5159558400382456,0.4281054467562535,-0.8172172034167766,-0.6014619666916277,0.7549268589295325,0.4774259251529409,-0.9725196788688091,-0.5032732983285721,-0.5715012101600394,-0.4587806886895143,-0.5052237427750836,-0.8750133160717528,-0.08231821495072232,0.4653264432212876,0.21345170923677695,0.3457421948964462,-0.8377019696881415,0.9029813954194086,0.6769836462458667,0.6101806224596162,0.645967610083535,0.8654210162655227,0.0885079322273953,-0.5994359642647482,0.2335672157050823
0.4857629873358779,0.4758347867080508,0.0428980483337602,-0.8630825613328439,-0.2577741231397443,0.8415332169267147,0.168897819514852,0.0766638865114268,-0.4622929712356129,-0.2631021601668422,0.7906921783063385,0.3329260950536714,0.5747740535046657,-0.0913091538646897,0.2604944389123158,-0.5032327825135849,0.4109216605669725,-0.1447973325933254,-0.1149089703705088,0.2986446491537633,0.8725612429378533,-0.8719873067827582,0.6494864746940152,-0.4152337791756137,-0.1121610909872443,-0.956173342449982,-0.3979078443313739,0.0052624852602609,-0.887647845305122,-0.0178085412336697,0.8542212577168546,-0.7892135637843896,0.5288814561510087,-0.1806578932480147,0.310347429048676,-0.47955079850728954,-0.6810851444716667,-0.679157537223608,-0.8599283527019871,-0.633815288149405,0.2927509863622094,0.5420644123787619,0.5334389017043524,0.1958136350736536,-0.980986425894409,-0.4402197736726731,-0.3905233436569849,-0.5002530934009861,0.029819504571690653,0.07109614161665187,-0.2862280816365832,-0.2924216825271279,0.6571111958121627,0.5785856966393712,-0.3844083366385087,0.8275768877465186,0.905630034005012,-0.3465149159399183,-0.2911501024138903,0.0112683068439176,0.8822410464407483,0.7526387673660488,-0.7948642559322926,-0.21552541894938132,0.08736050321995745,-0.03709685998771854,-0.7361949453475958,0.551702774349583,0.14890548947217883,0.27736125132741,0.3446203353918656,0.21288577878638276,-0.44618214818220214,0.03755523448162584,-0.7021784699271039,0.33121038645629863,-0.6490625145607881,0.38360406899922,-0.543860623816367,-0.7654326718985316,-0.669457478119211,-0.9960157295618596,0.4374792357070605,0.4648020981167582,0.0298666998265189,-0.6772743978892326,-0.8328913249786205,-0.961742067125426,-0.6685037059274331,0.7817104316121052,-0.5172208568072736,-0.2938558823823816,-0.8268413710638864,-0.6665094898115772,-0.24422333149910272,-0.03847561484144894,-0.8090927253598865,-1.635571513136366,-0.89170659740395,-0.945394721921115,-1.1416145659364583,0.31351314450248646,-0.11344769678962525,0.14545035144338508,-0.1470082010090428,-0.12341720693244909,0.10347166782177784,0.3917818675981935,0.4041555592598478,-0.6566121845891009,0.0002255041532539,-0.176083809931796,0.7410539325387684,0.2628378424367528,0.0650081328319636,-0.7692107205061632,0.23056683332333533,-0.7398175998049397,-0.2989002837657501,-0.675606973642977,0.3535159823286125,-0.7446420284250476,-0.3214447978769033,0.7173432540801864,-0.9376836432303176,-0.4583352571045658,-0.8064006044547802,-1.353650551835151,-0.036017664247334095,-1.5133039616635775,-0.4311071053293561,0.17041841195413734,0.33691741807304654,0.39254331663463504,-0.4252122822941488,-0.9436412367014573,0.4665150937364682,0.0712637753124133,0.6722354064144975,0.6427767258013886,0.6866523355757663,-0.0298106800409196,-0.3327432143612745,0.5834265650954419,-0.0319443929232739,-0.45708558254897336,0.9425279321796932,0.9163122930073265,-0.05307891916858909,-0.5830220373765731,0.4132809973895456,0.5087259883457123,0.718343113732796,-0.45875794504854617,-1.074946786828814,0.23654937691003913,-0.34787442404407243,0.42180737687106246,0.7245803180198084,-0.5632431360404648,0.697185958585195,-0.5831892029620608,0.23552651335281571,0.9487513494221362,-0.11356138309823557,1.0460254433120248,0.117225956237993,-0.3577781978072376,-0.5597773481904937,-0.2989589314276764,-0.254933475509264,-0.8567040839793204,-0.11173803050505127,0.17480625442971487,0.6513323260588154,0.44997810018833373,0.5527110192292001,-0.47711808354694596,0.2400212578085469,0.1274148216157483,-0.2293701530781371,-1.224305808660637,-0.5258360965212694,-0.5053132917289399,-0.07240332025996637,-0.8768980436357798,0.3579803401982161,-0.29706989793123406,0.43844424555852074,0.8337606411863315,1.3182346192924044,0.6527513630427754,-0.7642514206729648,0.34735138555406336,0.21541524276952712,0.48396872968110044,-0.6621580468518113,-0.6178524031311848,0.771444082237001,0.48021244508952365,0.7899761144433897,0.6253727841516492,0.1383717279999636,0.07847650026055301,0.563735357247086,0.455267793904284,0.31268567440092115,-1.2113577137783893,-0.23336933478882635,-0.40051043388334234,-2.086525398410241,-2.3302170227126093,-1.303728626392589,-0.9728605707820239,0.05017152842485607,-0.3073976026044862,0.42450859897337717,0.1343413786673036,-0.25585346045242563,-0.5018534482194417,0.40405996649662573,-0.1591041504708838,0.6241157920447876,0.3137741486031121,0.5846801083152083,-0.4702300544464226,0.3283911575606652,-0.5149843529928972,0.7854838118806299,0.24922727654334834,-0.2618225837804753,-0.40876647658608944,-1.073260643819326,0.11396414440463784,-0.7337265794836366,0.0351326537725392,-0.8070632159148645,-0.6983053023211344,-0.9179550230928337,-1.1204223016623287,-0.009650661077016075,-0.8406852873295366,-0.8998107193747672,-0.025204873818309607,-0.5315515395812163,0.37069049428440926,-0.37480786305089536,-0.10591851888372844,-0.9758147076122248,0.7138438925287958,-0.5510774763763036,0.022843557149647656,-0.9233077805405451,0.326785385500039,-0.44204036219590387,0.6099546622001895,0.6523242487555231,-0.5185825910258431,0.6474341548806085,0.7938844851147621,0.13557565279362438,-0.00021919861320755622,-0.5625347482844889,0.0286511815620908,-0.7741122140695058,-1.5157093510832065,-0.8870563340213105,-2.190277091553675,0.11551507024935363,0.8450094631019766,0.09441622152703788,0.6758416074079231,-0.2640288949612174,-0.503822123909179,-0.023751874374319935,-0.8543351680828049,-0.9572504032863478,-0.22151024336189798,0.4401281286706634,0.13132956986711697,-0.3744440215792919,0.3084780335043778,-0.862642178032412,-1.4129366204997653,0.2397201153564777,-0.019923838272775624,0.199178163922893,-1.331594370552743,0.2884679784474359,-0.0012629607733663333,-0.37553920835533083,0.1501231904979677,0.7161935401716003,-0.7659838836289162,-2.0903592597263128,-0.5920767558512839,0.7644384185944956,0.6825766026709064,-0.15389004535567274,-0.7153559302887487,-0.2735553937091153,0.17273664515862777,0.8057185393147264,0.8487143223143999,-0.1653442314014272,0.1221299987316991,-0.576788539100726,0.9912622189977668,0.9622358157358716,0.29966414184492973,0.36656088391242414,0.03602739545601983,-0.08004970131627094,-0.8775934263871336,-0.5353655491176132,0.2080456418880651,0.5343825425022805,-0.06876407535159493,1.3407823394656968,0.26173527638395605,0.031160307982423613,-0.7003962239513996,-1.5092345900265678,-0.6908750764455514,0.551498508798775,0.12876772180927112,-0.15878407676110187,0.5484657469180393,-0.7782127103146433,0.04107884278027686,-0.412388963856247,0.14077859936804443,0.6488846806422132,-0.8154492938774363,-0.9617348571667872,0.5582051421550905,0.2193948503052318,0.40575631988465904,0.6527724782821639,0.4416945748697212,0.8241328814743458,0.06533076576767437,-0.2753699957232276,0.631625122527919,-0.23950863880703901,0.9700425108969868,1.0285603592431856,2.7452920806265895,0.1267896574934917,-0.8493986206353548,-1.1918333871964804,-0.8020591625429411,0.37592654391774705,0.6875579639144432,-0.6921813939733069,0.16371154571393218,0.43890531638315644,0.3446681507141959,-0.16110067758634705,-0.9074432091069625,0.6222085879699136,0.5201763658267603,-0.770321053098118,0.4748520665020253,-0.4269609021457541,0.6180834278312498,1.0001655138060102,-0.9292250715335499,1.0132426372229215,0.4302579307721918,1.4686320670833883,0.897885710784122,1.2278288064036438,0.14721408274710213,1.7633457307053717,0.9510997554237434,1.4960232879628765,0.05545905247696323,0.061338283798154765,1.066770722324281,0.3559428406092778,1.232321777920289,0.23072901670417129,0.0041584249010040136,0.18099673205724126,-0.21221013484267182,-0.6476565885020844,-0.7023957940268446,-0.6144020088232357,-0.9577787259934116,0.8487322515370594,0.5185850138369472,0.935522930539124,-0.11439593792988573,-0.43054533223805874,0.6781649155143584,0.04505537176024868,0.1605420120934921,0.6141867516102651,0.3460056218690028,-0.09821831940037787,0.26970229940565077,1.7200428138619464,0.5569511267920133,0.3335311636245614,0.7100217304890681,-1.214448348864899,-0.30590218310489353,1.208159749420457,0.662390090308841,0.3188185993804408,1.2162742352717701,0.2528848271158007,0.026284384140655332,0.6429756918609518,-0.7852781729628011,0.09869925325425043,-0.09513267541651768,-0.7440446031113139,0.2479969710579648,-0.4527191642784567,-0.024027738661349198,-0.8261442077600284,0.03454359466023875,0.00255080778170623,0.9592856931167765,-0.08863621116762559,0.613240461492249,0.2760690904763158,0.7339189813003903,0.23767013796376502,0.6986630237321585,0.8202490049267875,0.6519066202818222,-0.6585689098893983,0.31319087463888057,1.1571019732745405,1.1500656954982222,0.7400856575046806,0.49052963183834364,-0.11210362706799748,-0.3394679998045464,0.1533259935689271,-0.173089201438542,-0.27209433928754195,0.5154813174009184,-0.34406818793401345,0.7206232721686693,-0.1863903980965529,-0.3435337886433212,-0.10711547293491384,0.5198774033812354,-0.9925122134744702,-0.583269632704722,0.8232647756727515,0.29889194777512496,1.3570774571266806,0.9047570136474267,0.6530530018951123,0.5487589722540771,-0.3323743143147232,0.15651271683150816,0.4328088675854861,1.3859599175235444,0.5045674879700041,0.8898006376235216,-0.14719427919764275,0.2595194886254783,0.13928725202224077,-0.8383729548130678,0.36242614009663,-0.6885537759038837,0.5344340385163552,0.659781175190248,0.05206160135607309,-0.7121022300020242,-0.2509035132408375,0.595464526696428,-0.2653734963616791,-0.9264094415535669,-0.45948515487821734,0.43983981121656557,0.6231694578005532,0.28968346160337244,1.6074008696177267,0.13365988665276918,-0.49640975693269507,0.6403358111876464,-0.19207166757228988,0.1500776223083174,-0.05033933360386063,1.433259417335542,1.4292769145828659,0.33011931214084334,-0.2196093403663568,-1.0171395264203733,-0.2684672394797559,-1.0178139797746977,-1.492127679757355,-0.285122564463791,0.6017734852809157,-1.029004255101625,-0.5040347861849975,-0.5830226122406861,-0.5237066926686074,0.8168691037587505,-0.1469085795420042,-0.18971553998687088,-0.009110763402345897,-1.0112657476342075,0.4946377667690266,-0.28630315726856037,0.20010403817533134,0.5662060064829157,-0.45394592652955557,-0.8348169908817467,1.3056592002352483,0.42401152653571783,0.013912498659800456,-0.21519139127631493,-0.06291349909082149,-0.7162952577351603,-1.419642588934449,0.3202975713996148,-0.08549218480083012,-0.5950387762828199,-1.4606959907389967,-1.2354423422246568,0.004452631868107904,-0.14351706138557987,0.6720416007462939,-0.6779515715912976,-0.9500566757659008,-0.1019224641397482,-0.6716939702841399,-0.9972664837683803,0.187756395514733,-1.1431295094666243,0.18101784269009155,-0.9017966017375842,-1.4949826856777981,-1.356746817081508,-0.6285167470129703,-1.162448261497967,0.06083678709664784,-0.37540230389980955,0.5196033563978358,-0.23126426964858632,-0.004829266519256782,-0.7678791764107096,-0.25801027875817334,-0.7725298365786125,-0.8646443737744451,-1.0164159023115533,0.4948016739863978,-0.17957749166815376,0.40979561300898587,-0.5456081776477282,-0.3100101983407081,-0.9397922673473156,0.9229846491482244,0.3357358134016268,0.865978332814,-0.5120746131347051,0.09488932076423663,-0.05738954655071144,-0.735313415382041,0.013678252247758859,0.0737580117436105,-0.08602981300964367,-0.5296265643804418,-1.19736550404786,-1.0589066469862116,0.3186164373310182,-1.0114478565737963,0.09118755347906352,-0.36891460970090906,-0.24583830922839572,0.6004754081298298,-0.9130907060002977,-0.2790391478920198,-0.5740917432451395,0.05038174467226985,-0.6472631674699512,-0.5149209959870308,0.6667068329830309,0.8701264705338577,-0.6285338559896287,-0.2549821368930682,0.8572611242307882,-0.8766900478853964,-0.8312719097721888,-0.7632027931254013,-0.06693565172537186,-1.1695952092969653,0.26426636572774526,-0.46610976674778243,-0.30949530568176853,-0.6559507204604031,-0.4520013686555655,-0.17670853456954075,-0.2527995484383655,0.04057010035851484,-0.8085035655059934,0.47615501049181286,0.5301336376845742,0.4348998838205951,-0.9770047978372166,-0.6123267779198099,-0.10443712803479512,0.5507431671895127,-0.28796149361498885,-0.33707967935943073,0.7812401765672491,0.7908264305637392,0.8183505281071715,-0.3722438469699454,0.3821116254785235,-0.4567336923551774,-0.6200167723560823,-0.6449233996129546,-0.41641585212455795,-0.4165614489184902,0.5018583800123625,-0.5896308969591941,0.3807129969803434,-0.12073184042380365,-0.6267850141115168,-0.41087141335534644,-0.6219591607964426,-0.08042465572590471,-0.3683308504744795,-0.4630335011135005,-0.31143097957296917,0.6497369513261878,0.8828361207353307,-0.10713548744530363,0.7395307357605917,0.4201846667006145,0.8445568564809554,0.6244487795115201,0.16798974974148304,0.31369082720102404,0.7967729331680697,-0.2009624308261304,-0.3464105882844452,-0.9783778464089911,0.652404265942155,0.5984164980343526,-0.8037446731743559,0.18310796862623127,0.2050122559340545,-0.33804530904094926,1.2312694908088206,-0.6349942454880279,-0.969155733162944,0.2572713438016459,0.010323242000891285,-0.8558628394072255,0.818884496536689,0.41029851599889855,0.06613961188104596,-0.22696949842107464,0.37270876775243106,-0.502826699730525,0.8741890570483303,0.6266825735729251,1.0232793178145498,-0.4593913164977436,0.9409426978835226,-0.1375322678936552,-0.3049624093724907,-0.8993009460612935,-0.8944694842807948,0.3840225118933094,-0.08480437595199568,-0.5503970781825567,0.21590632568518187,-0.26305832545159114,0.3228283225232346,-0.25499887081635786,0.6974593596458418,0.06817353661177739,-0.3611088136308707,-0.4651564897467886,-0.6501834933305686,0.5597221754713823,-0.15352569706991198,-0.4959023923934575,-0.6724921969291348,-0.05668621555341676,-0.29828311386218187,0.22541976567057587,-0.6848918593935021,-0.2694806911797843,0.7329207300071807,0.6939096396481447,-0.2307778480424636,-0.0817519534266382,-0.3934282183014341,0.8651097568386241,-0.7627124685168394,0.86749884600294,0.36773290063239655,0.0631353600677368,-0.9358341278486656,-0.10650544110078462,-0.26113026565799313,-0.8152559189057215,-0.20360776227913954,-0.1236647507079127,-0.7632599862310446,-0.5819191512644035,-1.6708044273668246,-0.6451442737733324,-0.4923227945003632,-0.3608223491159388,-0.2785710578701132,-0.47593513936697435,-1.3640072577039044,-0.5294098618051033,-0.10685853985141322,-0.32904725646725375,0.6605943969918353,0.6385094177473327,0.2236620402064428,-0.2530841097345895,-0.4893272524735117,-0.7882513635737414,-0.2902046330268919,-0.1736549655845609,0.35164584719061653,0.31631958858021725,-0.864804572749155,-0.28328960258009656,-0.7258299675031824,-0.7290928993760257,0.5449461843434329,-1.0130767026591354,-0.2509905678329338,-0.943467559124927,0.45656710079004553,-0.3293810234056512,-0.711124323194986,-0.2539769159147792,0.051475188366441604,0.6265973538688424,-0.7036579704694002,0.6115980060968326,0.6297020438954828,0.6783481897907853,0.20616074416048552,0.2596413088694154,-0.1935787336323544,0.5047957646075758,0.0625880367018638,0.3548761424565889,-0.1430841923024091,0.4629929280862781,0.6489430352090981,-0.7071274867943678,0.6658447161389693,0.08002641527348997,0.667394640499344,-0.15189414098264195,-0.24402714065046358,0.8251053313892587,-0.5097364408634835,0.5503621865387037,-0.21525815429164605,-0.12812425954792458,-0.3954407031620063,0.1236374322420591,-0.3832445532362849,-0.9359233227853986,-0.48798773462171796,-1.018964617401471,0.8834616878368284,0.8851267281474957,-0.2096894050553899,0.456741708679292,-0.30838780317915,0.3421863141719521,0.6108600860919582
0.8935124893844815,-0.199575448300656,0.5665959659120954,-0.4681430987357624,0.9806646075872968,-0.9484608024712976,0.2070576130022419,0.3190119633026542,0.3760911141482577,-0.759224842421822,0.8770595669462609,-0.6376334418998344,0.2455068064796821,-0.5546478417538301,-0.3855671659574582,0.0929170834562487,-0.165613162870847,-0.6795487980469874,-0.6581271951583034,-0.1637104236744007,0.5145659565510015,0.7959292936955771,-0.8317446754812343,-0.2137921848811979,-0.7995088725542467,-0.9668150387348042,0.3234373652879132,0.2048988839331755,-0.6739617723702276,-0.5323743338138718,-0.9525844927109632,0.6698944113888075,0.9493811920971028,-0.7290809264106184,-0.5370495724694038,0.736819039794236,0.8529275683577444,-0.16074527178762807,-0.898755084763524,-0.921216379070293,0.1478996960805761,-0.2142098317744706,-0.9426951876766912,0.1665041293861869,-0.9773964331170244,0.5747437801340245,-0.387134391011124,-0.9195116002165293,0.17660657167345936,-0.20465539023441903,0.9476007946989812,0.0883973250074043,-0.4495216379259834,0.4188777292679495,-0.4570159949145773,0.8084865828151302,-0.2505560589852471,0.0997371255524104,-0.8988537923515423,-0.1477575240955384,0.6647270323878879,0.6112976049975031,-0.5513628863449094,-0.547841874270166,0.6346103491713799,0.8607946823018106,-0.8092802346802116,-0.10483420155052872,-0.432337851170626,0.4710719790307014,-1.167082793811064,-0.6419098193417013,0.4944319132091876,-0.9019923541771898,-0.019943097565242974,-0.12132353030928943,-0.37784813893326924,-0.27495446469585666,0.030090135824688325,-0.677273347349017,0.14399174756120275,0.6108646585999726,0.5203218595803181,-0.6922001906124526,-0.7015010605170522,-0.4636512645101733,-0.2778505473179256,-0.1830888371830348,0.3593944288114344,-0.8866392965589386,-0.9309019705781163,-0.2164914988380045,0.3933723410083497,-0.6177895084901462,0.27359515352532593,-0.573003657790651,0.9486937626855236,0.5546437385594509,-0.6001258441773801,-0.8689835950456974,-0.5941931768568536,-0.525845935141333,-0.051486415807678695,0.4948727241658357,0.19079152801161825,0.3672052338861374,-0.5067851105785374,-0.5227451410860159,0.6463409585936635,-0.2790509897168922,0.342541650458265,-0.4587121160364686,-0.8375407303866547,0.9851635909755267,-0.6875969841388014,0.9768419740810177,0.9520835564460058,0.5451120887481024,0.20371355004145858,-0.18399746693905933,0.436757683491986,-0.41402309632093726,-0.1746674352651452,-0.356266991308244,-0.38900075617140484,-0.2047019082219821,-0.11602995493667818,0.2523548288325985,0.7506986970873568,-0.6076227993495105,0.5274914804080565,-0.45815514344855235,0.6704638033966737,0.5514682978362195,1.1497807285767392,-0.5774374661197411,1.0211626538493952,-0.9063025242636511,0.779826752725725,0.9839254944772866,-0.4118650756464443,-0.5793628874284127,0.5307267205149431,-0.6481921910303586,0.02241466049640062,-1.6666004611298053,-2.1322848380218997,-0.3070760321501628,-0.10781755112160342,0.06852950681050281,-1.1985030332880353,0.07216244609538881,-0.4226252876663433,-0.420353263621978,0.47936634667825134,-0.29667002632901884,-1.2030950949893664,-0.48999929932672587,0.4809994782913245,-0.6384064743463597,1.182943381694896,-0.059614077106423066,1.2297108538582309,0.28320924497806393,-0.20131918202669855,-0.4625261103703428,-0.7270027355955464,0.21267438698407518,0.6988928124514711,-0.9100063575291512,0.4683025081379258,-0.6358623610126718,-0.8656192728299186,0.05645899411103503,-1.776901430311394,-0.6372948848359689,-0.7668328763383718,-0.9310432404779038,-0.7469581804245615,-0.1966679852524979,0.19722239486065224,-0.5362621616426171,0.3913961380705956,0.035755995003684454,0.10502990237344983,0.6156416423213174,0.9502285501422613,-0.917739536672596,0.5669851066179961,-0.3261547950978231,0.5603209963621575,0.7437211427086519,0.21609575213432303,0.728692032273269,0.7448966243505927,-0.31604268267865593,0.8345361263758976,-0.18682639491864234,-0.7134371382398663,0.1249697101241346,-1.2334209497376094,-0.8423612788579606,-0.3653279888513205,-0.12189387361366681,0.4664696949241917,0.9235086434599459,0.6670367105069042,2.0349603888597954,0.7197115928760986,-0.09173045980639968,0.017549216728032384,-0.9803202569949979,-0.2833128616108549,0.17600397851230984,-0.7925253971454368,-0.6432616188700142,0.705121545455176,-0.11332369186743577,0.5373004272166318,1.7004477009726502,1.735582580825765,1.4042954858378527,-0.569772813489146,0.6691503306479103,0.8367950566127199,0.29957531886436994,-0.7931533712492189,-0.6918361032281864,-0.5210172366208563,-0.11329996854793109,-1.3544051387477984,-1.845350318032004,0.4771586539994527,0.8387571228192104,-0.9071166937727729,0.4059974649193102,0.6743036103183911,-0.36322970192118376,0.15636601942319484,-0.4869967951494421,0.24716159322105888,0.1439382477015839,0.7819585442937812,0.4440282912941315,1.540908649917106,0.6988411415150495,-0.4053464956592803,0.5609820238455713,2.463629341924542,2.47267782498465,-0.16748107052291455,1.0432573559018414,-0.11179289065829258,0.06374145834922364,0.7471367442758462,0.7389097168501284,0.028245303938627325,0.8364952359266554,-0.17885323193005095,-0.8602143892658153,0.8429545553238588,0.8881514271995016,-0.5259064467399478,1.7151462566166997,-1.1126689521210125,0.8617273428486574,-1.0558631765072475,-1.4564494291912664,-0.7532688768705909,-0.489445752117398,-0.8798780986130028,-0.6449902356542542,-0.79487823773051,0.7352564314453678,0.6528024405421307,0.3882300434597112,2.142126693625538,2.655212240906077,0.3615529901135392,0.2707500696363189,0.6999186610064108,-0.6075126365734237,-0.7512375161455574,0.9012414822818763,-0.7133439131237709,0.1420101261261337,0.7321480169196308,0.23722704440099893,0.35179707425884144,0.35381866818922536,1.3672895395651772,2.712714216156044,0.9483162453112137,1.1094991404251684,1.1000021114282201,-0.47921835354639686,-1.8050379561027377,-1.6531295439635705,-0.6847993155089216,-1.7910495500654502,-1.7635320212231071,-0.8385768328939534,-0.5020697717006789,-0.2667404004790954,0.13781336343661207,1.6782576293949316,-0.24895211277291823,0.2819310561975154,-0.067636817744886,-0.6218406859652457,0.3780368362218291,0.08051626526117928,-0.2354058540914308,1.1963428964640956,-0.20298305580867118,0.5062446815637648,1.5315563279363065,1.193011927930191,1.3176242030374778,0.8678615516063476,2.094558732938305,-0.05355480915852552,0.13301092289259522,-0.7545333135566641,-0.7118424198911895,-0.16536301660214883,-1.3596667895339356,-2.659787789470261,-2.896461386180185,-1.8774966506080093,-3.0307857930540174,-3.0476535674360297,-1.9779050596992809,0.015394162699676788,-0.6759166407419854,0.31620443388954045,0.9954987780204012,-0.1133768671264431,-0.32383188974022914,-0.20961422469924462,-0.6803660322220788,1.0430385337563772,0.6120563451047872,0.9485544646673362,2.1464678921877023,-0.7917092747084189,0.44612645702361464,1.2459506549976875,1.7124681685860617,0.9207825484122489,-0.18930747346186239,0.376625794384876,-1.6527184085108255,-0.7156134900375483,0.2995029020727528,-0.5372404249786545,-2.0134623507797746,-2.239431539400608,-2.8298230317007573,-2.4164655277751645,-2.1984034400134567,0.39063850934684724,-0.5823450830123319,-0.8828693970541677,0.1047322756344686,0.15714291829391136,0.7106401071602029,0.14052918668926492,-0.1797112521845591,0.10482999896701418,0.5491679320334635,-0.07882803444924626,0.8740162106692032,0.48653857917820353,0.4130035085805958,1.9954011674388843,-0.23293798327153564,-0.631113863681233,0.39753151775187556,0.1037126304608928,-1.9623213047323178,0.0033492741745389173,0.6527902698579778,-0.24669756136865198,0.33283015599971055,-1.2874204131945925,-1.4295894743389639,-1.1744830873067833,-0.3870433790289813,0.5148433134106886,-0.4458763896568846,0.8817603391184086,-0.7513083171382593,0.734333237649141,0.908563939385567,-0.6801715647547067,0.534670469855901,-1.352740939268078,-0.7736954309639337,-0.2223715901444148,-0.26349795655776537,-0.4149670802144311,0.915858391329187,-0.5368487096209041,1.1205339095016396,0.9521745118075475,-0.749965355627282,1.1062430239531418,-0.9751926851764461,-0.2205977429637051,-0.5697249683791655,-0.41379129509601875,0.33488874275547353,-0.8572156397589512,-1.4972735539644597,-1.8105597801713516,0.227017242341145,0.6580625550826801,-0.25519889796624734,-0.5673344447383459,-0.1148453081343692,-0.9040646935846969,0.6167449547032379,0.6338119414950696,0.45159758073540757,-0.25976640275518337,-0.16206801471309992,-0.6768753817051208,0.3715098691048512,1.2431403649066866,1.4167846708357124,-0.5695519720987985,0.18442547104365545,0.7877725836906575,-0.13247072654411432,-0.7530775800312913,-1.4482401848514328,-0.3461368606734949,0.1338198590261652,0.2548953910584957,0.052553712590503045,-0.2151084168203441,-0.8713434697494037,0.07572328324693274,0.05761305816208294,0.15789083601993653,-0.9343966100772986,-0.1163332075635548,-0.6732664832031596,-0.6310818978802333,-0.5968828750132714,-0.2110244862818839,-0.5804669671001961,-0.817800265161893,-1.645420341547598,-1.8855011087538738,-1.6836430011794357,0.35803329487796065,-0.6001198223069062,1.0173011147181525,-0.07944664542473467,-0.8018738578377473,-0.13865872090852344,-1.091603916549233,-2.4372607332410348,-0.2423151250520127,-0.17557064059062813,-0.9147172628806488,0.41079557410421,-0.9199183794657382,-0.8757029884266079,0.20451965957482235,0.6257679983366968,-1.0603975671744852,0.7803159170712328,0.6843296218270765,-0.4067750356858137,-0.8456249395470641,-0.6602666516185344,-0.732083869037068,-0.16668339382259836,-1.318489441656419,-1.8144873698339008,-1.2552894683626052,-1.4446839059378576,-3.029303816825872,-1.2547397850194433,-0.49925802093259675,-1.2073369600277362,-0.46449500529313875,-1.3357373975378437,-0.3546136824080142,0.3606567693866731,0.37544888475691274,-1.0032274416359876,-1.2000978523969643,0.9227765920145843,-0.16004093884471526,0.22916783668596433,-0.17390991237551148,-0.7614339568862605,0.8132853940981378,0.08709781057036972,0.4573113530500787,-0.369272513467765,-0.2137057410119696,-0.47205963956444175,-0.6391625832960534,-0.42484703140116814,0.4803148364845602,1.4451001318662442,1.2011621800058885,-0.7738127904881776,-2.349034766917963,-3.63877335681566,-1.495514791394483,-1.5617827742094732,0.699403675556199,1.4900760495368783,0.6941518542950375,0.09669558273146134,0.40147278037253065,0.6665370005826574,-1.3201839171285394,0.466119895006231,0.9643408456035992,0.29810904434514623,1.1748563309106361,-0.6002950075348416,0.4583348381027352,-0.17674948009581656,0.1567099595098989,0.6652235466522622,0.6083311299677683,1.0457019694298821,-0.5978593175748211,0.4213027959760547,-1.4534974171388275,1.5538368390976613,1.5710164110225429,1.2180297153389177,0.16204118584475177,1.4009030339055257,-0.5126771388444749,0.31634247729948706,0.10604453107822552,0.30229529021417634,-1.1228964676133626,-0.7856427401746829,-0.04224377805488028,1.2439822558704459,1.1337178595550874,-1.0363024831729448,0.25086736574784396,1.4307606812172828,0.8639360261522872,-0.12649228315081226,-0.28548186653768753,0.18730744061133947,0.15118250694196922,-0.6770843318715198,-0.0565203249631218,0.17989089913339226,0.3691102672170297,-0.23691005086210593,0.3572151845252914,0.0009764635077039313,1.5007374950799028,1.2204831976295951,1.4338495245441316,1.1134648020461144,1.2988004639513724,-0.4790206592648848,0.032009698419821805,0.4654178357848136,-0.58175935252651,0.24851632335928303,0.2582224093474771,-0.6688680152454644,0.32557049281638195,-0.3673929652786217,-0.707490154534705,-0.6098741338292247,-0.31873746358085037,0.08521885360992502,-0.43011066121769487,0.4681996841852028,-0.952107469459033,0.1696556226115817,0.8829484750121308,-0.6511724425847403,-0.11555372989022523,-0.6500094430252747,0.5632815708600359,0.4160303823851028,0.31819423906465283,0.5606116123022136,-0.06696820467772863,-0.505953216477029,-0.020559079275351246,-0.07396205910509478,-0.8051156659127258,0.382294011417577,0.059490702037948026,0.733051251241914,-0.25285690779169895,-0.9240199862027093,0.6821531366587266,0.5774083048428446,-1.0012055066095318,-0.16696362500626657,-0.13886217676137463,-0.34782600000339825,-0.38954104458735717,0.10985189219857791,0.1759832589276655,-0.1470005055162777,0.2308415596416708,-0.8368511928219192,-0.8874685460542298,-0.795895944972682,0.2946202512757253,0.6486914619735348,-0.06528582139499746,-0.7648462307650163,0.3871644126345287,0.08993775383522154,1.4189154475994379,1.1304156590721974,0.43967302138871084,0.8106878605348975,-0.4059991630749882,-0.4169049238613438,-1.1959628414464023,-0.46406141337806794,-0.07056549921377758,-0.2792438241431699,0.5334980507034571,1.2135700979231483,1.3516023241231372,0.5878467858772772,-0.4271852746885908,0.759190796244424,-0.9015581709184768,-0.5378382942510076,0.7947714349274297,-0.4876172088631505,-0.5624402089641296,-0.6820994449124643,0.7316686523468061,0.7778582675055464,0.9584857018448583,-1.0561756574163768,-0.10935416307212215,0.23646937772881615,0.13970570358820664,1.2992927963030423,-0.5111506669436643,1.150863133918342,0.15028369381710513,-0.34630485578911324,-0.5669014342335477,0.741813282984801,0.218698729617642,0.37325129700955756,1.2750769382404605,0.2470758568220207,-0.5284127861404373,0.3679457061427125,0.45861959698360544,0.15012114024586667,-0.5863642137332075,0.0089118833387107,-0.3756205268617412,-0.1450669436666218,0.2898779026198697,0.5772907807859214,-0.6277472405917014,-0.2343193200633581,-0.4726638369334313,-0.36575652331525327,0.6607509782450555,1.094121434213445,-0.219638681266397,0.6504442256761706,0.2944292151354639,1.3222682745545071,-0.18077669978205335,1.0016611901061834,0.1085529007752512,0.053653755858066844,-0.4880873838957795,0.3102191393833042,-0.45073887363560616,-0.2822346923313547,-0.3661002163228787,0.6176524024764425,0.750977300791793,-0.3950673650770606,0.7173962424891478,0.7144618747395821,0.529301900769747,-0.7066097719696369,0.3804756573602978,0.8880453975265626,0.384712916103198,-0.3728345197766505,-0.3719554046223771,0.24664990084595845,0.3577685921862058,-0.4931161432026703,-0.700993043295461,-0.054036291412908895,0.06522625311688605,-1.1970867311903053,0.6662557503953582,-0.1646763726089051,0.8682027079053434,0.728411104213244,0.578223488215676,0.6737527525070309,-0.6924658732766045,0.6281086911160891,-0.7366385783995529,0.41008159083121803,0.4839554590279717,0.3554464824026409,-0.495370527729694,0.7460862940304067,-0.66228307325921,-0.8927304169583383,0.43492997797166694,-0.04904860597378611,0.6981918816825758,-0.22352868512149537,-0.6554835074146703,0.44751604937184497,-0.20866443862242293,-0.8698197817192347,0.41420598180492685,-0.1415975235507245,-0.0013882232474543932,-0.2882538691443922,0.8536392292979668,0.9194733589223791,0.46320259714338846,-1.0062002527269718,0.5618485533483427,0.2023721540325623,0.17020689708610248,-0.337233998904912,0.7585587687662487,0.4507432004697149,-0.7748190669416111,-0.1844439311876746,0.7727607239202834,-0.905606596605242,0.922833239284099,0.3583251366391256,0.2627519552867532,-0.4588814870240172,-0.5024165208756072,0.8841161587234134,-0.40345726334527215,0.5510093869931653,-0.21375656045497746,-0.7214948140585807,-0.9787054781675459,0.08572066031773948,0.9480368246354705,-0.2647816010558373,-0.2857058307812521,-0.31196288738734446,0.040668341950503104,-0.12034674412900609,0.7590582540489927,0.002128340565557509,-0.13599456467917864,-0.81967241180176,0.965479081820772,-0.5000542182623406,-0.8532718650807947,0.3262924979504176,0.1907327403137453
