-0.250919762305275,0.9014286128198324,0.4639878836228102,0.1973169683940732,-0.687962719115127,-0.6880109593275947,-0.8838327756636011,0.7323522915498704,0.2022300234864176,0.416145155592091,-0.9588310114083952,0.9398197043239886,0.6648852816008435,-0.5753217786434477,-0.6363500655857988,-0.6331909802931324,-0.3915155140809245,0.0495128632644756,-0.1361099627157684,-0.4175417196039162,0.2237057894447589,-0.7210122786959163,-0.4157107029295637,-0.2672763134126166,-0.0878600315659281,0.5703519227860272,-0.6006524356832805,0.0284688768272232,0.1848291377240849,-0.9070991745600046,0.2150897038028767,-0.6589517526254169,-0.869896814029441,0.8977710745066665,0.9312640661491188,0.6162029775914444,-0.3924361456474418,-0.8065692845946691,0.3676790131023869,-0.11976220914094507,-0.7559243324306856,-0.009684690714731612,-0.9315037855208108,0.8175395664290425,-0.48518018899355436,0.32345773541659967,-0.37784324090582155,0.03904240286156912,0.09212719532491859,-0.6305858129610429,0.939085290758766,0.5502656467222291,0.8789978831283782,0.7896547008552977,0.1957999576221702,0.8437484700462337,-0.823014995896161,-0.6080342751617096,-0.909545422178924,-0.3493393384734713,-0.22266994929229467,-0.4573283604778369,0.6573642714474108,-0.2871000698028855,-0.4405485310856316,0.08270180016364168,-0.7216647531861853,0.6016414184032379,-0.8560215518435956,0.967868417751754,0.5378513146540521,-0.6105782521373585,-1.003556295071574,0.6098049263979239,0.3871593583071709,0.43349583782415424,0.5292267043227258,-0.8589185599572656,-0.2841262874808249,-0.7683458019020722,0.7261707218889571,0.2465962536551158,-0.3382039502947016,-0.8728832994279527,-0.3780353565686756,-0.3496333559465059,0.4592123566761281,0.2751149427104262,0.7744229477039074,-0.05602153784270574,-0.7620536898454339,0.4234447245116025,0.5141867530449714,0.10962825832611925,0.5214626744524335,-0.04007746513226472,0.012694819407366036,-0.1839279389730544,-0.9921009725314122,-0.8300467162492505,-0.9935012846542656,0.2053661716849545,-0.4288809797487318,-0.02203865565569056,0.7949905276128914,-0.5121917877881681,-0.18285570671086313,0.5103476073438142,-0.5426384263799329,-0.846040180342414,-0.4204970941724639,-0.6775574254919912,0.8593953046851461,0.6162407591288339,0.2668075130208469,0.7429209722862004,0.6072587082711743,-0.6278146671516844,0.7822621244155177,0.07037315052732625,0.5947187482441183,0.7562977156665476,-0.41838901274373724,-0.851170275319708,-0.6366190884939995,-0.2751557910269522,0.4797400378550908,0.5603827166488573,-1.1537508485048449,-0.15376326444699276,-0.3064130002140353,-0.6514302839222724,-0.7969216504441586,-0.33915893935159763,0.878536596252449,-0.35537863042318574,0.035365497117632594,0.40567311562516034,-0.272740795241412,0.9435641654419212,0.9248945898842224,-0.4964354083492717,-0.005706645205574097,-0.39854876161302305,-0.43138545040258763,-0.9313018168839196,0.2058698024380058,-0.020910556483925227,-0.9468056436860276,-0.5265101187419367,0.6992056110680132,-0.6625307259111082,-0.8865639521767507,-0.2637644829852951,0.6827417207053023,-0.8338545417919381,-0.0010608166796105484,0.20086425044683287,-0.7870772503674418,0.294547504245033,-0.33165533429485505,0.23657742446616728,0.24900735534763516,0.056289616848128846,-0.8303975074948867,0.6652429438362362,-0.359417844169089,-0.6269629804408323,-0.9184497168904722,0.1817858863764836,0.3546405876602493,-0.9672873457682634,0.020680213983758317,-0.5569566738536454,0.26186360276365966,-0.7134908182232278,0.27231968300102355,-0.37461179473503947,0.6941034400320677,-0.9183942710698325,-0.5408320860855534,-1.0757840895478719,0.4377677644170498,0.27243732707686785,-1.0008281005283766,-0.17908506713596425,0.23039454680963706,-0.13860080743245323,-0.05585248078081999,-0.5791350399008379,-0.8692342638195766,0.742095481837762,0.758689042951853,0.2439364542703127,-0.3246749385459528,-0.3022371612190622,0.45190701573139935,0.7934828245934855,0.7739058992426199,0.5571088371819131,0.2691009381321606,-0.8702907954810024,-0.74979870765722,0.6755720150261628,0.03754257692822074,-1.1946522214092994,-1.021368907097948,0.09017913618035908,-1.2538989389424133,-1.0512696558311683,-0.41059662663896423,-0.22381093347230044,-0.37268361001859057,-1.2079225774770486,-0.11267915309035059,-0.8619410043670681,-0.5213227347439442,0.38808951139001807,0.20011024658942497,0.619857410167003,0.25633613057288523,0.09907266833282932,-0.8193936510078993,-0.26509217300433124,-0.4696129098223852,-0.5122091494224625,0.9438569902105928,-0.22568675630268875,0.7446768969951844,0.1817450007554254,0.46573508766865784,-0.17748882465037574,-0.07535548297332668,-0.2828128614809334,-0.8736402709522457,0.16376151126140517,-0.7830930799534725,-1.4184211618344695,-0.29851258744658193,-1.3379387569175265,0.09320884745659257,0.14099307661964508,0.2136573077938629,-0.6487398589884427,-1.1789886716049902,0.722634352699046,-0.23857484636918067,0.8668411651028386,0.8697318291249551,0.6680437232553598,-0.4176003398865482,-0.23067484119814766,0.7022704791553803,-0.3674427067117774,-0.6688198634701314,0.09284064351945158,0.8194239623812621,0.29333412947421045,-0.007216483651974595,-1.0054212548920938,-0.026287633714621415,0.7182303120049341,-0.9584083136580897,-0.24327142859681386,0.38301421529422025,-0.009653275044422264,-0.19631741759256166,-0.30159323480891215,-1.0620712178990872,-1.169627787901836,0.025724683221829636,0.25671861127894935,0.5293665266169444,0.7111561570099384,-0.020507706773432898,-0.01850470901549217,0.5643810446227574,0.28127751523485767,0.40072111385037357,0.5911435673086871,0.7800106836351326,-0.32672972204666934,-0.2555152654509455,-0.8305531080666843,0.1045643068128221,-1.0136038096088125,-0.18583232934018115,-0.06647726955602296,-0.608961378187851,0.016456779822320317,-1.0979548999158741,-1.1390870139581926,0.3241339295864699,-0.7139131206951183,-1.3021359362713723,-0.6552345895875089,-0.22761291599095412,-1.2747815407570127,-0.27870368160876013,-1.1503646938284477,-1.0657087504835598,0.0027304897632406677,0.0971280489154251,0.30903369699492544,0.4558788320643963,0.9457964825443814,0.03202153666366363,-0.354087054117508,0.5903723895374073,-0.45930007080772667,-0.12670183065895674,-0.8553145898404927,-0.9879430366582818,0.8713491083245576,0.6065044274457194,0.3119500071272766,-0.27600572757692987,-0.7489329070382851,-0.8038847374019176,-0.6818674767180799,-0.20473419695143927,-0.012956927620014824,-0.30024428931784647,-1.194620486395724,0.1475434802551289,-0.1748217887848675,-0.36714254785110484,-0.09024306952345161,-0.3055972918062771,-0.5134937388892171,-0.22615257488875662,0.5806292924008857,-0.9548946850438351,-0.7700956433908003,-0.908096247067708,-0.9185423957077382,0.7109211680220144,0.4066626653874164,-0.05449110276852525,-0.8095207907724905,-0.03635038953840186,-0.0751178307877615,-0.674432289050769,-0.15798254215272686,-0.23642274638361668,0.15080634172257767,0.12333430137010172,-1.1399474310251845,-0.5971251481708864,-0.2762204074081461,-0.7309688136344517,-0.10178607537586952,-0.4383474927359958,-1.295106929043644,-1.3364702993929558,-0.04676530991782228,-1.0766165389892262,0.18371968032445446,0.9659394287980783,0.22503365312456428,-0.20235913738765868,0.2838207150036276,-0.08343567322817669,0.09123357744669162,0.8829296175530503,-0.2285542008001464,0.921309124965207,0.8072066068351201,-0.6188184703343494,-0.8538694747201782,-0.7795842660656774,-0.9475901728952117,-0.8160176219949464,0.26502149946904663,-1.0747668876798733,-0.6914645085133351,0.2451924685785834,-1.62279600285772,-0.2144539683831681,-1.3094649645281908,-1.5413363509479445,-0.24725427828141452,-0.23081264411750987,0.42421546142447336,0.3466580000390168,0.6315454164748959,-0.34946775826482124,-0.5760180891925862,0.5239683514952418,0.6105839754530362,0.9810130504213165,-0.174764646177147,-0.2559638284144336,0.5524823957239476,-0.31912079995873455,0.8581468083263418,0.7108158629330685,-0.11478940973656694,0.5450846508961017,0.5440689901335349,-0.8028492044673823,0.6668970453376742,-0.2825618681687743,0.25099052138016426,-0.8951296363255358,-0.005652969900182136,-1.1302034845178697,-1.8921980366791757,0.024972426954911135,-1.4633288449325312,-0.838454482406422,0.5986036754230308,0.7983259948470355,0.17729382202723204,0.33739231681359205,-0.03928639701566974,-0.39537020635273845,-0.3457406138231368,0.34497923896079097,0.50474905887536,0.5831580874516971,0.5792192512539043,-0.8181101801823518,-0.015387585470043975,-0.8868915383605436,0.13553411129937268,-0.06376786451454688,0.8136405437226641,-0.32021535800457407,-0.9039885934827679,-0.9878441122956337,0.12926986606947125,-0.33816271065913656,-1.6277527638056069,-1.7626158736209572,-0.4990461207548059,-1.582034121233412,0.03497623247587685,-0.020292509341992195,-1.0925499014067994,-0.9102612623967524,0.9959277588320844,-0.20115305631470576,-0.21792388228916032,0.6325891038336453,0.889719141566469,0.9711722005800638,0.5067563704404713,-0.2474808289381684,-0.8329985666026625,0.5537567208257501,0.11063245139946269,-0.15939591592944846,0.8439995239632361,-0.7267638353443576,0.010329658789685033,-1.0273464634289438,-0.22420240406892217,-1.146015708697701,-1.1366118507178087,-1.3647042798696005,-0.5349336787585447,-0.46202231698047785,-0.6842424462932626,0.24911817433398464,-0.7734640040144755,-0.8161830734498398,0.5068539245518483,-0.6157171727842787,0.9425718892824254,-0.9482260834246271,0.9531570370069488,-0.9191627399248883,0.7751118684562467,0.05533888327742575,0.985929592096666,-0.8524068705292023,0.1077085688026415,0.9377236183875225,0.03619206363398921,0.24368449325992517,0.41481734442831636,-0.05366414294076597,0.24823740480809262,0.0680456415873732,0.5971921645793971,-1.1880298966092666,-0.8538894822820899,0.26168457738025624,-0.06587394716756759,-0.9805695788391439,-0.5110805038405101,-1.0421762462996438,-1.0613183797728343,-0.3985575293699007,-0.48873306196916944,0.10123938054927785,-0.851279234136491,0.9430131203334733,0.9541953619344441,0.3771759186981661,0.06172811337222907,-0.38210653864063404,0.6275487814956276,0.3694623451077585,-0.6747661213102174,0.8214459650673972,0.6294210312645875,0.8712963471735632,0.4504155741151785,0.23299525200627957,-0.21193879574227908,0.7271741352126951,0.4982917903380851,-1.2241452310104484,-1.409142652635947,-0.9196470983779622,-0.19909568682076398,0.18306701589184662,-1.3554927464104771,-0.32007371965176096,-0.6095737658458529,0.6504782609300616,0.5046929659746273,0.5919377867375234,-0.10422819908701382,-0.21127153936829404,-0.48460610531022735,-0.9093741192826372,0.7210368235908869,0.6248678166396328,0.9981418254383627,0.9932736741478108,0.1108634112052548,0.5369084638680539,0.8705566359976562,0.6660943413709053,-0.5319922291634722,-0.1434919462484561,-0.8395310563860117,0.726436310577578,-0.05176369982160662,-0.9211417219554405,-0.19889941365569352,-0.4679617290097061,-1.040417178171005,-1.4668217093338802,-0.21656898298789148,-0.3831060724253007,0.23721759026655068,-0.18254087528771712,0.5602414145705839,0.009631492134494208,0.06313119343353299,0.702730278624998,-0.22945456721596466,-0.7513921872522912,-0.9467815692349425,0.5102465159854516,0.23983519852160876,0.4081595361984471,-0.5740716769821785,-0.7296792397873569,-0.9878532869721959,-0.33337292063703866,0.13205417124742588,-0.29940433324822685,-0.27047222208662197,0.5977129336243646,-0.5813498069875559,-0.38781007189079264,0.0016896700288158934,-0.8531888970209339,-0.40685348709760194,0.14760990927744097,0.4336143618927104,-1.0344550906955523,0.627609501281313,-0.16685085177777884,-0.6010487659492179,-0.16095026448771635,0.9006624814576958,-0.058551081872058014,-0.3688469058300843,0.2533052101982897,-0.5225194668119882,-0.8483215665905776,-0.7422405561787015,-0.7439083220844551,-0.6961946129754113,-0.724332170223562,0.27302677549505083,-0.6612878910971407,-0.3525980419435148,0.7029828144305298,-0.18752242625583365,0.13362559742704735,-0.936731784749967,-1.0098921614835739,-1.4000775287126563,-1.1746466756778753,-0.9333465746084694,-1.101016091950688,-1.192829542914531,-1.0284509990948894,-0.25183434716135283,-0.6944627887763456,-0.34182345912787965,-0.052198582952157,0.33541386328004974,-0.9520527028841301,0.5793682111476068,0.2469141447535434,-0.8392666182656131,0.7470346184878548,0.8417448010636264,-0.8778440802902725,-0.4462447037055925,0.6108921571169291,0.4926337356543879,-0.6423591920722798,-0.6079501147161923,-0.32146501507506975,-0.15071174318283476,0.027246125965035485,-0.5437251434557173,-0.4227514545138334,0.11194141752930392,-1.3044762739380167,-0.8908608047810878,0.044974552058583056,0.4675171104742164,-0.21926667381364898,-0.08601997426734674,-0.8780302627222285,-0.1661829430029538,0.023120282252833253,-0.5399378469836932,-0.47952620083054004,-0.2548934099401401,-0.9637033292285475,-0.35718934760275906,-0.5771402666545973,-0.3450052956441707,-0.7604757363614976,0.7810545614797899,0.1862231374483211,0.3554988094057516,0.5664290362909236,-0.027903307582071057,-0.8903006995259182,-0.06759309112846709,-0.05657862485908373,0.19914845572970735,-0.4632385212167693,-1.072921699673233,-0.763530374131115,-0.6329301241416785,-0.06431475090089535,-0.14815174219537364,-0.49874359217508624,0.84358509065641,0.1422629458337692,-0.5652833084076152,-0.8233417764305835,-0.7086208640930526,-0.5132551330890343,-0.6809663462786955,-0.6269752140528795,-0.4299076805950527,-0.6536033724118521,0.7935308492528503,-0.8395325086767156,0.0490227791405093,-0.1792063460206769,0.9638478884720588,-0.780631602486716,-0.21976823198574902,0.8895688134392877,0.6251700455578493,0.4729341659696019,-0.6850316465700383,-0.8826481435148905,0.10580593798793848,0.6224791919121376,-0.13256177723657575,-0.08851942156051477,-0.6222792637865331,0.39307737411002414,-0.7079376196884251,-0.39605669190611204,-0.17347036146159317,-0.00562954112242601,-0.5263897771797384,-0.77327115498925,0.22078363023406522,-0.42274442441979143,0.1624764428452245,-0.6912745694515954,-0.037719796290365,0.0651788651031717,-0.8963529263551462,-0.3267914436121588,-0.7311750968653237,-0.8741944634030794,0.9708943894657417,-0.3801129016580114,0.5630478085743723,-0.5664445143687408,0.2813967771638757,0.43045624138895644,0.10016238258629509,-0.16135310709106743,-0.2958845749443126,-0.4179283894946077,0.7537213937526538,0.573678473313878,0.8770744394083447,-0.7758757175896643,0.44712105371107674,0.861646013694389,-0.6465045088759995,-0.8697587001620828,0.481769738439688,0.14857988227870542,0.6836575535165441,-0.720455246747421,0.5905346237197804,-0.5967453599045109,-0.672688114268591,-0.6714684041380141,0.6289468533928966,0.32807678785785455,0.03998426767189292,-0.2963416854094169,0.7265329922285734,-0.24960979307056638,0.6014067161194996,-0.15279904026992516,-0.2833469861754259,-0.1261993854709663,-0.4527514507622855,0.4371233327464185,-0.04761436790704121,-0.5785547443383919,0.7704690358928814,-0.24743246442811367,0.07661550836484247,0.804847014519984,0.24265071917077938,-0.7692251081420084,0.878938292767435,0.2554161061428357,-0.3301887706858277,-0.7214558546732255,0.588050378540592,0.240145511857027,0.066922183952643,0.7877851661019153,0.5771944224490615,-0.6966502405344976,-0.3765589546038034,-0.5033334568319721,0.4862962218539883,-0.9352069235045718,0.13704286423556522,0.520042474682029,0.7463688692218307,-0.3261548990506963,0.6326367746050912,-0.7876677953503757,0.6835339825739132,-0.7542611159255784,-0.21019346014244686,0.5921327599765668,-0.7015321508734604,-0.5421921059873779,0.44407896607286806,0.4397207301484292,0.2822952657705946,0.3878968889342,0.0854488866951923,-0.4964018821860945,-0.3086080129921611
-0.6368045663971487,0.8169011226672567,0.1667835895322409,-0.1982971664727202,-0.0759883927117346,0.8945666792236306,-0.6932971937678396,0.1724596640335944,0.0117773577689319,0.2229084708692956,-0.963779632358319,0.744247817888303,0.8642365649672248,0.1302663671784178,0.3933016477537845,0.8449987623545914,0.4144772686267972,-0.6949219141714773,0.1525767203336263,0.2134300927657118,-0.1517386573952279,0.4728884712494456,0.8687340295380297,0.8511370258135527,-0.0983212571917357,-0.7735239083184895,0.9696823979246691,0.6777961728918682,-0.7506746375934663,0.8416837652347446,0.7397927241242566,0.0376761142521442,0.1825508714898585,-0.2019945922597394,-0.8904767223559373,-0.32972328960446806,0.6050501913727329,-0.9918799839666349,-0.3336997544795949,-0.20375736691639068,0.07473383612952625,0.8396268960566384,-0.3076620351346728,-0.3085866011151541,0.47049360031049897,-0.0985371695741696,-0.5517550882543911,-0.09517350658658151,-0.7182998314585596,-0.647230675457803,-0.0032654575633147944,-0.1621491009909041,0.8296918021362001,-0.2752122017667338,0.1611767005560869,0.2645285758390607,-0.9738110868233328,0.3270747440334212,-0.6439280662604971,0.9221406349389104,-0.7026759930489946,-0.17079995579152363,-0.8295234568560382,0.9930764574974418,0.001970941231743659,0.1876690160473902,-0.8706879407236302,0.4941458866270307,-0.5882297162486472,0.7819997300589768,-0.6184932869391965,-0.6518306860814174,-0.9588971063262223,-0.07689441420104152,0.11564531323693998,-0.8767623268049038,0.5495677384114341,-0.09368115645930376,0.048750875880331106,-0.11967132435408652,-0.1990154622023225,0.1192806626164357,-0.689519508138575,-0.6361437390094578,0.7235712420270346,0.8922309242672655,-0.2533813674404941,-0.4585106537128924,0.2879989366274909,-0.18336835806925258,-0.9523299474610258,-0.6923462533132716,0.4244695454417573,0.30427285789061687,-0.9721997734277075,-0.5942768546670414,-0.591389061442751,0.27489771572301275,-1.0508635889566404,-0.8905539111957363,0.5101471100309141,-0.714550060102059,0.25730721228821707,-0.5524507361013837,-0.8145721303937904,-0.5192440166063259,0.4417667361578315,0.7085836996700001,0.6596102165251492,-0.2056329407630903,0.3361702731412923,-0.5900314091683581,-0.4137045394779735,0.7926716370422395,-0.973996152978528,-0.8291134402553737,-0.5851102810304105,-0.9524970454468952,-0.646533185800764,0.148610890085907,-0.1916631105766431,0.7240431258816561,0.5353654251765337,-0.460527989482109,-0.6790037352643314,-0.474967924099308,-0.07127247216481045,-0.7217980231323982,-0.007377244258085833,-0.40047137704022606,-0.05950448635405616,-0.23433042421307843,-0.4740662878253067,0.8581088878130213,0.49964714565407736,-0.7344344705607933,0.7321678407720379,-0.02567549815433891,0.7891044537881828,0.5997105118946304,-0.1495729910615331,-0.9550613833597652,-0.462631928950547,0.08265663000118409,0.26267076430177966,-0.5009696965321612,-0.75236526916521,0.6136641751332038,0.8716543881595615,-0.11316542409111288,-0.907267931814824,-0.8003335410319902,-1.3808936417614615,0.37284374885222943,-1.2275787718224922,-0.29653614258646827,-0.899510815858382,-0.3043976575643001,-0.035827902133147856,0.4096908150128552,-0.7670749946660421,-1.1030311474267753,-0.802782264838126,0.7592051836168289,0.7327758204420746,0.19190201808806948,0.20079628668731084,0.33007137834692624,-0.6492574427531008,0.8288238918499196,-0.16245709308825965,-0.23615495350222457,0.029635257581781593,-0.9302165171220247,-0.7188266378816516,0.37371263036346375,-1.0139822391694995,-0.0728475365222439,-0.9038103872023561,-0.7213220439097571,-1.0015725344244668,-0.900244733897293,-0.15941934944643563,-0.9767020459828393,-0.43323726847263244,-0.5794497311932922,-0.12652985586888893,0.5080288186813765,0.1790751286906718,-0.7854716666686862,-1.06930162886503,-0.5441337485276823,0.1599635994581694,-0.9071360323161076,-0.008399367159038943,0.19251641537786252,-0.33151244412563746,0.5418229469919872,-0.786804601037312,-0.8525629486031536,0.4468160296487141,-0.03669271944577208,0.3154746675101463,-0.2502796627711859,-0.7247038818882967,0.30813192689439706,0.16053005401617557,-0.15326436570283422,-1.064839197480311,-0.42335910953044403,-0.8123800164061252,-1.3096719113680615,0.3177469293437725,-1.2577485050544839,0.42117359104742585,-0.522331770141134,-0.9799156478534751,-0.1731367719300012,0.5859293408689241,0.38369540363117727,0.5800838322138887,0.30139470883974184,0.3788058780153308,0.6971084005598198,-0.5006648997300523,-0.021151616382022655,-0.5576074799555645,0.9721415967575642,0.8734050386636837,-0.9586217043175331,0.3434327874253611,0.7195249637558814,-0.8752440527484888,-0.21773207012825158,0.3570572514756416,-1.4880951220786303,-0.17860134810553047,-0.8885265679694766,0.5257950253186704,0.6852237173140803,0.5624312699790358,-0.47201889648188106,0.2897043993150922,0.2764527952531602,-0.7328660201977241,0.37334483953895786,-1.1058462214571727,0.11185813025118481,-0.5708111423530772,-0.7741594152870258,-0.8502865065321559,0.3922200127970399,-0.32025022136910797,0.44947424521455115,-0.8696962354356889,-0.3743375835419907,0.062291863553505605,0.5418297031173879,-0.4402519976956873,0.09382772791370658,0.5054720003851638,-0.1527230817098581,-1.0231297793697818,-1.479165373345521,0.27331591347053547,-1.2732746756651752,0.6081866486922055,-0.048682246407875295,0.6462341302412765,0.2065461830854216,0.562531295618332,-0.7251181961448346,0.154779960682832,-0.4801489336000181,-0.20699438641344262,0.18609125948635688,0.7248801511761472,0.9627609240465903,0.5358266925740426,-0.16446962798066592,-0.1572859954458596,0.4748171123110569,-0.5241406397906121,-0.7844729612424165,-0.31077602624672473,-0.4668649718268546,-0.49374063738612706,-0.7066406202474353,-1.2138088068968613,-1.3654555861274176,0.5234583868777285,-0.5949504364048546,-0.5910248861925841,0.13182268692237908,-0.6529119903595968,0.7960716621883578,0.29615900428446745,-1.2678531078877844,-0.6444770464446223,0.317725129885445,0.5248368285142694,-0.3186586429073847,0.0898519357663077,-0.7206991628699837,0.9663884535007519,-0.5390467856011761,0.8851172589128641,0.2992932979847369,0.2154735897577182,0.02425567085352911,-0.5407325434157448,-0.6529573434004644,-0.5775391806533652,-0.6689428540159535,0.46242267066095194,-0.48669137165181625,-1.1984950306829767,0.5483250154294889,0.3634855392836372,0.4554912411312618,0.621857797236735,-0.9085818772783271,-0.3549647083173765,0.31048430944365074,0.004943690461558513,-1.2240076477397563,0.12926758316330395,-0.9916375977933907,-0.8829621210330598,-0.1332410947465981,0.07554504407141303,0.111983657651626,-0.8329457655403549,0.7518540596433756,-0.46899591169054905,-0.7410314130545471,0.7774961597379544,0.9101640808961603,0.7221883681369883,0.6148646040726888,0.2994961368121817,0.061087465450852876,-0.9343333733415695,-0.3909277993243421,-0.5719813092987648,-0.8624709968328927,0.046179603943235954,-0.45350093953676585,-1.2902183199006103,-0.9028596602707957,0.10815769141665961,-1.1961609983399961,0.15858890037409515,-0.6306613194684373,-0.5705612306977088,-0.21843432954862477,0.3783249378866194,-0.47764448482501365,0.24758934444273598,0.07414950498268051,-0.4894233608157162,0.753017558980274,0.5944252893100723,0.31669365004775185,0.7011634581884838,0.7344260066636299,0.41506673103071495,0.6726141712650834,0.38855580025741343,0.3172673733746974,0.11474975362320526,0.28327542136359585,-1.0002964689129583,0.3874736494570136,0.3235191632169013,-1.4490068100416083,0.11327571128948621,-1.184192415099615,-0.7368583700189626,-0.024486651737338397,-1.373070100283269,-0.040886402121091917,0.13782033531380708,-0.33514411887328577,-1.214222627906736,-0.5859301218696453,0.1205517969946035,0.8916812946988983,0.23520761370108179,-0.4867945628488779,0.2676929768854547,0.0799707594317109,0.5596907903022872,-0.7860389368075118,0.5218170322533051,0.08200792582896897,0.9200376975144574,-0.3698255517626686,0.12888751011661254,0.6440046286665406,-1.09391569734124,0.5301065029648717,-0.05110582845807527,-1.4149754244304078,-0.9962934506293835,-0.10147230398794464,-1.3817460758439792,-0.46972308084587916,-1.07080434033694,-0.4462230699257249,-1.4126197296673404,0.4244124339660387,0.7320586644826399,0.782817824087804,0.3836071961523767,-0.8153331626714744,0.4837025396771678,-0.9590405990640214,-0.9562103065051895,-0.3527795617009175,-0.0227136191906685,0.5408148249811408,0.36659042708985295,-0.10880954062150186,-0.4613676932303857,0.9316868489298217,-0.28703692696382,-0.3126607109262452,-0.9384311430633531,0.2795623896043432,0.0027134031901546916,-1.0498836357052315,-1.3705239768491426,-0.10837952181122008,-0.17996238194103892,-1.0737188819365915,0.19776142530953436,-1.3339535828019318,-0.6005012027083149,0.5735211400487957,-0.4040585470896731,0.09215920436296249,-0.3401469640527075,-0.5403083870747785,0.9282993856216958,-0.18997070589233242,0.7862092722885129,-0.5400918600321072,-0.5737905919498334,-0.9377318342309772,0.30298241837251366,-0.2657441960530588,0.7112837113135844,-0.1287415384012204,0.7905826779256966,-0.8397574304443477,0.48313623792774757,0.2712305354133293,0.21123079930470315,0.29043062693199556,0.12072344081043844,-0.10475996127601893,-1.185311395794744,-1.5124022162216535,0.23634383438013495,-0.29045444006627924,0.1657183209851839,-0.3769155154693595,-1.0596482370374518,-0.9826664389973173,0.21065847394043136,-0.23865866340920905,-0.6450853215949472,-0.02768310463381191,-0.873375764475305,0.1639408388359416,-0.4620131911298046,0.5951182012743763,-0.3802432685739675,-0.0961127424081027,-1.004567955082944,-0.9426449781606229,-0.3741039685996427,-0.2610848516902333,-0.0663973924999982,-0.7245258576041322,0.05016217157516644,0.3585107423250113,0.23534155211809465,-1.2253483219175163,-0.45096183084445707,-1.3177241375624626,-1.0353783279199125,0.5561195031221693,-1.1004985619937142,-0.3595397733571453,-0.09307222268165598,0.14231775862859009,-0.04711708989438406,-1.077534615194096,-0.39013086629668053,0.02405244296431434,-0.8272173378404831,-0.29920550542767577,-0.9335937824172668,-0.8428430056899585,-0.2073318045368011,-0.7473597453082841,0.09314814065880325,0.27971721484124545,0.42651404969015794,-0.8542872665380178,-0.964030139235995,-1.1328550741285197,-0.0878880470160565,0.06777724663211372,-1.2479085279450206,0.5640263422454996,-1.2965651332687433,-0.3710760646076218,-0.011177222138473268,0.37038633770914714,0.057482778612927894,0.22748755464981896,-0.6606960299567909,0.36798724378322356,-0.9982853360737394,0.7092416811827719,0.061696129980993386,0.6247686692980666,-0.09595866093203292,0.2876889915905453,0.0528053218722264,0.4631790435106637,-0.8387315354712294,-0.8978944895999179,-0.5623552159263171,-0.7964985581593617,0.5500814035184114,-0.8440644668841114,0.6049568836445206,-0.709592186682492,-1.0150959598203237,0.22958457606651267,-0.0203347525253512,-0.35958920313903747,-0.2911545800972599,0.030651723793496222,-0.9417651802883816,0.5939427576087913,0.5400651935923317,-0.08805351406855033,-0.9371826118621625,0.12006764568814507,-0.992363846237439,-1.0026035103153752,-0.5082585798808312,-0.08163411739797359,0.7363398438462344,0.45490426939623185,0.4854130423999621,-0.1490133311038493,-0.3111155620592593,-0.2778004259015029,0.9170508506231658,-1.0404786977813703,0.5363357345149519,-0.13457295336308833,-0.497397293840838,0.037184962277714693,-0.442657999581607,0.33799654668915613,0.3697252138331074,-0.6085312435608184,-0.8968607290515173,-0.25378688508136693,0.370450166403555,-1.0536700241945345,-0.21019194987743067,-0.13234776307188614,0.16478559703173784,-0.9340654367114224,0.3271254868189779,0.7681065812290437,-0.6605247663780639,-0.5299165166566994,0.9422112519060846,-0.6380460945810205,0.7087701867391583,-0.0154442871039304,-0.5091048163953347,0.7247121904055942,-0.15835919209694246,-0.07864401658925066,-0.4723814642465431,-0.10794085651051213,-1.0689524416559992,-0.6780839199161007,0.43328319556446704,-1.03844020152635,-0.27322673471180925,-0.9098863791720065,0.03059479633057908,-1.210788227346987,0.46562985912017785,-0.5776781353274655,-0.951161063946865,-1.1738943760067728,-0.87954129004462,-0.09189848479769146,-0.39890773076410313,0.6217472540885434,-0.1543504597487187,-0.5064939725678355,0.23449010780238824,0.4135544337708916,-0.6659161841981003,-0.6647615674233647,-0.9281922665803384,0.4632985608271212,0.2990086053155287,-0.12348084195183706,0.5484639081741742,0.3771899577727946,-0.17979235926229087,0.27917496965950606,-1.1534771586134607,-1.418704737018532,-1.109135497223904,-1.4555777397975767,-0.40726866593780514,0.4606390680554991,-1.3174063473300226,-1.1342345454700486,-0.39403167670404465,0.6700441840208466,-0.4881150988456179,-0.05919786776987036,-0.9588222881249706,-0.7224439375440918,0.9647755190486023,0.9273539637257905,-0.9903491120833317,0.903623570846478,0.2782398756310007,0.7358365890400442,-0.09075762679685186,0.028304716498831713,-0.036812804728074015,0.2943920072442115,-0.8019780892914424,-1.0785045961735809,-0.6062760679139758,0.07357187910133155,-1.0453363137681873,-0.17000660144233182,0.4364961619027861,-1.2318859090462073,0.010082154370207118,-0.3808925381361375,0.5026340012526748,-0.8568360335659403,0.23743510735891868,0.5963670832876159,0.8450935765262554,0.33956555487935414,-0.019811620749089095,0.2297789154528688,0.7369206799560597,0.14117542813875605,-0.9392463153908238,0.8618973910139556,0.3790535020631222,0.353026771554493,-0.5686496952045657,0.31659081044743337,-0.2179600866343646,0.289575520927649,-0.8170896337352562,0.25986494086470047,0.9006794183878869,-1.0696906939199275,0.7370687019120122,-0.4157168646102802,0.522195177342337,0.37129112324809516,-0.01377097255098136,0.37264344996177934,0.6677642169778952,-0.2710959014180364,-0.4001823538165223,0.3102305709815379,0.6013935181512745,0.5168758616823826,0.5917091248980594,-0.13121360243512417,0.6350112680398466,-0.7595818892587831,0.088978195921699,-0.9884826790037567,-0.3508283401994594,-0.2670769302572042,-0.2076546167814892,0.39089808318120073,-0.22433624613333114,-0.10849529439293348,-0.5381017915601172,-0.2774790481920748,-0.5940838546431858,-0.9351011970025133,0.12254833651747564,0.26550934708060897,0.17839096210017102,-0.13143761270042872,-0.27897635539697974,0.7047691155025656,0.0189188181152807,-0.0668919091508897,-0.9722306162303995,-0.32725678656699825,-0.2445557271895847,-0.20486963105992204,0.15898401602356474,0.06604064241160089,0.21559127943788675,0.5297665230842565,0.625971477432187,0.4362461524529888,0.9110473919098694,-0.9635348346472768,-0.6084440286329078,-0.9849744303809043,0.2943156913078129,0.7948484092611148,-0.5173853206593119,0.8446217588504432,-0.89841779824168,0.8478991013363123,-0.31680992212752573,-0.8185769425298004,-0.04973287213713867,-0.5062943625878563,-0.4417894117109052,-0.3903295790878663,0.6025890319171017,0.06977743987921126,-0.38725588159534396,0.21727325701537992,0.43075493255544567,-0.456413951655949,-0.17410149373241746,-0.7566124108054724,-0.6377013009306394,0.3622357079299656,-0.6371233046087461,0.0503267673341203,0.4180925234448653,-0.7862461538105123,0.1346244392578071,-0.4868744325972725,0.9258537504751596,-0.03291254779721775,0.6119327614678215,0.10009305312663061,-0.9135506603638615,0.2659881993997435,0.9023917713049069,0.20194931820971093,0.6358209342487924,0.7663067498778311,-0.5452153022994293,-0.5763516657106827,0.22151360794689368,-0.17964106233044608,0.6782775271844599,0.7995996112671753,-0.2931729995151169,-0.5266275630206497,0.5607722550361831,-0.4503879289037278,0.6452286370273568,-0.1525234927024743,0.3350997985829409,-0.8089293723306636
0.247718649353146,-0.0964646425255417,0.1732169263509482,-0.6639715845102732,0.4737474898883642,0.7255941550864571,-0.5665203998184487,-0.8085708889596765,-0.9527228279073272,0.283943000886532,0.2141880721775615,0.09339482542814,-0.5361058077680492,-0.2181880081889706,0.1889526703723461,-0.0064662822816612,0.9755710404297746,-0.7271204948865337,0.3902891080951876,-0.1913624637914157,-0.1436007701487704,0.4351955313163524,0.3848723026487393,0.9825119874043766,-0.7432114210917495,-0.7917807012316673,0.4486776342574823,0.1567738340128182,-0.4516786668803882,-0.8411612620220268,-0.8286835008071389,0.7883817493282366,-0.6162653505625142,-0.3532568757689585,-0.546687195546024,-0.29057355932154016,-0.8628595410124821,0.03601824238271434,-0.8657078717976521,0.6006643878618194,-0.5326096020651644,0.07942053861299633,0.7588646016639291,0.301638536842743,0.06608723483983202,-0.3513264289354425,-0.33399721810788074,0.33776840843849093,0.9864832787907938,0.3224883036402349,0.11487287248101424,0.4613010204784922,-0.0695887754325637,-0.8797153147984296,0.1245936317558196,0.9152505690107604,-0.6493941152846807,0.3800097816413315,-0.598132622681887,0.0716553689461625,-0.8066471567688107,-0.09925814242746316,0.5123266153942303,-0.3052308674038377,0.32768050115126146,0.5884278574852297,0.8510805475048558,-0.5326662185338205,-0.20256887677840854,-0.6980121745794616,0.9778205864143531,0.8430364084212002,0.059037206719978245,0.6631743134916004,0.022319822615767107,0.22938396445252932,-0.8341937975291307,0.5053228781961059,-0.7459200800119377,0.6531879031586659,0.5645358863236979,0.4174893954859529,-0.9276792389504758,-0.3937432881093428,-0.4737748601783142,-0.2797271850569618,-0.8247145064723229,0.8739156460621256,0.10760447562520883,-0.38918013259010714,-0.20680309456592205,-0.10492912199214693,0.2024065880337858,0.03386788814091766,0.8409317386131672,0.0004713615128436252,0.9955407880882367,0.7129619935450139,-0.5810701597302175,0.8574849480641842,-0.7897078313763296,0.5919956181564608,-0.2825179049852992,0.7212454927214861,0.7140547981811459,0.5998709748321088,0.5749560182418008,-0.3916271877606437,-0.8387358083536366,-0.1940396424696771,-0.6529509700269827,0.3899021778049234,-0.3078005469244289,0.9512204017198298,0.281944154690664,0.644615124453296,-0.73641785489823,0.7222805798111037,0.845438904623282,-0.02435895549748572,0.2100394329177319,0.5296433213653526,-0.6499636711616408,0.011483758699377587,-0.19386104604180415,-0.7024317728346978,-0.2712717972738622,-0.8927609772499318,-1.0210684558598861,-0.867342576858185,0.7513310807683653,-0.07041149429989538,0.8278722037787887,-0.19379823876436902,-0.4150928158316732,-0.005229328050700534,-0.1270726976830234,-0.789249834166978,0.2816526293804124,-0.5679236349808008,0.2391759097956591,0.3004021847963067,-0.6959544298604102,-0.8785675348620425,0.5583221820788647,-0.08411422091264509,-0.8885405683763197,0.9757844726388986,-0.9028030321773644,0.36503420463708175,0.9343895642456386,-0.5632199066611482,-0.7864983854728897,-0.8720335608567937,-0.5603326589372687,-1.0261699327062794,0.09244158897474539,-1.2166805996006138,-0.35803154066450416,0.6285543682790627,0.37682055513577295,0.0783229542995083,-0.47504869294695523,0.19932056176852822,0.03143494055501429,-0.15259788203511204,-0.7387710974341526,0.7732074358873573,-0.1004307023573549,-0.6107549763584699,-0.2644743660841798,-0.17383437338340893,0.6465549603997929,0.45430842248866343,0.5154950528242886,-1.021805720410197,-0.24023296695172563,-0.14191588224116503,-1.0871124564260193,-0.6374580272114877,0.2963927157294569,-1.055720173392698,-0.3733215523974598,-1.0548380660441985,-1.4557975852532985,-1.0258582568710886,0.42042356865767644,0.12286824471668756,0.5593370663719348,-0.26567757301399114,-0.9257838881170473,0.01877674791688452,-0.13658710255952816,0.6707036210173621,-0.8056567260897836,-0.024051971517922547,-0.6999107776136411,-0.35073478691658583,0.47458689434098783,-0.052920626623871744,-0.26323553185758997,-0.23852220017106052,-0.13640880231972366,0.4624539018660285,0.6068416840548624,0.660180660753491,0.2891861053258261,-0.7111360971678335,-0.07914005712802424,-0.7319792298811483,-1.1853059543545974,0.0008900224011929417,-1.5600739861236046,0.1606767579168553,-0.7027921914829681,-0.2774447058259323,-0.10785855233901859,0.4907155052934828,0.07683115588846975,0.1128402954857817,-0.9292157218368563,0.00590687926161214,-0.7048450638252876,0.47462007468484124,0.02441089615074368,0.36025249932608094,-0.9180833222384084,-0.8385273983991641,0.4074794033017413,-0.9033590456705165,-0.9483844878406809,-1.1522224222527357,0.615116128199201,0.09456311314745912,-0.7364425458997755,-0.9560880311642755,-0.9868690224859573,-0.24636957796451542,-0.46781309585459047,-1.3421601543875654,-1.315116550620808,-1.4649060533696672,-0.3383074961859631,-0.04497025393027372,-0.9102734213778882,-1.2927316878625323,-1.068954127205183,0.795877543346262,-0.4771768017306568,0.5111246465798117,0.2453736898105566,-0.23721347106279148,-0.5886308227801651,-0.7580239338570743,0.2271411302502432,0.5394492798458929,0.2573918478212467,-0.010934972423370697,-1.0587107377532172,0.6704190242530408,0.19959667673497006,-0.9020880061726593,0.38798891244863937,-0.4646915664085121,-0.6053687540323188,-0.29343552756848673,-0.08328814420188031,-0.3063479945295081,-1.356703171678616,-0.9740485764550365,0.22899455262937565,-1.0817330979880009,-0.6676745335253871,-0.46503748345530016,-0.3631645132542536,0.09117997180686234,0.8326649386845821,-0.5316707184691456,-0.7597129781640082,-0.6051144848929613,0.773849800418539,0.29051215273295067,-0.43057006877143733,0.6213952177870942,0.6901146416743968,0.6144941319087709,0.6635099831902113,-0.8005666079435265,0.07998711266337002,-0.5868831462946658,0.08231186548331748,-0.22073251633871924,-0.15950079747121337,-0.3427409926593555,-1.1765954822307931,-0.4023170203707862,0.41382467798476646,0.26046263047424856,-1.4662661633922676,-1.1310819638421752,-1.103299375459377,0.14698654391665308,0.41866288836920673,-0.6859906236256619,-0.022896536114522255,0.6765846463305488,0.4640384821296825,0.0844744109836965,0.1806953809175457,0.01655642895600292,-0.40734598071210687,0.12032831886952865,0.3457745103020716,0.6641072725027423,0.08548420125978301,0.21250527141991923,-1.1057213633660992,-0.561248556610138,-1.5546720894463064,-1.142035952776539,-0.18417754634889894,0.42284189304625525,-1.2443409768848606,-0.6349973058557319,0.09636105859536097,-1.1332655793880364,-0.3786721867503811,0.04832832469752702,-0.10095004624813127,-0.8855786697259603,-0.46807460094621145,0.4717610080290512,0.07853308453633505,-0.9906807882281555,0.5213687993912461,-0.9293774042611194,0.4914675654624643,-0.5951461200021824,0.9141435042711904,-0.27268598591287824,-0.3771534636111443,-0.7940019219722559,-0.5918548158669356,0.4279528083133036,0.5779796736052488,-0.7411341304333492,-0.6682352379424602,-0.1802746966403269,0.16044182118484002,-0.3517908291087137,-0.6822426595487842,-0.6538115030280259,-0.15143373053791445,-1.5281499006983645,-0.2333576056323457,-0.675396301790895,0.2827913253800846,-1.038383137259644,0.021073402800418906,-0.12583875278730028,0.2527449751507519,-0.8698912089245241,0.1600194277050289,0.1229687845764334,0.1213201888323418,0.20687643237793976,0.35214584913844615,0.6049946171282019,-0.4938598068501666,0.5496492159112724,-0.21272290215517678,-1.1747919480647362,-1.2740576343883407,-0.7939198952296599,0.027017219597005836,-0.18146558053236736,-0.0004929512882341815,-0.5133395638056492,-0.6667090289179455,-1.289741420918515,-0.9575173681247962,-0.7152991253809311,-1.3077338940392156,-0.937056636368795,-0.08434519384490775,0.2645354083174832,0.8509719711330129,0.7741455485628972,0.24926228647764676,-0.15896391974945617,0.27238364946975896,0.571303236160464,-0.7633276181532254,-0.180233328372468,0.6794067455090124,-0.23574005617986504,0.11037105241898171,0.06459198700582332,-0.8437932209665888,-0.5848226662159243,-0.6939402900347749,-1.3542241749283395,-1.406724468407987,0.1773052970817016,-0.9584936248086426,-0.5114558108707806,-0.9926738393923418,0.21738539537570195,-1.1578787625977074,-0.7840480618089689,0.207457243499196,0.2746486085962913,-0.9058244743289832,0.39998574874519194,-0.22470148115156285,-0.12693115374393577,-0.7662577181469175,-0.8421135550773767,0.45600313320588975,-0.0070776952894004,-0.1262985947696409,0.45901431972966694,0.5309602456783528,-0.6859486665497789,0.189809087193143,-0.847749704619435,0.2920833628062919,0.0458560869196743,0.6134538600064331,-1.19088174171776,-1.2562224607164416,-0.8363896039132348,-0.9253137922318452,-1.0172443977312624,0.2223837479379879,-1.1594101530807095,-1.1334983564791896,-0.16472591808430986,-0.6729357130362069,0.1376254479468228,-1.1514745735116911,-0.20913399033608499,-1.056664873989077,-0.9531653317465342,0.7863442301439774,-0.7227597756272361,0.06529435740223913,-0.17782462527754778,-0.3053133474823146,0.7996666913745449,-0.9572167289498713,0.3240923732702863,0.8989221773385307,0.005697360556673318,0.6899502029371951,-1.114307672849866,-0.4186584972703675,-0.7764211179348373,0.11373549666007439,0.5677878851032945,-0.9125600173608868,-0.162139858108305,-1.1476700934809203,-0.4447753709749969,-0.6842868385493411,0.30071927077746335,-0.3551365666883535,-0.715711001841392,-1.0319916613147049,-0.8570175858676813,-0.6464923916360875,-0.5540741202884093,0.688577871172373,0.12537373213688138,0.04718645253377954,-0.7704912788063294,0.7202793866988699,0.4456286064169674,-0.8662112491718655,0.4143357917349968,0.0638952740367044,-0.9330039898525573,-0.2296363161450433,-0.20339710327340102,-0.8772037059073414,0.6277795471374222,0.37528027628024846,-0.019941345124490875,-0.44276313685923524,-0.5866745249563179,-0.17313221571802254,-0.41031190767340187,-1.4288105927237063,-0.561190726789719,0.09039344607498963,-0.4646212633295896,-1.1326755518732854,0.44455244019420076,-0.6651016089788588,-0.5048118629039445,-0.6687206394116164,-0.33165616735602155,0.5144665367253949,0.039296894549083944,-0.5902374516985749,0.7556601563040817,0.7581952943822929,0.738998178230349,-0.5444305104853003,-0.18295112533056268,0.8400087836384267,0.38949870307443657,-1.1153604297361879,-1.0778113165671481,-0.34370448473017695,0.5225515315013327,-0.2229342794338764,-0.3716549454667603,-1.2378286062079902,-0.195969672335995,0.09439599407987845,-0.7895221995609691,0.08105707363071203,0.588889480503766,-0.7835540842660195,-0.04705401015314325,-0.4589424832789939,0.5862964616232401,0.1646392877942783,0.2765089574964432,0.5959798578096526,-0.20784325472124004,0.8301801368140864,0.0660577344922799,-0.6852715376959646,0.3921362106811118,0.5700957336791754,-0.44678351856320936,0.5627903549188473,0.6242039875098389,-0.6464689127508295,0.7447981551283667,-0.9826817060110806,-0.8835855539040001,-0.9668089421620207,0.3627441248429078,-0.2287791946967882,-1.282439239719118,-0.6994542521715501,-0.2970565499000627,-1.2446550261647558,0.493057798835617,0.45604302541973807,-0.056818796999657736,0.9180150125756333,-0.15204966872703196,0.982761429565329,0.34360846934656314,0.26972885105414146,-0.6680902557901295,0.763855516609288,-0.1450206241587697,-0.6753662451967912,-0.9734800603805902,0.11125922169992983,-0.009490530808525972,0.28481989080667486,0.5423373829635844,-1.1035067380097634,0.17257392840230884,-0.9589438625333426,0.3455260552891231,0.18541631025515662,-0.47821966835174884,-0.23790372940742296,-1.0428319192770026,-0.6771604708715261,0.13410712495105642,-0.43567633274105366,-0.5011979112083977,-0.12183003566866554,0.6131026070067102,-0.33362922527393457,-0.6367436592430233,0.43610454706695534,0.6579825828727996,-0.7969453986719941,-0.5202517744881106,-0.7160560204780122,-0.3041171768356667,-0.09870915925998965,0.4995632578132308,0.2952110272960739,0.1946955110776506,-0.42465112205369154,0.44176758277127415,-0.38444007176395,0.5636847800048143,-0.17682812791962546,-1.2465723621577092,-0.23288178095725226,-1.0452543487446266,-0.3763487813661876,-1.5698983472671464,-1.2353104802177346,0.28402877909805974,-0.8241276318770379,0.5048743959455043,-0.5159984124287412,0.25685711444063025,0.3851006538012691,0.034878651129076864,-0.38094377720485034,-0.5707783600197326,-0.9330673441959216,-0.3921071975185524,0.306325581062566,0.8766096368969654,0.7423521483100517,0.5316045337928729,0.5731798160497688,0.29408915728948803,-0.580941602879634,0.6166955603878681,0.004296219777707968,-0.3261174314667777,-1.2959891497895035,-0.6766893661529487,-0.7310887111342578,0.006073618409099766,-0.6173939033910154,-0.8476751379107079,0.501254520696049,-1.085567702119033,-0.35269231514471944,-1.0304321788078532,0.4184318011465643,0.8094934624826056,-0.4499284620208088,0.7164138481474922,-0.4139637151035863,0.8239569282821463,0.508315970349207,0.6098135536828773,-0.963986888799091,0.925620714148052,0.4533396518476492,-0.3907953258924839,0.6556943607936419,-0.4595798752431321,0.677954156271736,-0.9255042764013399,0.12111957807341865,-0.3247696610545284,-1.2822477843462563,-1.0324102855216521,-1.541866521285926,-0.6508478624757631,-0.9297419662974361,-0.22382626611227346,-0.7094547306905162,-0.5976311647286355,0.3583734048499186,-0.9942838245979785,0.7446082576137003,0.6697933455915533,0.3196304791982592,0.18304136323084963,0.7836915999158398,-0.6292515107865295,-0.8420468341525533,-0.5209796601809238,0.5891565574003805,-0.9306594665470334,0.1656136701669792,0.9897684175694261,0.7074365832336587,0.02913629063156435,-0.9103825726518178,0.5785093920346654,0.05602248382088179,-0.9625723792108007,-1.0527066077747995,0.5283402179549433,0.004303538173161351,0.2988410134015043,0.4388154447698919,-0.09093251864797952,-0.1345313064152107,-0.2519664384428592,-0.44547275739838826,-0.18844294450607954,0.5069012644697225,0.17937336132508425,0.7738827022999777,-0.11517163357216631,0.21416590812627345,0.2626151061839774,0.183394324612651,0.4052675461710326,-0.5251330632503874,0.0247275550915813,-0.7915503943833047,-0.231046944549258,-0.025483637224055097,0.29834028080449726,0.880007506615095,0.15492884495564357,0.4236376611063952,-0.06669198717990178,0.17085162432812664,-0.9667753069488759,-0.6156681635723514,-0.4101284476504552,-0.17751249135626113,-1.0028130258900054,-0.7928972337512242,-0.5013285629425099,0.9061965517151126,-0.3649659612562146,-0.058220423102527806,-0.6209335020896433,0.2165426730483333,-0.4400103545668822,-0.5861971742694246,0.0331452568919581,-0.9889884016791584,-0.9846719347015492,-0.5618623817962844,-0.9265572749983576,-0.7839484917386172,-0.32237784282815396,0.6043429396444102,0.14146650411884204,0.01246353228513576,-0.4354794453029822,0.8341821667589993,-0.2367421579133834,-0.8673764518632288,0.18276498427191318,-0.8329976299456581,-0.3683813997747527,-0.04484465993976351,0.7033713860353339,-0.04548564430637196,0.38244062842577276,0.9685406803907242,-0.7506331779140654,-0.45999950427610303,-0.21640168633924226,-0.1581537756763829,-0.17801304720263153,0.8152220051131098,0.4280652889337129,0.2158104281814075,-0.3812545642744358,0.6475807684425894,0.910121022969978,0.6423965651004531,-0.9968697896170542,0.272802740366814,-0.8980435813597841,-0.48538061664290333,-0.8822685536623862,0.20546131126702621,0.37032029917846593,-0.7748500916506654,-0.23725587318234526,-0.098339546793129,-0.27398580389979876,-0.7659597881546256,-0.16685402990981527,0.4977699390081533,-0.85969538286084,-0.8415669675992521,-0.2917628151191873,0.8829437372440372,0.33622776587918884,0.3567712200672998,-0.27616001832427,0.1873215824170768,-0.9797376319445132,0.2721920928190844,0.8265738951524735
0.2251469366896383,0.7473971869326901,0.4479461109321876,-0.7588831671926195,0.8049066145716834,-0.8671123112884502,0.0679349450955275,-0.7157257524130847,-0.976586778538192,-0.155931479744722,-0.4099185846916875,-0.0279990124047939,0.1543997734691016,-0.9125218553821052,-0.7539934097525087,0.1172847929008507,-0.3136652936546835,0.458346975098896,0.3045832971838793,0.6912087259798136,0.3849856533384506,-0.1401378452197037,0.3459332447888648,-0.4492376514891629,-0.3873730024435746,0.5779703198415866,-0.1071609671968356,0.596760681036705,0.6448447473365568,0.7151246753225675,0.8332704716824146,-0.1380295589734075,-0.3622663633577223,0.1643974931882277,-0.2576551531247448,0.20173697763187895,0.409638100209009,0.37459594472821756,-0.2520761838187,-0.667733792819703,-0.14054529789352607,-0.7162311886848995,0.7794049715293927,-0.310269512175558,-0.6935600978294567,-0.950661403569586,0.29118842280537616,0.27373384034973697,-0.3188167721634826,-0.8567129741174138,-0.18083468575866352,-0.3775650098732128,0.3542412794700187,0.2115584989053807,-0.27081254360492,-0.5642148914900198,0.9760719323111836,-0.0919967576077702,0.3765484715604741,-0.7188940648432784,-0.028820703480895694,-0.9449399465429476,0.010848221455544435,0.9275553662614696,-0.2347787406998016,-0.9266587946825083,-0.9457966003524599,-0.23148466639273804,-0.6923436387697361,-0.9727237660168518,0.4894247207348494,-0.10409263867934607,-0.443733733209445,0.785183422839936,-0.7745784615922566,0.9092941175255415,-0.3732310389809831,0.7765948785885983,0.20578421587106946,0.6534138640886745,0.9680253824144538,-0.4231891243625085,0.922270970815186,-0.2210362101951593,-0.2289761905261553,-0.3192257914909886,0.0828152146951703,-0.6917099136430258,0.10742296008157116,0.08320702069597,0.5230017611722713,0.6653880516464836,-0.1266904686177954,-0.40519592550066963,-0.49742945347700773,-0.635290856691373,-0.9199485234663198,-0.3617490419877488,-0.5139924825588419,0.883474842286187,0.07333140599302242,-0.3301191369231201,0.15028948476498133,-0.7296992239732729,-0.11902377987381114,0.2496117436561301,-0.02280686144696161,-0.19645706053845483,0.9876891508426127,0.760629524297854,0.2468119163188802,0.1387547223645655,0.2413209596491681,-0.5973757843551335,-0.2097245134713627,-0.9210704525499026,-0.049127780440232804,0.08562703504884821,-0.5453909447420049,0.9262600493622722,0.8123803610181043,0.42989677752725713,0.03796783385612634,0.6851033343889383,-0.8261056661454805,0.4552791166645004,-0.8930081721840364,0.4596144456235595,-0.5538327705665476,0.6770589023443543,0.8198756811132614,-0.7662392435143568,-0.11884887160346144,0.9461118374078477,-0.03991557116774046,0.725177989676125,0.1766661487551798,-0.24947939967154759,-0.4284328889482596,-0.5935538178278255,0.5235963827553944,-0.2269189863539442,0.022231326679450186,-0.01510108421002459,0.15601063833385487,0.7335817366876902,0.9629775749284706,-0.18589410849117416,0.6454581284625922,0.5008897598586075,0.0746368693800584,0.78031567407054,-0.7990821453988399,-1.0395279768027874,0.4370011370093837,-0.39598180484649975,0.4257674721501044,0.5226486619718725,-1.1166815870597975,0.5844249667473844,-0.22016961275343622,-0.03499656405085866,0.22627594911673535,0.8361537146307785,-0.9722015924244344,-0.04904312853326197,0.3746821981255526,0.44541122739178163,0.3850648630742159,-0.7311297411837563,-0.40130670159658277,-0.28169815533010406,0.6118371702821306,-0.4392981255631632,-0.5817074114279094,0.904318270340765,-1.020797371354578,0.8900437313567425,0.14937894154077216,0.348187311122299,-0.8249743557990794,-1.4529910293342874,-0.030840652511193296,0.14299126711125026,-0.05804331103214999,-1.2627357600259406,0.014021499188418824,0.1858728816784769,0.11845308178192834,0.4244743862813284,0.6300250560040638,0.18165562251805106,-0.8527647146396141,-0.03629944376565533,-0.8467104610888049,-0.186635807908458,-0.18589118890902337,-0.8683777453255455,-0.30351325375780597,-0.780187954382364,0.6120030829838774,0.8819821679938271,-0.8868613751735437,0.8393330595334023,-0.1180804740981281,-0.7194912377662103,-1.3286545167953154,-0.625670482637799,-0.12231844113196486,-0.34435208323284705,-1.6692246642505024,-1.6460546100571423,-1.0365877614285435,-1.2594186009736317,-1.2952235512906505,-0.9949574026667081,0.2734416406557345,0.6695012509409213,-0.30885585887173717,0.733650746245249,-0.3989427303524332,-0.06506466647297028,-0.5540692385868893,0.27936859532557173,0.9575389127408229,0.20543898288024098,-0.2885526440433734,0.28578230945847477,-0.7768648951267664,0.7283016164897704,-0.09243753329406759,-0.2980173705626013,-0.19525273678301697,-0.321310974991124,-1.637713474314834,-0.5490207504272949,-1.445363325943799,-0.43181662571120266,-0.12888141655574967,-0.16551397231354753,-0.7605627713627778,-0.8927082852881159,-1.5912112809616887,-0.13053836609733915,-0.9244453134560132,-0.3047670193833183,-0.607690547762146,-0.8300091187743465,0.20890187478508243,-0.912498363966681,0.49135613274513396,-0.36644308212894405,-0.9997993199903666,0.02058895591746202,-0.9108807632289311,-0.46042218096815374,0.3813934041191721,-0.9499517166142772,0.5203026638042798,-1.305874355626813,-1.0277170754536074,-0.2736261571479001,-1.3064571240959875,-1.7496740326716167,-1.1135584272090429,-1.128412682407738,0.13295051295365884,-0.9552341230272884,-0.15463238776789212,-0.0659412500259348,-0.9828250776072975,0.11869174417011036,-0.764975628036088,0.5814267042671251,-1.0193444702237955,0.2815466903441186,-0.0533359650770511,-0.23577711200231571,0.26161670416725114,0.40731303311908074,-0.9912734606993818,-0.6666386730984281,0.42333697427896033,0.3204960082149888,0.8959745597390385,0.4361823672224427,0.7210124557488632,0.0546221365592502,-0.9759669173067387,-1.5877263136062614,-0.33718309578493594,-0.5063849091951336,-1.4836815731489623,-0.6691113043794202,0.5945780998314054,-0.43197770014717085,-0.7648903460956696,-0.8891556602096417,-1.4099470284187625,-0.9650367727899974,-0.7880656325002325,-1.2339309005942756,0.35160093220451977,-0.24573728399661257,0.6240632281434404,0.6980258090957734,-0.5763724143501648,0.3147069643402571,-0.0554363916740365,0.7601167720900012,-0.5716313180807736,0.3428129706168994,0.17962170282188009,-0.5017746757592546,-0.9207364701488042,-0.06927817105314679,-0.11607386570968294,-1.1555292071445313,-0.4811065491477817,-0.7904941468208307,0.06949846400702013,-0.8362743847249953,0.5353361538444887,-0.8581535353749411,-0.9281939432232205,-1.7365888127722713,-1.6261680421913294,-0.6708161324388304,-0.951245504306201,0.3774263966308832,-1.1305986524338452,-0.31604332045965805,-0.35094080690608886,-0.9639632901618027,-0.7517488986378246,-0.17284440854235056,-0.0142708311051067,-0.1918240781272624,0.060075475511169686,0.18120542213004565,-1.013135188777391,-0.16732394643432388,0.712593715651283,-0.36740734814852194,-0.27183961307121646,-1.1365631742514133,-0.104008332871449,0.10474085056813619,-0.23088063145985513,0.7273480775704372,-1.0937331795440148,-1.531250045509416,-0.26789946995050473,-0.3160525431872771,-1.621303236013343,-1.1230573455213575,-1.3824127432092486,-0.6597816275109886,0.4028836424757836,-0.05079550634383451,-0.3422771642703527,-0.26241940627094573,-0.9989768224560741,-0.4008438307425189,0.292917483275861,0.947667631551458,0.6927924816852136,-0.9592132145787345,0.7623984566837103,0.46424085076659,0.3298008001756945,-0.514291817480679,-0.8269442455068827,-1.0934583667394713,-1.450026649088849,-0.9559335863373679,-0.8269014547520375,-0.4006791589211728,-0.0455854086180737,-0.8052177086368898,-1.8243698883724173,-0.04465791388456202,0.08407269570585581,0.028101528423266558,0.6554235944883668,-0.12612364452093602,0.7798685703031937,-0.9471485789610412,-0.315709295402137,-0.5572035468097121,-0.6090899825011278,-0.7183941022146478,0.2448272831319933,0.562301597058185,0.15577501978712033,-0.7122094621719095,0.5898792579780572,0.16320587626536004,-0.4641291340706028,-0.07073285770334946,-1.0605092114575436,-0.917947640304198,0.3005752039668512,-0.8786551224005386,-0.5334541633038964,0.18164497883404396,-0.3300463489404013,-1.779269291283274,-1.6833534212869683,-1.9065044318960327,-0.43744888876761584,-0.5510078393202203,-1.0138452292617037,0.7071451334538879,-0.09363658236461292,-0.6187879732366058,-0.04566044002326184,0.35056080635279924,-0.8481754031704822,-0.450592369904216,0.6139309817679872,-0.08068722354689707,0.09263404392986621,-0.14083640031853192,-0.9409681501929096,-0.7833630055547265,-0.3412261155189966,-0.9516855896169877,-1.3994242400757817,0.1500046829159231,0.44917062615070874,0.07032713385230117,0.10349038419667547,-1.2547967650994545,0.08654778498021627,-1.5534469832172098,-0.05889292862537228,0.13080642191729608,-0.17181513464816198,0.5960211183376379,-0.1321920588889403,-0.6964735674333288,-0.2888791115126925,0.07647891193417869,-0.9037073099809639,0.23347260121624408,0.9600635991592914,-0.6197871678286567,0.5851902325767666,0.8157975875592387,0.8873996529145529,0.916991911738002,0.01767404539516799,0.8467122491094868,0.3088784207392376,-0.9809076803122287,-0.4431965920843493,-0.019784347459410455,-0.9950468045306956,-0.2606369335655508,-0.316408153275952,-1.4116891291431608,-0.6967329049680735,-0.3519884662494542,-0.9190467004064151,-1.7582589359145788,-1.5115168653799598,-0.6281547007888291,0.5789716983378063,-0.7655077563568694,0.10523437455955378,-0.6657731066862975,-0.40947286111075215,0.6829150715313219,0.4552722367699391,-0.8092059689331302,-0.1425959580271327,-0.9416604727094712,-0.038086986661807425,0.324558037328426,-0.7803559642035384,-0.5158411845464614,-0.3741893851016999,0.5977122393320784,0.6765199388101422,-1.2903293894253192,0.09288348707470033,-0.7692496679437835,-0.809906320561781,-0.16112570731252235,0.07916845801957002,0.09716110537764665,-0.6555109308516651,-0.9593365804599147,0.1103181799478534,-0.8231737699831944,-0.15241811222046342,-0.4966198224329682,0.15716201845510433,-0.6182415380233104,-0.668337664958858,0.8212132724199588,-0.7990558444137486,0.01135793520257856,-0.5582944340739822,-0.9221400733486652,-0.9280511516818849,-0.6481162937087963,0.7234874324801914,-0.5077747718540097,0.7613712475511833,-0.04399102975789992,-0.3895827351650863,-0.16851871913287078,-0.3635245554394287,0.04967970303709626,-0.9935451398924355,-0.9454122094861559,0.06913668192684569,0.14817003329471387,0.07962908334453385,-0.7590120763141935,0.10321037026345373,-0.3866465777900599,-0.272665595318286,-0.7879264432065234,0.05317988767565238,-0.7021760751466577,-0.3718437722029176,0.7030205637026974,-0.5866305474135408,-0.8581223542010098,-0.8619848147743674,0.8815690410062158,0.013483805219616804,-0.18051423068124428,0.6164663451881408,0.6200208663724032,-0.4607704091292131,0.18494373790809665,0.2747993472790444,-0.022099679675026525,-1.097427621441865,0.2869821896662227,-0.5045850642016086,-1.1216575648237022,-0.8821935454268002,-1.6207493673288533,-1.386291300692146,-0.029560748091200958,-1.4603495507575455,-0.5068025017606749,-0.18764424530638432,-1.0445866837071076,0.8569828008072066,-0.6004274754247405,-0.41213441128607264,-0.39535183010535624,-0.539176143537549,-0.9972182469185171,0.4586895881759927,0.9336909995985708,-0.5511915087516482,0.3267177349090298,0.48362318834245516,0.6663762597158437,-0.2575504221634347,-0.5736855577620636,-0.6163644803546556,0.07961243889562701,0.21373344628936666,-1.1468136821949384,-0.881424196399956,0.11329363631843885,-0.07199018206025348,0.34611558400026826,-0.08398446011878431,-0.7507788545935056,-0.2539746562016519,0.013196561077560837,-1.0309712908625779,-0.019440663930272845,0.3588542303109138,-0.6979094816414182,0.5513871841644988,0.1665557728622493,0.904432446963446,-0.9151554035862166,-0.469347724889066,0.2031077585996481,-0.40658297221484346,0.4303162845304431,0.5235226665944257,-0.8109722571849783,-0.042482070454235805,-0.12772624198825044,-0.4972243582022996,0.5260570697673639,0.22193161405740625,-0.15471471294989628,-0.20605960924421268,-0.739252378452591,0.21809263037111767,-0.19205618209699207,-0.08841787005328741,0.2569971146270213,-0.7988637318523745,0.37955757019605146,-0.7423354272474992,-0.3801501237024568,-0.3666058743055765,0.9423707486361342,0.709951347708235,0.40176706127934575,0.4540566367977383,0.1241455888051421,0.8941813342170382,-0.0074824942352769,-0.23853054477136612,-0.6721792721020946,0.5791773149117114,0.46461634782463035,-0.27215876637673075,-1.0551738494989886,0.4797191224445095,-1.2960765988669845,-0.037953575372531564,0.37005057902016764,-0.7589192517921629,-1.166068260154961,-0.16154270147356561,0.11200743026795476,-0.3727173917738042,0.5712556809862103,-1.1606623965922829,-0.15514079897966807,0.34675679969408535,0.6727876117645667,-0.6656454431840784,0.5932819639641066,0.10310006491911285,-0.20796872303501665,-0.7366144323122292,0.7305915178178248,-0.6854535836405693,-0.3804242815818015,-0.41965489659058114,0.74434567053292,0.34794217069924743,0.5929682455506593,-0.5209625307696948,0.17802849383228378,-0.019198305883693388,0.39203087405860276,0.41125761539892947,-1.492974145048897,-0.2041136424953921,-1.4430511629533604,-0.3947953691129668,-0.8679131375994958,-0.7564289990782168,-0.5793385291923225,0.04798061346538345,-0.45643017993392654,0.3933934077976522,-0.22538751018333372,-0.8777235688911946,0.5642520813175238,-0.42926777339333577,-0.1345446391563222,0.3707482363975979,-0.3350876857025759,-0.8868286877065688,-0.2521579059743728,0.8888971653886069,0.28447947884029534,0.34347578746042384,0.2617051471052021,-0.6191507342121934,-0.2187418863682071,0.38757129570243215,-1.0005373451724255,-0.7409695880463677,-0.7919395644903587,-0.4918483752135343,0.6084650157235807,-1.201216123555723,-0.25596088092651026,-0.8928063541366708,0.748262014454733,-0.9060930329588464,-0.2763408196459207,0.422600828994634,0.38546733723702725,-0.16536092618482273,-0.31029297644675624,-0.2053095810738205,-0.4714474736827214,-0.5893341225864004,-0.03392060488222,-0.4629324878647853,-0.4250766702054998,0.3135121269491141,0.9371292346659209,0.20744440640487433,-0.8526994245142133,-0.8657941290906523,0.8591127858231903,-0.49825166231169665,-0.9635939456483761,0.007367439155381054,0.05825196679206308,0.1146284233874079,-0.6588962450471281,-1.1596662475456556,0.7649690605099171,-0.6410496048818443,0.24916073113258383,0.355599415653447,0.18690747040853922,-0.39940246405438734,-0.4697058733197057,0.1893878470792401,0.7288752138894697,0.8930393156534373,-0.7881883911924847,-0.6903427748045603,0.8894725175661593,0.4730704566695851,0.7659876496595461,-0.5947347317293137,0.17515160560933163,0.4019627967823908,0.3576231548278727,-0.1956652054821098,-0.9955163329368231,0.11502656064602541,-0.5601566157435087,-0.1761320918850617,0.8387015035922001,-0.27693352995767934,0.6021388391276171,-0.7045997977156756,0.2755038415784101,0.8964677349870923,-0.8363441963246349,-1.0029496925516954,-0.14034079069084415,-0.8191754235105904,0.49411544052794204,0.8279251425098892,-0.1324163436319917,-0.4825767156891181,-0.1311933619867804,0.446895635700002,-0.981891676839258,0.1789079789693943,0.2265833697747581,0.275376493791871,-0.5159558400382456,0.4281054467562535,-0.8172950953048959,-0.601626768586667,0.7530255864406658,0.47521101304361296,-0.9751618278257368,-0.5076658233963437,-0.5764638856518396,-0.4676204553533828,-0.5140530537672615,-0.8831287586573757,-0.08846331997514555,0.4597830685972363,0.21056185886112555,0.3433358794260061,-0.8388355226938138,0.9027659198084247,0.676942351555257,0.6101436200292655,0.645967610083535,0.8654210162655227,0.0885079322273953,-0.5994359642647482,0.2335672157050823
0.4857629873358779,0.4758347867080508,0.0428980483337602,-0.8630825613328439,-0.2577741231397443,0.8415332169267147,0.168897819514852,0.0766638865114268,-0.4622929712356129,-0.2631021601668422,0.7906921783063385,0.3329260950536714,0.5747740535046657,-0.0913091538646897,0.2604944389123158,-0.5032327825135849,0.4109216605669725,-0.1447973325933254,-0.1149089703705088,0.2986446491537633,0.8725612429378533,-0.8719873067827582,0.6494864746940152,-0.4152337791756137,-0.1121610909872443,-0.956173342449982,-0.3979078443313739,0.0052624852602609,-0.887647845305122,-0.0178085412336697,0.8542212577168546,-0.7892135637843896,0.5288814561510087,-0.1806578932480147,0.310347429048676,-0.479526804928501,-0.6810154778943648,-0.6790747754184238,-0.8590162222936157,-0.6287072858542274,0.32843608978317174,0.7632459291859501,0.62792713701531,0.37017780375814696,-0.7792942123004158,-0.4216552995202825,-0.38043356831048875,-0.5005661495149235,0.029431717192992535,0.07076514427425924,-0.2864404394569711,-0.2924216825271279,0.6571111958121627,0.5785856966393712,-0.3844083366385087,0.8275768877465186,0.905630034005012,-0.3465149159399183,-0.2911501024138903,0.0112683068439176,0.8820481243895537,0.7526188488857798,-0.7948640752378076,-0.21458409800466632,0.10650267465520835,0.004110432425760093,-0.6158172933339893,0.7126328395596175,0.3450684213493099,0.6624669831013482,0.6955847589038004,0.469414132628245,-0.15300680284583174,0.1893686585062852,-0.7073759317613935,0.3256668439570856,-0.6526872221791509,0.3823345047469979,-0.5418659034702782,-0.7650534672183943,-0.6695238703507688,-0.9960157295618596,0.4374792357070605,0.4648020981167582,0.0298666998265189,-0.6772743978892326,-0.8328913249786205,-0.961742067125426,-0.6685236633810495,0.7816551285221448,-0.5178357225562814,-0.293990124305591,-0.7955776827447908,-0.5669786846534451,0.01760662833740852,0.18497059357680967,-0.5490679334496744,-0.9344204020450129,-0.2804786747890499,-0.607009154503718,-0.6501351868077264,0.826162217049661,0.15873717183037273,0.061621736590204645,-0.1936320943274,-0.15228001063700217,0.07555122754355607,0.39003240681974305,0.40276031570616755,-0.6566121845891009,0.0002255041532539,-0.176083809931796,0.7410539325387684,0.2628378424367528,0.0650081328319636,-0.7693028843813837,0.21088115180360978,-0.7664310936486978,-0.32880816888774156,-0.7210912607809379,0.3665420379500485,-0.6276682816235738,-0.2856999478854622,0.6781920465486679,-0.7632049457242819,-0.23469953043590236,-0.4857201564003508,-1.3296712843163647,0.22290161180750867,-1.1988970646914985,-0.3289887511727687,-0.07458113111774699,0.15503601871871703,0.33301976189723237,-0.5194483226286633,-0.9944254170584715,0.44036340456559453,0.06993227870040415,0.6722354064144975,0.6427767258013886,0.6866523355757663,-0.0298106800409196,-0.33274329376312134,0.581611958903209,-0.09982328542867262,-0.638858897842484,0.6973620426985787,0.7418237553871795,-0.1188876111563218,-0.9468725846392009,-0.3763518500484807,0.37211640712206406,0.4491290572809587,-1.1033616173000833,-1.521266239432925,0.01614638704884216,-0.9385071506579018,-0.5565033445196167,0.3960112238498554,-1.2532192233983677,0.08863954855617617,-0.955974057349721,-0.3044478227305222,0.5694007940335993,-0.1532652687312209,0.988740999559055,0.11749387738479275,-0.35768441664280615,-0.5597773481904937,-0.2989589314276764,-0.2549587928998506,-0.8631235210946518,-0.26459153771553623,-0.08219204363060982,0.41734157159574553,0.2548065916007555,0.31808545787035253,-1.1386467555137751,-0.8026038242513731,-0.041763925748102594,-0.5516343872958988,-1.702974654637256,-0.2917309987993501,-0.4034091245967246,-0.770366420983399,-1.6236568508632516,-0.10716169732819356,-0.32217467419485113,0.26453521765453536,0.32841626964672277,0.49304213335991615,-0.03329826055992614,-0.765169484905716,0.3225275841441792,0.23736990300499702,0.48372077893750226,-0.660238993512367,-0.6100545113195405,0.7803808432245288,0.49599848711490513,0.8054945080802879,0.4892874318042815,0.12918259995312584,0.1981504779460282,0.6135566765193898,-0.09360788300317406,-0.08616588318393763,-1.1676954891723936,-0.7103619333557497,-0.4542346736941235,-1.5032684415395166,-1.6507927043856814,-1.3266911556760324,-1.3231856369218276,-1.2346552159255746,-0.6892482386485688,0.4328998503304852,-0.2422037461793763,-0.801613584907418,-0.9524713755288376,0.3271837047830276,-0.2666897773647488,0.6391985166729365,0.31863288627952696,0.5924788144392885,-0.4561209885326089,0.3842159572728874,-0.4790889558446358,0.8580837002650424,0.21405971037807373,-0.45108275583054197,-0.6168965975966956,-0.8625089649468416,0.04524554794165284,-1.0285705806148877,-0.4222212166487009,-1.2690848267220913,-0.6511415128113274,-0.4684667919106836,-0.5377424901248751,-0.4427163800321662,-1.452918237365683,-1.5256917745649998,-0.1758642466376403,-0.7021419791834885,-0.4701908088064554,-1.1538975075968445,-0.5984675749835908,-0.9978090048421046,0.7281428248249628,-0.515438903788023,0.11448662492935822,-0.9220420219549522,0.3324005505446112,-0.3569027446267929,0.7877794521847454,0.7511708007397878,-0.4198604431076145,0.6856426691116014,0.8045226641217144,0.36089948747101674,0.2921982206133345,-1.0174630116408934,-0.5138557928055352,-1.6654922263748753,-1.7376316189180625,-0.022675630742900448,-1.3444284718256458,-0.4005122224731699,-0.1656401804937616,0.058615219759783545,0.4489565537124111,-0.9648518075120099,-1.2555905915168346,-0.38887747255450006,-0.8471187538285563,-1.0085461789417978,-0.29592975521746445,0.5649090304013744,0.13225114068733473,-0.3744440215792919,0.3067978628864361,-0.5388979352024904,-0.9773025432126394,0.5059788284228377,0.18529928994117478,0.41323974298499044,-1.1071575452720717,0.38200114819592945,-0.1456272638214898,-0.3802707241408082,-0.38586006895935393,0.011793899777320859,-0.6339849220745476,-0.7022895600048771,0.1176551660812183,-0.26198279094173205,-0.7695113755479078,-0.14027285190570699,-0.6976313824438,-0.9427985007204925,-0.10192071421816268,0.6686457941062308,0.7617038359870988,-0.3498706120714206,0.045607288861879015,-0.5784511648576431,0.9912622189977668,0.9622358157358716,0.29744331778387223,0.6079191108521396,0.4253351532725237,0.16792532925773213,-0.946709270038561,-0.19168720732984834,0.17369425658602955,0.08967466945148252,-0.6159747771439238,0.40061265471874263,-1.2298805089736993,-0.6396985587853228,-0.3435895126955271,-0.40355439661044984,-0.5109621303859214,-1.131143985939242,-1.2210115329398712,-0.1760677945944382,-0.21552838735599708,-1.0001613694318812,0.13849602210782438,-0.26050841069542124,0.251366432113192,0.6441093936754532,-0.6660910164216752,-0.9632889696041534,0.5582025301725725,0.2193948503052318,0.3985982088087158,0.6757798461507615,0.6020923303018213,0.9107602673918662,0.026590396980398397,-0.11397366328296274,-0.34798193737507166,-0.9427482478773613,-0.20486474828012533,-0.9047040440075345,0.29762463257121907,-0.4531333778276197,-0.5551940481907234,-1.1428564811784963,-1.751122251551793,-1.6212319920234257,-0.6569120820119309,-1.2374970004350356,-0.15251748175096694,0.4344413337011546,0.5121882502726767,0.15214986385096294,-0.6636752693228479,0.6966729856364958,0.7689520414405733,-0.6078018280940216,0.47484311113335625,-0.4269609021457541,0.6063115218837987,0.9948767197165014,-0.9408806699572689,0.7856809462094341,0.19886541312876413,0.8708627126625345,-0.2016830020878294,0.467101217619246,-1.2071411492931967,-0.7554372920311485,-1.381840234572153,0.34311036668731,-0.19425225548708347,-0.24057185386273744,-0.032406839700928336,-1.515673943370603,-0.7434625095289521,-1.2561802846436663,-0.9122266062633768,-0.8216097384179537,-0.29134658315153833,-0.6265628625933736,-0.8851816371346798,-0.6903191160968227,-0.7072854091419338,0.9459028175836621,0.5185850138369472,0.935522930539124,-0.11993785493254629,-0.44208557753747313,0.5983976954967598,-0.3561534937050332,-0.45050485491417663,-0.6001343022440978,-0.8613220247173751,-0.6886318587610031,-0.58671719263055,-0.017763704085878965,-1.3089816567053536,-1.1696455261067642,-0.251739273460853,-1.6658054964832814,-1.1939195934962534,0.06997233448145729,-1.2223693542840357,-1.259424923046037,-0.35775586385837016,-0.6520234866338199,-0.08412611471817003,0.46138191690516417,-0.8064929956371477,0.1373030615572873,0.008734416608109868,-0.7122350365665515,0.2479969710579648,-0.4527191642784567,-0.024302544463133593,-0.8345715856814078,-0.07813339167674425,-0.3943219050434768,0.5897106441455128,-0.9595031475852138,-0.28611099142840307,-0.2763453893201551,0.16894204256445122,-0.17027429038586056,-0.03852585778003054,-0.011651503134828635,-0.08628064897810998,-1.255078240318914,-0.7042088817010893,0.08426029702157088,0.4423819138101702,0.3297170023448864,-0.6179054955978552,-0.8813351418737113,-0.22985526709762988,0.34566415713332166,-0.09480384399133727,-0.0631407728463488,0.6718784145868929,-0.27891318100595647,0.7195908021746608,-0.1863903980965529,-0.3435337886433212,-0.09305550613054094,0.5228150147465969,-0.7640883623644145,-0.6822268282242082,0.7773126196777068,-0.8176852561209015,-0.07764093585690957,-0.10472089667775106,-0.31012716704399745,-0.09943658261246192,-1.0857163838954373,-0.6139747258812032,-1.03407910398591,-0.37145976094108674,-1.2705940519827321,-0.36674040679284625,-1.1116503266534123,-0.8670374568931414,-0.880742968532706,-0.8412697323938866,0.5246601380990049,-0.5010540546348032,0.8233960650874677,0.9311164227250907,0.1408003110419807,-0.7139950916577031,-0.2509035132408375,0.595464526696428,-0.2669586262642083,-0.8306038539428033,0.08043329568280413,0.5802662182910652,0.40332551034968755,-0.8828345291136811,0.06814702568968092,-0.8704828913051318,-0.9189886452291202,0.2979352579290377,-1.036241043585812,-1.1160082265473896,-1.690868741269079,0.07971977578889534,-0.0015900263433147462,-0.2889001974782885,-0.040296084915694676,-1.1822789262563649,-0.4383896970055243,-0.5024904300666525,-0.9290867388959877,-0.08976066797915995,0.8048155642098851,-0.9343981790554323,-0.4217384455525674,-0.585019822868243,-0.5237066926686074,0.8168691037587505,-0.06457371656019001,-0.07482853437785156,0.47081453629257053,-0.8338460095817832,-0.2700585682504183,-0.46584994923946754,-0.174391531159458,0.5811310647210887,0.050503346790680394,-0.7310853533345222,0.0848701332933709,-1.3070992732425457,-1.6460045338672589,-1.2989862003589707,-0.980315919650075,-0.6176254407194219,-0.3865473103098968,0.30697445432976644,-0.3123036319503673,-0.17314689784560236,-0.9978928148598909,-0.9844456327294643,0.06897726433851974,-0.13556136774990438,0.675861578801693,-0.6797933774606311,-0.9500566757659008,-0.1019224641397482,-0.5254747168634408,-0.9100576916100825,0.39273730176289157,-0.9431946659432336,-0.09333906935106084,-0.8556065821224598,-1.1292796210984533,-0.7697508578016125,-0.0017217361152191578,-0.8377202984622856,-0.16211172605114854,-1.4870420546174914,-0.2623996858487717,-1.331337272855045,-0.3916840757313087,-0.5695417896302089,0.23796275034075576,-0.6741180904980107,-1.1209839402245867,-1.0890671798378393,0.5821290087284337,0.011258089886549713,0.5303317380088867,-0.5359081978436387,-0.309964823209065,-0.940532465697508,0.9229846491482244,0.3357358134016268,0.8659550282592692,-0.4779045325147416,0.17110552037506307,0.20019301865371789,-0.6881087549541842,0.21391513222593256,0.3176194558930126,0.10880148989232441,-0.2263900312051401,-1.1683079253842146,-1.2199964132382135,0.040968093252226556,-1.9294087486492466,-0.48471245962455667,-0.3978629470025596,-0.43007274221664454,0.47521854444024425,-0.6951720724655536,-0.4850235517340431,-0.9209843853515235,-0.15898613529544384,-0.5038981723619766,-0.3263186289814322,0.6670681457971033,0.8702908523446903,-0.6285338559896287,-0.2549821368930682,0.8572611242307882,-0.8770278994270012,-0.820957545809657,-0.7110705582994108,0.0675836409377161,-0.9778720251178289,0.4685833759059531,-0.7265646689500982,-0.7328710058801672,-1.3059640308782237,-0.911808436560682,-0.6083469364416081,-0.5229621120848409,-0.5217450231975617,-0.7648337877627266,0.07451959256076289,0.12290975468259929,0.18711094465175207,-1.0684364227582406,-1.0756218741820518,-0.6213672348037378,0.29961394281738246,-0.19521151494784109,-0.2040761778367444,0.7669433474577925,0.7891202752513558,0.8183505281071715,-0.3722438469699454,0.3821116254785235,-0.45692576389635775,-0.6221506997730089,-0.647977137737016,-0.3868579543709269,-0.32305122433755,0.3149228443155108,-1.2940279224227231,-0.2162534053847209,-0.73527678060774,-1.2971821966467143,-0.9500015630162255,-1.3620380245475765,-0.7056708221034759,-0.856197893843945,-1.176713336739777,-1.052555216690805,-0.0685461933320928,0.7242825956419715,-0.355999749073208,0.4366758932866425,0.3003467058453075,0.856706852408505,0.638044458463242,0.13144756290859969,0.31310634131484427,0.7967729331680697,-0.2009624308261304,-0.3464105882844452,-0.9783778650244871,0.6527965905713146,0.595606603734235,-0.8176718340486222,0.0695625942512963,-0.2538428507049898,-1.0952283225063657,0.4666811852373356,-1.1839320761906873,-1.5608003284614316,-0.5416766970654276,-0.22461170830555421,-1.5407212588170411,-0.1265985263607178,-0.21938390164476454,-0.927523273360862,-0.7159807173339632,0.10679365745273053,-0.42526380545853376,0.862722873266311,0.6316008201827779,0.9673180339156268,-0.48068860703151445,0.9394469157878225,-0.13754414270277238,-0.3049624093724907,-0.8993009460612935,-0.8944694842807948,0.3840225118933094,-0.0844004757221253,-0.5493390793439371,0.22063242137006928,-0.521448498142542,0.09021743288377748,-0.4000171786605294,0.45835129178368983,0.3892288450310569,-0.3408940673476784,-0.5966764389365213,-0.5607465319018489,0.36811768216350615,-0.5260298827282811,-0.704145328102212,-0.8976729440358958,-0.10048178571290323,-0.0546755957705881,0.6637916477486221,-0.5661656148091504,-0.23919697309296886,0.6174384228017034,0.6472782325960078,-0.2307778480424636,-0.0817519534266382,-0.3934282183014341,0.8651097568386241,-0.7627124685168394,0.86749884600294,0.36773289483007027,0.06311096428323851,-0.9350827253972304,-0.05341094040271127,-0.19841232249651802,-0.7093117524015589,0.2554970439747722,0.8525927745332902,0.01852453867587261,0.32634032549263087,-0.9644106219272014,-0.266919957821368,-0.8545224424772209,0.15230654539385227,0.8154467729685642,0.2756412078677876,-0.8753777159773747,-0.3099603135628393,0.09269927492802232,-0.1969343479108302,0.6669064324176983,0.6292815005691195,0.2236620402064428,-0.2530841097345895,-0.4893272524735117,-0.7882513635737414,-0.2902046330268919,-0.1736549655845609,0.35164584572690516,0.31631956421602075,-0.859945463931127,-0.21278418464731644,-0.6452586021916339,-0.7053256235715636,0.6216013934983041,-0.967584958501586,-0.21620980354742125,-0.7165343609869645,0.7065653513154827,0.05770497711280218,-0.5904038908052439,-0.036630527009706454,0.43304660860507627,0.8933324980337438,-0.5750271333733399,0.7592541820442472,0.8611209452565856,0.8291735352468443,0.26969895850172065,0.2596413088694154,-0.1935787336323544,0.5047957646075758,0.0625880367018638,0.3548761424565889,-0.1430841923024091,0.4629929280862781,0.6489430352090981,-0.7071274867943678,0.6648389208660973,0.0782153628184914,0.6863590851390922,-0.139706230984838,-0.24405926192868735,0.8262172910507569,-0.5010951682145804,0.6832111011614107,-0.038368691250393105,0.02091164824828294,-0.387998613641235,0.14358890950133082,-0.3506016473297108,-0.9234062195430712,-0.4583035758074197,-0.9886400084696773,0.9562281680318022,0.931119533267358,-0.2096894050553899,0.456741708679292,-0.30838780317915,0.3421863141719521,0.6108600860919582
0.8935124893844815,-0.199575448300656,0.5665959659120954,-0.4681430987357624,0.9806646075872968,-0.9484608024712976,0.2070576130022419,0.3190119633026542,0.3760911141482577,-0.759224842421822,0.8770595669462609,-0.6376334418998344,0.2455068064796821,-0.5546478417538301,-0.3855671659574582,0.0929170834562487,-0.165613162870847,-0.6795487980469874,-0.6581271951583034,-0.1637104236744007,0.5145659565510015,0.7959292936955771,-0.8317446754812343,-0.2137921848811979,-0.7995088725542467,-0.9668150387348042,0.3234373652879132,0.2048988839331755,-0.6739617723702276,-0.5323743338138718,-0.9525844927109632,0.6698944113888075,0.9493811920971028,-0.7290809264106184,-0.5370495724694038,0.7365457022308941,0.852154081795558,-0.1616408399056036,-0.8991247189794642,-0.922279314794599,0.1462433309870547,-0.2163645214939179,-0.9445194886032323,0.16422116227611394,-0.977722576608668,0.5743321373018596,-0.38837412187982123,-0.9198642919294051,0.17654596601545613,-0.20483373459548107,0.9474766810925281,0.0883973250074043,-0.4495216379259834,0.4188777292679495,-0.4570159949145773,0.8084865828151302,-0.2505560589852471,0.0997371255524104,-0.8988537923515423,-0.1477575240955384,0.6646851565524446,0.6112345813781506,-0.5516350021134632,-0.5486168216306684,0.6316152979726916,0.8549285681568775,-0.8179302433026064,-0.11122340189548663,-0.34063621512184084,0.7201290384759992,-0.8632750838551948,-0.6186128968774214,0.44725305806056315,-0.9590534834004972,-0.06310743868184929,-0.13691798539274366,-0.33646726883445105,-0.2125240180399041,0.05958423066738267,-0.6773258158864893,0.14386928407145266,0.6108646585999726,0.5203218595803181,-0.6922001906124526,-0.7015010605170522,-0.4636512645101733,-0.2778505473179256,-0.1830888371830348,0.3593900968284611,-0.887764839785341,-0.9341180747782732,-0.2214939174161787,0.3833797464564945,-0.6342464492933902,0.24528693197735482,-0.53663859078796,0.693305059844173,0.6853648307620576,-0.5332209305255918,-0.6965595815231825,-0.34998993991373845,-0.6707883789937945,0.24819372319983857,0.6115664078735397,0.33566184504951446,0.6457860981532209,-0.20645135416939836,-0.6874714649797178,0.47544166576759117,-0.2790509897168922,0.342541650458265,-0.4587121160364686,-0.8375407303866547,0.9851635909755267,-0.6875969841388014,0.9767711856801267,0.9537548766101671,0.5835579117652728,0.3090987046057516,0.13715739118703027,0.696570466689841,-0.4907369767700962,-0.17571330408650293,0.07106311287627176,-0.40763679850066725,-0.4533678069942733,-0.7185600410731053,-0.3009076175304572,0.2701624731828516,-0.9780325754697496,0.5824785323729978,0.18892233514214624,0.5417015795960776,0.06726543242435618,0.5404939067498429,-0.9721912565845494,0.6342961186104155,-0.9192232855664051,0.779826752725725,0.9839254944772866,-0.4118650756464443,-0.5793628874284127,0.5304663217725932,-0.49465463382350056,0.7274440509852552,-0.8099619486853742,-0.780528326563974,0.9038708704998708,0.25327854157892954,0.5314010900758858,-0.5975246158713305,0.006072514693098496,-0.2540771406333696,-0.36468778530273854,-0.32434137111747774,-0.6015176114230562,-0.8878686746790352,-1.1234141169423169,-0.002795160077107191,-0.9461394467092563,0.14520213950758992,-0.6615306535761549,0.19049703911891355,0.4700343455969564,-0.5673629796357248,-0.8776132326491465,-0.7383340392584674,0.2119970837532894,0.6988928124514711,-0.9100063575291512,0.4680327348629124,-0.3186888846356547,-0.05205432709480553,0.8275550733989474,-0.39466524197933633,-0.17428309144727275,-1.1435555383954696,-1.098999463608419,-0.8674711632189951,-1.461736907207142,-0.39262197996161097,-0.9550188847182429,-0.8329653467055634,-1.6343024394643106,-1.3686131070823615,-0.5559524454220246,0.17380111544405719,-1.4797850155960073,0.42628375369620275,-0.041490680679630944,0.02714961376169638,-0.028770368195515796,-0.8523700371819903,-0.8077478272243723,0.20168573037271242,-0.31922857228012497,0.8344630633521397,-0.1871295156778364,-0.7147109520866722,0.42391184817630306,-0.4329384904824449,0.002048438250420985,0.3050348665158038,0.64361364013107,0.3394393114793169,-0.021825593733811478,-0.15254923507583718,0.2308215301017186,-1.2166230845288806,-1.943152036088507,-1.4640632849322828,-1.598986011656387,-0.7288642059835051,-0.7605955661894169,-0.7354179418651704,-1.7013867405165783,-0.024575836265422445,-0.6346818440171752,0.20044148783564084,0.08768078434074451,-0.29151609979613324,-0.7087561158037091,-0.8084486587077648,0.6625455413763404,0.8364981409202559,0.29914579437402034,-0.7958892749815748,-0.20919635165930336,0.4228186659797638,0.4923054761989713,-0.8920189423410247,-1.219153491994734,0.08867000237299479,-0.7635229073819922,-1.1356700647869244,-1.7730742917511,-0.8275784710457176,-0.2284159848425642,0.012732447823550798,-0.7623150062737385,-0.9591823326703275,-1.8656776888169033,-0.8738023458654817,-1.0420459315932715,-0.37172442020945573,-0.5890374944746917,-0.6997427447162033,-0.8544282898508033,-0.3539669391568908,-0.7871944831572756,-0.6439637513687584,0.9747576574044197,-0.11184108116335252,0.06281680152426766,0.7439810234894744,0.977864249424876,0.13196288693821473,0.5488683417226654,-0.496425289056159,-0.6461357772098644,-0.5778144529763971,-0.19926605732106256,-0.36109496713026956,-1.2091260451654113,-1.5762109919382705,-0.5041438639735862,-1.4442826990868802,-0.5851936527185359,-0.507017827314558,-0.5657654910372385,-0.4220599105941122,-0.07032439225466992,-0.6636423494857019,0.027009914108899944,0.007557524667183362,-0.7069701232128309,-0.9514585336757844,-0.4235796258647431,-0.11190756721664742,0.23422626496217855,0.6999186610064108,-0.6084123265074524,-0.7515399147855342,0.9152024324841106,-0.8191781186156055,-0.1258945704250532,0.02361552496094306,-0.17204755182071352,-1.22775333077542,-1.4588966625799469,-1.5175090908463067,-0.577559660197124,-0.5669581608930027,-1.0730163434646895,-0.2705300095213157,-0.04597314445968176,-1.7793362155471242,-0.9431670089953913,-0.5235823466420609,-1.3336122051126669,-1.0772315661246328,-0.2118275522427827,0.563713735426622,0.5324176080490789,0.1477263698725234,0.4588876680819635,-0.2707965148881011,0.2819310561975154,-0.067636817744886,-0.620438867828562,0.4005512014726283,0.10308917827111906,-0.3125606338139608,0.7459467884250491,-1.1010812707259376,-0.6226265003376393,-1.3034463522231072,-0.054430748302640046,-0.27847370192649457,-0.9729831722710601,-0.16289632580109042,-0.6702585160435615,-0.03937258257532529,-0.8235751038757418,-1.0697756668655825,-0.08539339426083767,-1.4057016417387198,-1.595221576767164,-0.4643979025357703,0.5578834682786044,-0.4511549140144418,-0.9574140697611162,-0.3442579190920305,0.008668941168859185,-0.6761546781038468,0.3162030682276317,0.9954987780204012,-0.09652146359226607,-0.2924386510693802,-0.20430274676285148,-0.7893444471713862,0.6994821517632673,-0.31083312239006866,-0.5026838327126245,-0.13406802411165114,-0.7201524116328007,-0.32445168027928917,-1.4260093436269534,0.18301417729842936,0.3911198563849144,-0.4008798411078589,0.035385006574752645,-1.7339562763801064,-1.065199451544433,-0.71318278557941,-0.6090819597250484,-0.7393917673333495,-0.6701127987138715,-0.9327178941788057,-0.29814706248152245,-0.702132361891448,0.46478180338144254,-0.5827733646518898,-0.8828740793235691,0.1047322756344686,0.19045899018399295,0.7435690920495007,0.14958170568189913,-0.32843904077327946,0.5390984439554604,-0.08272593721914671,-1.1668198308286555,-0.35371413883506425,0.23530276355008223,-0.7802335559232462,-0.925981591404589,-1.2158919665125971,-1.386610517683986,-1.0582354327027006,-0.9116867188147626,-2.0315759509114826,-0.1949144008794323,-0.3767696128124615,-0.5021574302010747,0.1615765631335314,-1.1877637216491026,-0.2400605114815661,0.17083678078465273,0.6240133839839654,0.5611859207654752,-0.4461018985872553,0.8817603391184086,-0.7513083171382593,0.7502670227808756,0.9418404524234212,-0.6498828832436556,0.4261166281607649,-0.9973117805519564,-0.38475737958723544,-0.3374366308738289,-0.36281307179984645,0.2872171950854118,-0.21521950733407777,-0.5779825677671413,-0.034247090452706776,-0.03677187434947762,-2.085356244742506,-0.2858982050332183,-2.0341522888442887,-0.4213629987018487,-1.2792442903221108,-1.3763400168371347,-0.6080976469979733,-0.06619606607735849,-0.44553338354089717,-0.988162281748877,0.16761934317724084,0.7986081077698096,-0.2336262430537189,-0.5673344447383459,-0.1148453081343692,-0.903274588536884,0.6409748428373923,0.6498813547199536,0.157451849439853,-0.38296096049572775,0.36785711891052925,-0.3095604085087572,0.09506368040162724,-0.354802809875101,-0.033714651494677346,-0.4678118611738239,-1.0520137623941972,-0.1990696540434168,-1.1731977586822604,-1.0587267080391265,-1.6671056509658975,-0.6930823877763842,-0.6135717963129114,-1.2439729685794156,-1.3678380905955587,-0.13823990606858388,0.3178640808433506,-0.046770809873264665,-0.5780698154478189,0.3279742048697581,-0.8401298827849213,-0.11633457035966943,-0.6732664832031596,-0.6310818978802333,-0.5958825993692773,-0.2296698270452556,-0.9210677773127063,-0.31224300901365154,-0.2408413833161051,-0.47037206830546086,-0.801323029583148,0.0451301908284591,-1.375806007059419,-0.7902377391255908,-1.8905982878601282,-2.0323184828667475,-1.1340269210309668,-1.0731081255592745,-0.22994223888562904,-0.6798423806158042,0.23337538224511767,-1.5038963961718907,-1.2794102140434696,-1.23523647865949,-0.8087387195747372,0.001261129660105332,0.2579746324102123,-0.9146520865553484,0.8918237981651798,0.6843271233675317,-0.4067750356858137,-0.8456249395470641,-0.661510218138005,-0.7521457792174349,-0.7907368735283768,-0.09134930557911586,-0.7714662644761273,-0.6924463992482307,0.45337482845391675,-0.2382120319995565,0.19242702779231186,-1.571207362647834,-1.2278331426400015,-0.9869852979738294,-2.0120894686441515,-2.0549069562278803,-0.5170499528386875,-0.4126005603654018,-0.8295236961030024,-0.6084191681801944,-0.6312686076227395,-1.2428420705705487,-0.48800808155581876,-0.7282169945458308,-0.8453193571026142,0.9002844957364922,0.1972827254879785,0.45702163611297675,-0.369272513467765,-0.2137057410119696,-0.5275489511452357,-0.8185949325395383,-0.6976002728985503,0.458188952572835,0.11098596659218281,-0.26966605366973906,-0.5167557783083103,0.2737598450040384,-1.5767268861512496,-1.2910175786854328,-1.2353997413683333,-0.4402021467359463,-0.03444774956354147,-1.4738112210077279,-0.03887163661295533,-0.04742505784346243,-1.2211841609356473,-0.7820894090048864,-0.6078367965240434,0.6877135774681343,-0.7920053330119077,0.5120242031696488,-0.375052455172002,0.4504802620209092,-0.16020011858780073,0.15654690772108157,0.6652235466522622,0.6083311299677683,0.7324618122417159,-0.8981778091964069,0.3131980164831117,-0.8773666801861715,-0.3987493610265094,-0.22392250214659673,-0.6380086718649002,-0.5598901592408456,0.2227225080834761,-1.6200853776097393,-0.6120131990501816,-1.1931964147545278,-1.7126490428017787,-1.5930587723827114,0.094345627441718,0.006618388721472644,0.13578610471703906,0.4368769169299836,-0.9607715266939857,-0.5224206851486971,0.20770730411051094,-0.10479763478897876,-0.1955711835140732,-0.29264967940470016,0.18729312938346085,0.1511459517087997,-0.6770843318715198,-0.0565203249631218,0.10424482670687932,0.12008437293182297,-0.6565365655857688,0.32429191559300247,-1.1760796434696799,-0.6017131027368925,0.10924846245355421,-0.5166579686287591,-1.2944931231419357,-0.5622303879473267,-0.8866855542820137,-0.419667646361277,-0.5057386335939403,-0.6893152135020072,-0.8371596379252882,-1.4519072352156583,-1.0734395915437978,-0.599153860370562,-0.0905354075211716,-0.15602075930442885,-0.5227854286248729,-1.0381194473099902,-0.03364826106499465,-0.4368763935081915,0.46807262771809577,-0.952107469459033,0.1696556226115817,0.8829484750121308,-0.6538557745848913,-0.07286018698700687,-0.8790985490942498,0.116041800879783,-0.11730003662119264,-0.5082990897906339,-0.41639721589383966,0.1313733509980414,-1.460543653029925,-1.9449929751560688,-0.3058142720967383,-0.8402190099284755,-0.13927130867807377,-0.641401607850086,-0.0970177890579094,-0.7104399037217503,0.0776914481905734,0.5361822989525189,-0.04796400018950887,-0.7544975243065852,-0.522914628343604,-0.6311694250286438,-0.521331067803146,-0.39297482695435293,0.10986991109432614,0.1759832589276655,-0.1470005055162777,0.2308415596416708,-0.83824222708124,-0.8339040875568277,-0.6926575072899545,-0.054632181075371496,-0.7424027872225557,-0.7180344208059157,-0.6486564089751868,-0.017784205937949008,-1.82194885971524,-0.6496498306518722,-0.5838157237214758,-0.2218483822799117,0.15313551800065175,-1.5966086143836533,-1.2196307753985136,0.3862422197066898,-0.35383411587453123,-0.049549504839382225,0.22054176318267166,0.30120477863000156,0.834524740335955,0.9813196534884161,0.4336177836553098,-0.42785747878288216,0.7593656553535408,-0.9015581709184768,-0.5378382942510076,0.7947714349274297,-0.4885069751042438,-0.5629440835892341,-0.7399399534335785,0.6722606136921694,-0.10099750814637141,0.16323957182918677,-0.866910644251198,-0.02850467803969991,-0.1877854752965744,-1.144922763784314,-0.8864193291560037,-1.1587050658910163,0.4798213357482824,-0.11783038145261032,0.5417583024728708,-0.6305680766756186,0.3960559229016997,0.4228068469754933,0.32967056250306315,0.9044739971463268,-0.22448438099031004,-0.7432231689130299,0.34313017760640324,0.45849877508196896,0.14969139368547377,-0.5863642137332075,0.0089118833387107,-0.3756205268617412,-0.1450669436666218,0.28874270055113554,0.48494254310129037,-0.5511550926772169,-0.22898840746375004,-0.5481359934535833,-0.7725176148345698,0.27694175819493877,0.43335956590719527,-0.6527102200381776,0.15848896578727728,0.5153451730677066,0.4600053661462316,-0.8398317392903432,0.7407115924272819,-0.36946989759886023,-0.41528167726728943,-0.9326933587075688,-0.061873408723925154,-0.798802005590058,-0.511397086839039,-0.3691272989326478,0.6170752141898932,0.750977300791793,-0.3950673650770606,0.7173962424891478,0.7144618747395821,0.529301900769747,-0.7066097719696369,0.38064075867528196,0.8894685855939224,0.3599787050468242,-0.35291585259609337,-0.0445560495560794,0.1977174406028931,-0.11752454753227676,-0.9282215430982016,-0.5252301793335894,0.499965320681177,0.6454943066932565,-0.8048194469539802,0.8187836946659959,-0.4183620539496969,0.2653018813767963,0.4636453910428964,0.5996562028467927,0.874738876274618,-0.382708072587724,0.7132107063496287,-0.7369707914473699,0.4097702128479728,0.4839554590279717,0.3554464824026409,-0.495370527729694,0.7460862940304067,-0.66228307325921,-0.8927304169583383,0.4347699115995385,-0.0506066455564111,0.6960884886295886,-0.2413393510441038,-0.6871354183484651,0.620667755282968,0.031443790022684485,-0.6963084857385418,0.3773054205896486,-0.014760930385530792,0.1822882492004742,-0.10586347722790848,0.629244737698694,0.6308394274974781,0.3975749270150031,-0.8067130924314666,0.6675052181091583,0.3355976044945966,0.3919131301464645,-0.2743667334097704,0.7584387158335464,0.4507432004697149,-0.7748190669416111,-0.1844439311876746,0.7727607239202834,-0.905606596605242,0.922833239284099,0.3583251366391256,0.2627519552867532,-0.4588814870240172,-0.5025134703926697,0.8836997419620978,-0.4047402890765837,0.5490480569187107,-0.2170553336985881,-0.7273067607211954,-0.9845622524237657,0.08450437225304414,0.9485322698470334,-0.26667494188203683,-0.2892936169343396,-0.3172657685426353,0.03624438131269785,-0.12133981445974264,0.7589875735424243,0.011005708763333611,0.015255178944397731,-0.7234223792948333,0.965479081820772,-0.5000542182623406,-0.8532718650807947,0.3262924979504176,0.1907327403137453
